/*
 * Copyright (c) 2026 EdgeImpulse Inc.
 *
 * Generated by Edge Impulse and licensed under the applicable Edge Impulse
 * Terms of Service. Community and Professional Terms of Service
 * (https://edgeimpulse.com/legal/terms-of-service) or Enterprise Terms of
 * Service (https://edgeimpulse.com/legal/enterprise-terms-of-service),
 * according to your product plan subscription (the “License”).
 *
 * This software, documentation and other associated files (collectively referred
 * to as the “Software”) is a single SDK variation generated by the Edge Impulse
 * platform and requires an active paid Edge Impulse subscription to use this
 * Software for any purpose.
 *
 * You may NOT use this Software unless you have an active Edge Impulse subscription
 * that meets the eligibility requirements for the applicable License, subject to
 * your full and continued compliance with the terms and conditions of the License,
 * including without limitation any usage restrictions under the applicable License.
 *
 * If you do not have an active Edge Impulse product plan subscription, or if use
 * of this Software exceeds the usage limitations of your Edge Impulse product plan
 * subscription, you are not permitted to use this Software and must immediately
 * delete and erase all copies of this Software within your control or possession.
 * Edge Impulse reserves all rights and remedies available to enforce its rights.
 *
 * Unless required by applicable law or agreed to in writing, the Software is
 * distributed on an "AS IS" BASIS, WITHOUT WARRANTIES OR CONDITIONS OF ANY KIND,
 * either express or implied. See the License for the specific language governing
 * permissions, disclaimers and limitations under the License.
 */
// Generated on: 12.04.2026 02:10:28

#include <stdio.h>
#include <stdlib.h>
#include "edge-impulse-sdk/tensorflow/lite/c/builtin_op_data.h"
#include "edge-impulse-sdk/tensorflow/lite/c/common.h"
#include "edge-impulse-sdk/tensorflow/lite/micro/micro_mutable_op_resolver.h"
#include "edge-impulse-sdk/porting/ei_classifier_porting.h"

#if EI_CLASSIFIER_PRINT_STATE
#if defined(__cplusplus) && EI_C_LINKAGE == 1
extern "C" {
    extern void ei_printf(const char *format, ...);
}
#else
extern void ei_printf(const char *format, ...);
#endif
#endif

#define STRINGIZE(x) #x
#define STRINGIZE_VALUE_OF(x) STRINGIZE(x)

#if defined (__GNUC__)  /* GNU compiler */
#define ALIGN(X) __attribute__((aligned(X)))
#define DEFINE_SECTION(x) __attribute__((section(x)))
#elif defined (_MSC_VER)
#define ALIGN(X) __declspec(align(X))
#elif defined (__TASKING__) /* TASKING Compiler */
#define ALIGN(X) __align(X)
#define DEFINE_SECTION(x) __attribute__((section(x)))
#elif defined (__ARMCC_VERSION) /* Arm Compiler */
#define ALIGN(X) __ALIGNED(x)
#define DEFINE_SECTION(x) __attribute__((section(x)))
#elif defined (__ICCARM__) /* IAR Compiler */
#define ALIGN(x) __attribute__((aligned(x)))
#define DEFINE_SECTION(x) __attribute__((section(x)))
#elif defined (__clang__) /* LLVM/Clang Compiler */
#define ALIGN(X) __ALIGNED(x)
#define DEFINE_SECTION(x) __attribute__((section(x)))
#endif

#if defined(EI_MODEL_SECTION) && (defined(__GNUC__) || defined(__clang__))
#define MODEL_SECTION(X) __attribute__((section(STRINGIZE_VALUE_OF(X))))
#else
#define MODEL_SECTION(X)
#endif

#ifndef EI_MAX_SCRATCH_BUFFER_COUNT
#ifndef CONFIG_IDF_TARGET_ESP32S3
#define EI_MAX_SCRATCH_BUFFER_COUNT 14
#else
#define EI_MAX_SCRATCH_BUFFER_COUNT 28
#endif // CONFIG_IDF_TARGET_ESP32S3
#endif // EI_MAX_SCRATCH_BUFFER_COUNT

#ifndef EI_MAX_OVERFLOW_BUFFER_COUNT
#define EI_MAX_OVERFLOW_BUFFER_COUNT 10
#endif // EI_MAX_OVERFLOW_BUFFER_COUNT

using namespace tflite;
using namespace tflite::ops;
using namespace tflite::ops::micro;

namespace {

#if defined(EI_CLASSIFIER_ALLOCATION_STATIC_HIMAX) || defined(EI_CLASSIFIER_ALLOCATION_STATIC_HIMAX_GNU)
constexpr int kTensorArenaSize = 242640;
#else
constexpr int kTensorArenaSize = 241616;
#endif

#if defined(EI_CLASSIFIER_ALLOCATION_STATIC)
#if defined (EI_TENSOR_ARENA_LOCATION)
uint8_t tensor_arena[kTensorArenaSize] ALIGN(16) DEFINE_SECTION(STRINGIZE_VALUE_OF(EI_TENSOR_ARENA_LOCATION));
#else
uint8_t tensor_arena[kTensorArenaSize] ALIGN(16);
#endif
#elif defined(EI_CLASSIFIER_ALLOCATION_STATIC_HIMAX)
#pragma Bss(".tensor_arena")
uint8_t tensor_arena[kTensorArenaSize] ALIGN(16);
#pragma Bss()
#elif defined(EI_CLASSIFIER_ALLOCATION_STATIC_HIMAX_GNU)
uint8_t tensor_arena[kTensorArenaSize] ALIGN(16) __attribute__((section(".tensor_arena")));
#else
#define EI_CLASSIFIER_ALLOCATION_HEAP 1
uint8_t* tensor_arena = NULL;
#endif

static uint8_t* tensor_boundary;
static uint8_t* current_location;

template <int SZ, class T> struct TfArray {
  int sz; T elem[SZ];
};

enum used_operators_e {
  OP_CONV_2D, OP_DEPTHWISE_CONV_2D, OP_PAD, OP_ADD, OP_SOFTMAX,  OP_LAST
};

struct TensorInfo_t { // subset of TfLiteTensor used for initialization from constant memory
  TfLiteAllocationType allocation_type;
  TfLiteType type;
  void* data;
  TfLiteIntArray* dims;
  size_t bytes;
  TfLiteQuantization quantization;
};

typedef struct {
  TfLiteTensor tensor;
  int16_t index;
} TfLiteTensorWithIndex;

typedef struct {
  TfLiteEvalTensor tensor;
  int16_t index;
} TfLiteEvalTensorWithIndex;

TfLiteContext ctx{};
static const int MAX_TFL_TENSOR_COUNT = 4;
static TfLiteTensorWithIndex tflTensors[MAX_TFL_TENSOR_COUNT];
static const int MAX_TFL_EVAL_COUNT = 4;
static TfLiteEvalTensorWithIndex tflEvalTensors[MAX_TFL_EVAL_COUNT];
TfLiteRegistration registrations[OP_LAST];

namespace g0 {
const TfArray<4, int> tensor_dimension0 = { 4, { 1,96,96,3 } };
const TfArray<1, float> quant0_scale = { 1, { 0.0039215688593685627, } };
const TfArray<1, int> quant0_zero = { 1, { -128 } };
const TfLiteAffineQuantization quant0 = { (TfLiteFloatArray*)&quant0_scale, (TfLiteIntArray*)&quant0_zero, 0 };
const MODEL_SECTION(EI_MODEL_SECTION) ALIGN(16) int32_t tensor_data1[4*2] = { 
  0, 0, 
  0, 1, 
  0, 1, 
  0, 0, 
};
const TfArray<2, int> tensor_dimension1 = { 2, { 4,2 } };
const MODEL_SECTION(EI_MODEL_SECTION) ALIGN(8) int32_t tensor_data2[2] = { 31528, -34502, };
const TfArray<1, int> tensor_dimension2 = { 1, { 2 } };
const TfArray<2, float> quant2_scale = { 2, { 0.00015358919335994869, 0.00014056536019779742, } };
const TfArray<2, int> quant2_zero = { 2, { 0,0 } };
const TfLiteAffineQuantization quant2 = { (TfLiteFloatArray*)&quant2_scale, (TfLiteIntArray*)&quant2_zero, 0 };
const MODEL_SECTION(EI_MODEL_SECTION) ALIGN(16) int8_t tensor_data3[2*1*1*32] = { 
  /* [0][0][][] */ 72,-46,-58,95,-61,-10,-37,66,127,-29,-42,-55,-30,53,-44,50,96,-105,-57,-96,99,69,71,-54,-57,-110,-43,70,9,-63,18,61, 
  /* [1][0][][] */ 58,81,79,-66,-80,84,-9,15,-42,-15,40,127,121,48,47,-2,-43,3,-75,-96,-84,36,37,113,82,84,-50,-5,108,-112,-123,-15, 
};
const TfArray<4, int> tensor_dimension3 = { 4, { 2,1,1,32 } };
const TfArray<2, float> quant3_scale = { 2, { 0.003647378645837307, 0.0033380934037268162, } };
const TfLiteAffineQuantization quant3 = { (TfLiteFloatArray*)&quant3_scale, (TfLiteIntArray*)&g0::quant2_zero, 0 };
const MODEL_SECTION(EI_MODEL_SECTION) ALIGN(16) int32_t tensor_data4[32] = { 44, 177, 150, -365, -260, 200, -420, 161, -36, -356, 170, 148, 214, 185, 368, -34, -277, 30, 69, -329, -158, 117, 77, 108, 58, 297, -306, -365, -385, -330, 496, -565, };
const TfArray<1, int> tensor_dimension4 = { 1, { 32 } };
const TfArray<32, float> quant4_scale = { 32, { 4.3039992306148633e-05, 4.3880605517188087e-05, 4.2796906200237572e-05, 4.2159055738011375e-05, 4.1655435779830441e-05, 4.1096158383879811e-05, 4.2856856452999637e-05, 4.2113988456549123e-05, 4.0459915908286348e-05, 4.1903633245965466e-05, 4.2171723180217668e-05, 4.8397410864708945e-05, 4.3820706196129322e-05, 4.4522366806631908e-05, 4.5458462409442291e-05, 4.0703715058043599e-05, 4.1734572732821107e-05, 5.9534024330787361e-05, 4.9812231736723334e-05, 4.133075344725512e-05, 4.2870233301073313e-05, 4.5797405618941411e-05, 4.0444192563882098e-05, 4.1484443499939516e-05, 5.0532795285107568e-05, 4.3586285755736753e-05, 4.2070412746397778e-05, 3.9988772186916322e-05, 4.2644034692784771e-05, 4.1515108023304492e-05, 5.142893860465847e-05, 4.1558836528565735e-05, } };
const TfArray<32, int> quant4_zero = { 32, { 0,0,0,0,0,0,0,0,0,0,0,0,0,0,0,0,0,0,0,0,0,0,0,0,0,0,0,0,0,0,0,0 } };
const TfLiteAffineQuantization quant4 = { (TfLiteFloatArray*)&quant4_scale, (TfLiteIntArray*)&quant4_zero, 0 };
const MODEL_SECTION(EI_MODEL_SECTION) ALIGN(16) int8_t tensor_data5[32*1*1*96] = { 
  /* [0][0][][] */ -34,-50,106,15,92,-14,-88,-106,66,-103,-106,-6,67,8,-39,53,-61,-30,-65,-60,-70,-104,3,108,-126,14,78,-50,99,-1,-23,-71,77,-60,-101,61,-113,-82,-110,30,74,-80,-95,97,50,-107,111,-27,14,-67,-40,97,-75,-45,-98,105,22,67,127,-115,-77,72,-53,42,-8,17,71,98,41,99,92,-114,103,-104,23,86,-102,12,-60,44,51,17,88,2,-62,-45,-85,110,26,113,-12,-121,6,59,27,19, 
  /* [1][0][][] */ -44,39,-73,5,-37,84,41,20,86,-97,-96,106,87,-20,26,71,109,-39,43,127,-38,-3,39,31,26,20,-37,102,9,14,105,-51,55,111,-19,35,52,67,-3,-56,-55,15,-16,-89,-31,45,-22,-51,-22,-72,119,69,18,92,-74,-48,32,108,68,86,-51,112,-57,-90,-55,45,77,50,113,35,29,19,-108,96,-57,50,95,-42,-36,77,-71,86,-50,-99,34,122,-61,-51,87,84,87,16,91,106,40,-5, 
  /* [2][0][][] */ 59,43,-66,102,-26,-61,92,106,-93,89,-30,116,114,-9,84,-106,-57,-26,41,65,-90,-14,114,24,-34,83,107,4,-75,88,87,108,-74,-12,-105,-100,-88,102,116,-21,-111,-69,21,-1,-81,127,-17,-77,100,44,98,-78,-41,73,24,18,-66,106,-57,8,-11,56,-30,58,94,56,49,96,-86,76,18,-64,35,-69,19,31,-42,-24,9,15,45,-93,-10,-26,7,-92,-13,-18,98,117,-35,-2,-35,-70,-34,-68, 
  /* [3][0][][] */ 73,-5,33,-26,-73,54,-121,34,47,18,61,-2,95,94,69,1,101,95,-61,13,112,-96,-73,-123,-28,-117,-89,103,43,-102,83,4,-62,-41,-14,-19,-100,-29,39,45,-30,-100,-103,-5,71,24,-53,-91,64,-86,47,-4,92,26,87,-105,-126,-122,-120,-66,-103,33,-41,73,56,-40,-69,-34,-35,-73,-2,98,15,-112,53,-57,27,94,92,-68,-98,-127,34,89,24,40,-49,-127,-91,40,-2,-111,94,-99,-95,41, 
  /* [4][0][][] */ 50,99,-4,52,-35,61,29,9,57,86,-12,42,27,-43,-15,-72,-30,-10,-69,27,104,-96,84,23,-22,-3,62,-66,-39,32,-74,-63,64,113,42,-111,-58,-10,-122,48,-55,-71,-80,-98,31,103,33,55,17,45,-18,-84,-98,43,-91,19,28,-102,63,10,4,-77,-31,-73,-46,50,-1,-38,33,-111,-107,-92,-59,19,106,49,57,-28,-12,-64,-1,-48,-100,-28,-6,67,88,-7,-127,-81,47,39,25,98,-106,-23, 
  /* [5][0][][] */ 113,-89,77,93,34,-115,32,70,116,-121,4,-75,44,108,39,44,66,64,-70,114,40,56,22,-24,-117,-64,-15,-100,48,41,23,-91,-44,11,-84,27,-119,-30,58,30,-86,-47,48,107,-32,34,44,-52,-110,118,31,44,48,25,41,-24,118,61,-45,-37,38,-74,48,-88,-31,115,-26,38,88,8,119,-67,-46,85,-37,-72,24,-48,17,91,119,46,29,127,-79,92,0,53,79,-99,119,83,-10,43,88,-88, 
  /* [6][0][][] */ 10,-52,108,70,-91,-71,-8,58,-20,-86,-1,-90,81,50,109,-125,35,-4,-6,98,-85,-125,103,52,-64,-88,-15,-61,-32,-121,40,-85,-95,-127,-41,-110,-15,33,-115,74,80,49,18,-23,-118,98,-96,-51,-90,9,-30,-72,54,-61,86,-31,2,-14,-71,107,-101,-1,59,-78,-55,59,95,-54,72,-11,-113,-10,47,-74,-97,-47,-89,-108,-63,-36,27,-34,38,-35,-78,-94,-46,-103,77,88,91,11,-58,-74,70,-29, 
  /* [7][0][][] */ 121,74,-38,-42,-79,127,-16,5,121,5,-95,13,69,-89,50,81,59,19,6,127,58,38,-2,93,-72,105,44,56,-78,117,-17,45,27,29,61,106,-103,94,-8,-23,102,-73,89,77,56,2,110,-111,59,-46,-119,-60,-19,88,26,28,126,-89,13,-54,6,-5,90,-127,-74,-48,72,28,-102,22,78,87,94,27,57,65,-50,60,-98,46,100,-37,-27,-68,94,41,-109,107,86,10,88,50,-57,-25,6,-73, 
  /* [8][0][][] */ 0,31,-41,-102,56,26,-81,-31,-1,29,43,91,-29,-51,-88,-81,-72,100,-79,12,22,-26,87,116,-111,98,45,83,-68,16,-102,110,105,-41,65,-11,126,-2,-24,70,81,100,-124,-127,-12,-38,-32,117,22,-110,-77,-12,-75,-17,-35,-115,49,102,-111,110,111,46,37,126,-35,-59,-22,96,-94,45,22,-13,80,67,22,22,-62,114,85,76,30,86,-123,-107,23,39,74,-59,29,-44,-84,104,-94,-122,-63,64, 
  /* [9][0][][] */ -9,0,110,39,95,-110,-57,-126,34,56,-19,58,-54,-90,-112,-34,9,-9,-102,-48,-4,95,-118,-113,112,-17,-21,24,-4,-39,-100,93,64,-7,34,-27,-77,9,-17,-55,40,-80,47,-101,74,11,-117,52,48,-1,-98,-51,74,-83,-68,95,85,-68,-29,-7,-103,115,100,-83,-92,-1,100,38,-40,98,101,-105,-8,75,-68,-105,-82,-127,-48,97,28,14,94,22,-52,-106,30,-24,97,26,-38,111,102,-7,59,-42, 
  /* [10][0][][] */ -49,90,90,-61,-15,112,113,41,46,35,31,-67,127,90,-33,19,-33,82,-93,-49,-10,31,61,-66,22,58,-116,-119,-51,92,-88,-69,82,111,109,83,-42,14,-22,43,-30,127,-107,-32,-96,-49,5,-59,-1,15,46,23,71,32,-62,-35,-98,-5,39,-42,3,81,123,30,122,-67,-98,-13,35,-12,-84,-59,90,74,-95,113,-2,68,72,27,87,2,59,122,-96,78,109,-11,46,13,-11,-80,-44,-32,-32,-67, 
  /* [11][0][][] */ 91,19,-7,86,127,60,48,27,95,92,-71,117,18,-83,24,-59,-39,-89,67,51,36,68,26,-93,-96,-84,-14,73,83,7,22,3,-81,-70,36,50,-44,67,-23,-60,-26,102,-70,12,-38,-52,-86,-80,73,114,91,56,-74,-83,25,23,-57,-45,-12,-76,-84,91,101,9,45,86,-50,18,93,48,-57,-55,43,101,-81,53,-46,36,-39,81,-87,-29,-70,-34,44,-64,16,-4,-80,-15,17,-84,-82,-11,-68,-45, 
  /* [12][0][][] */ 25,73,-55,10,86,13,-29,46,-66,61,-7,17,-21,19,51,-69,-93,-29,-39,-68,34,-6,21,101,-73,-44,102,-98,90,23,-27,127,-85,-59,-53,23,0,-66,-8,50,120,48,-101,-33,-16,-72,-30,118,-40,-101,-69,114,45,11,-76,85,-13,-47,61,71,63,112,5,43,112,44,-41,125,66,107,53,80,86,118,-24,0,-20,38,-108,-86,-47,104,47,30,-28,39,60,127,-82,-100,87,33,108,3,41,74, 
  /* [13][0][][] */ 115,-52,98,99,89,117,82,71,75,-97,17,-25,107,74,67,-39,-109,-66,-59,37,72,-23,118,-40,-67,41,9,17,-84,-78,86,48,38,107,-28,42,-77,-22,31,74,-55,82,-46,18,-38,36,5,-26,37,110,-32,-91,-87,35,103,-79,-38,35,-12,-66,-22,115,-64,3,-50,-50,-86,91,-25,-6,106,5,-83,41,-78,-36,-87,69,83,-57,59,-91,90,33,-72,-90,96,127,-3,-45,-74,41,116,-32,76,-7, 
  /* [14][0][][] */ -119,-97,93,65,92,-12,-4,-126,-75,-20,73,95,-71,-113,-77,-78,-40,-47,6,38,-36,40,5,69,-104,-58,-13,39,-94,-95,-96,57,79,-32,-24,-4,102,115,20,-117,1,-85,19,91,73,-111,56,-78,113,60,37,64,86,-28,-5,19,-53,-55,34,92,-35,-63,-12,46,-68,5,81,-125,-69,-97,-80,105,0,86,49,-60,63,-94,61,42,56,-58,-127,-35,-98,-76,-111,121,107,5,94,-41,83,113,-21,39, 
  /* [15][0][][] */ 10,-32,-30,77,97,-77,66,-108,60,-4,-74,-7,84,4,-90,-116,97,15,-104,27,45,22,79,117,100,78,43,94,28,64,69,-111,10,9,-47,-10,-69,119,111,-72,19,115,-51,-25,29,-84,-44,-83,-8,-83,-6,34,-106,-105,-52,-4,71,49,-74,119,-50,-70,0,125,-36,101,-73,-1,-61,5,59,-84,17,-13,70,-115,-1,61,112,80,-87,64,-115,-71,-127,-39,-97,36,87,75,-123,-46,56,116,-112,121, 
  /* [16][0][][] */ -88,-5,108,-76,37,112,-62,27,39,46,-120,71,-40,-59,-57,-71,109,81,65,56,104,77,-44,48,-27,51,-75,68,-102,4,32,-1,-100,68,64,52,-35,47,-64,-82,16,-57,65,87,61,95,95,-17,-58,-127,-6,101,-51,106,67,44,24,80,63,7,111,114,26,80,53,2,-42,80,34,90,-45,-22,29,87,76,85,-25,99,-119,-21,5,-90,54,-6,4,95,96,-5,68,8,-9,123,59,-47,-100,23, 
  /* [17][0][][] */ 77,-62,-17,86,-40,-115,-47,-25,56,-67,77,20,127,71,-85,47,5,24,59,88,-35,-12,13,-36,-34,55,-54,-1,42,-28,7,95,-62,16,-3,35,-70,86,-19,-4,-60,-10,17,-6,-7,37,84,-86,31,47,40,37,-4,102,41,-37,-91,109,-58,-75,56,-93,59,50,-35,-33,27,-44,-59,34,95,59,-12,-63,-87,40,88,-41,37,-18,19,2,-14,-23,-70,64,81,0,51,56,-108,-63,35,77,42,33, 
  /* [18][0][][] */ -64,85,97,-39,-14,-49,-83,4,-9,62,-89,-47,-35,34,59,-59,21,-14,41,22,101,-35,19,-61,15,-68,-9,98,27,54,1,61,32,-16,-68,-94,-29,36,-21,77,-29,-3,-28,-8,-98,16,30,-4,9,-22,87,49,-98,13,17,106,-19,44,-23,-100,113,89,64,56,-25,-102,-23,98,81,-43,-64,98,-82,-9,-43,-89,73,49,3,-57,-44,2,6,-54,86,-20,59,67,-79,-35,-20,127,106,-3,50,-4, 
  /* [19][0][][] */ 16,26,74,37,57,-86,96,90,93,-65,26,-14,-98,31,-61,59,73,-111,112,59,-26,79,-61,11,76,-84,28,-72,-95,-124,-70,44,81,-89,35,-5,6,-75,-61,-107,42,-123,-89,6,-93,27,76,-100,-32,39,-41,44,-37,11,3,-12,21,98,3,-31,54,-57,102,60,-75,-5,-30,-4,-10,53,75,-55,-68,-127,-60,-86,-27,-120,12,106,57,-122,-33,77,-93,-11,5,-7,89,27,-6,60,-36,115,70,-52, 
  /* [20][0][][] */ -17,66,74,90,-90,91,19,49,11,15,-90,6,-20,85,41,-76,-50,-35,-68,-35,20,-43,-76,-71,78,-74,-102,52,24,2,-44,102,108,39,7,50,44,-37,-27,-112,-87,-41,-93,-105,-30,-70,-75,105,62,-127,-99,32,42,103,50,4,93,66,91,87,111,-45,-76,-23,-32,-73,-49,10,-96,-81,-71,74,-63,-90,42,19,101,77,108,104,81,6,90,-35,56,112,-18,62,17,95,33,62,19,13,-11,5, 
  /* [21][0][][] */ 96,74,65,-91,84,-68,70,24,0,-60,-63,38,19,37,-48,-81,-96,-30,31,-24,103,-45,68,-75,47,-85,-31,65,9,-2,-4,-10,0,24,-96,-103,103,95,-104,-25,-3,10,30,-9,-91,-73,-70,87,-23,-60,-6,88,39,69,-88,18,-45,53,-41,114,52,-74,22,-25,67,36,-33,-58,-102,1,64,74,33,-19,57,65,-96,-27,60,99,16,93,26,-59,27,-84,62,-69,-95,75,98,-127,-41,-50,70,-31, 
  /* [22][0][][] */ 38,-54,-79,-103,96,-97,114,64,-101,101,-80,-115,90,-116,-121,-91,45,92,-122,-77,100,-77,37,34,93,-6,-127,115,-52,-102,-66,-119,56,69,2,17,7,-16,-63,-126,4,-9,5,103,62,-122,99,-20,-62,-104,0,-31,-51,-94,-58,40,4,-28,-37,-29,117,-76,-92,-122,-72,22,-120,-49,119,114,-11,8,-80,9,73,-94,52,-52,70,103,117,-108,-78,-122,87,91,109,-36,-53,35,-64,33,23,34,-29,111, 
  /* [23][0][][] */ 78,-85,1,63,94,-114,4,-90,61,-80,92,79,40,-109,18,-38,92,-38,-105,116,102,-85,108,-34,-27,-15,86,19,70,55,79,-22,-50,51,3,47,101,-2,-104,11,-106,7,14,-108,-72,-84,122,26,79,-103,-95,-43,89,-56,-51,90,-86,-12,112,48,-118,-94,-46,-27,34,48,-122,-107,73,-10,127,-69,-6,-28,-50,-96,60,-23,99,124,-49,-56,18,-92,101,13,122,-7,-87,44,103,-23,113,-37,-25,83, 
  /* [24][0][][] */ -68,-37,-92,-78,-93,-109,-59,-89,58,106,72,37,35,55,-31,-98,-68,37,11,-74,81,-69,-46,-31,41,-36,64,46,80,20,7,-38,-6,11,7,32,-44,-64,24,-34,-57,-82,91,8,23,-27,46,62,-105,-58,-68,11,52,46,53,-58,-19,56,-22,2,61,-4,-11,80,-111,89,-41,-127,-118,48,-56,-21,-56,34,72,85,10,-64,-90,-75,-64,-111,-76,-93,5,57,-9,-73,25,-88,-37,-109,-12,31,-93,29, 
  /* [25][0][][] */ -102,-46,-69,-7,108,-56,-96,56,46,-97,-34,45,91,-8,-105,-22,-62,57,42,-121,78,88,-5,-49,7,-57,-93,48,86,-96,40,127,77,-116,27,83,108,-60,-20,-18,-83,109,-98,12,94,43,63,35,-102,104,-79,9,51,-20,-52,1,-20,49,-94,77,105,53,74,48,-6,87,-14,-9,-105,2,-11,-102,37,-126,66,32,80,79,21,25,59,38,-52,91,-67,-34,-98,-70,-16,-45,110,19,-125,2,-35,-84, 
  /* [26][0][][] */ 46,-124,-20,-21,-93,-4,-15,-22,-116,-127,103,92,-95,-54,8,-20,114,27,-82,-77,7,70,98,10,66,66,9,52,17,2,-101,-13,-23,-72,-90,-109,-66,80,-57,106,-107,98,52,28,-77,66,-49,103,-24,23,-11,93,9,-59,-9,-108,94,58,48,23,-5,-94,59,-18,114,-28,-60,51,-94,75,80,93,77,-103,-86,5,36,-113,-103,5,-35,73,82,-88,76,-5,-50,4,-92,110,15,21,-64,104,40,93, 
  /* [27][0][][] */ 6,3,-73,-115,-127,-63,-80,-24,40,102,33,-117,-17,54,81,-37,65,-23,71,-91,-106,6,-36,-31,-116,42,-120,-7,68,27,-40,-17,60,67,-99,-97,-101,-76,-126,89,-107,13,24,12,99,20,67,104,90,73,60,-86,-97,-98,-13,-43,105,-30,-121,-89,-69,-68,-42,57,37,-56,-125,108,50,6,-126,3,60,-63,-14,-99,47,-76,88,104,85,-36,118,-66,-85,-95,-41,27,-57,-11,-41,-58,54,15,86,57, 
  /* [28][0][][] */ 85,-18,77,36,-115,-65,-107,-86,-47,-114,50,58,-82,-95,-6,91,85,104,-73,72,-36,14,-119,-84,-127,70,-92,-72,-80,-77,-15,-22,-116,8,72,59,7,-118,-48,22,94,32,-103,39,-121,-24,4,39,11,-64,-80,-38,-89,17,45,34,54,-22,71,43,-10,-61,-98,2,54,64,-31,73,-81,21,-113,-50,61,33,-10,-111,-119,-74,-96,33,-80,-102,107,-37,49,-126,55,-88,-108,-79,-45,-67,-42,51,-100,-72, 
  /* [29][0][][] */ 50,52,54,-60,-96,5,-127,3,96,-19,-97,-107,85,-112,-52,-52,-108,100,20,-72,-87,-40,51,0,-31,2,-53,-35,-112,-17,101,-9,54,-3,-83,-59,-16,102,-10,92,46,101,-51,82,-2,104,-59,-28,14,-22,57,-105,64,-109,111,46,-100,52,-62,107,-125,97,-103,-52,-62,-73,49,86,93,-93,21,-85,112,79,69,20,105,-69,-37,29,-12,-86,-15,-88,60,115,39,72,-48,97,68,86,-111,3,-8,58, 
  /* [30][0][][] */ 37,-41,-22,41,-65,41,-37,0,99,31,16,-8,-83,18,63,20,6,38,101,-69,27,-69,-84,29,-66,30,-38,127,-4,-90,-79,14,-50,-47,-66,-33,38,-2,14,39,84,-57,1,97,102,-29,95,58,-55,66,18,-75,107,-32,16,94,-46,-45,-24,-30,-80,11,-34,-11,-77,-64,-62,97,-56,103,65,-29,-64,102,52,-49,-44,-48,-47,-51,30,39,-91,-15,-82,41,-92,98,-34,-82,101,86,-32,-8,18,-41, 
  /* [31][0][][] */ 89,-103,24,96,54,66,-72,-106,-42,-25,-90,-97,125,-127,-60,109,-70,-104,68,52,60,27,-40,101,40,-124,28,28,-81,-78,46,104,12,19,-95,-11,91,-37,-72,-121,55,-82,-35,26,-8,-60,-39,15,63,27,116,-33,-120,-61,-94,22,-124,70,16,113,-35,-8,91,-78,74,107,-57,-83,80,-122,-124,4,-100,-44,-2,-5,-69,-56,42,92,-89,-22,58,70,48,96,-101,11,11,-61,-101,-60,21,101,-5,-19, 
};
const TfArray<4, int> tensor_dimension5 = { 4, { 32,1,1,96 } };
const TfArray<32, float> quant5_scale = { 32, { 0.0018291996093466878, 0.0018649257253855467, 0.0018188684480264783, 0.0017917598597705364, 0.0017703559715300798, 0.0017465867567807436, 0.0018214164301753044, 0.0017898444784805179, 0.0017195463879033923, 0.0017809043638408184, 0.0017922981642186642, 0.0020568899344652891, 0.0018623799551278353, 0.0018922005547210574, 0.0019319846760481596, 0.0017299078172072768, 0.0017737193265929818, 0.0025301959831267595, 0.0021170198451727629, 0.0017565570306032896, 0.0018219848861917853, 0.0019463896751403809, 0.0017188781639561057, 0.0017630888614803553, 0.0021476438269019127, 0.0018524171318858862, 0.001787992543540895, 0.0016995227197185159, 0.0018123714253306389, 0.001764392014592886, 0.0021857297979295254, 0.0017662504687905312, } };
const TfLiteAffineQuantization quant5 = { (TfLiteFloatArray*)&quant5_scale, (TfLiteIntArray*)&g0::quant4_zero, 0 };
const MODEL_SECTION(EI_MODEL_SECTION) ALIGN(16) int32_t tensor_data6[96] = { -1991, 3960, 8587, 2555, -2824, -5233, 22153, 2483, 3285, -1683, 9484, -267, -8808, 2464, 18934, 8630, 15546, 6445, -4107, -6359, 4729, 30006, 31009, 23080, 1184, 1060, 5627, 2776, 2710, -5047, 8541, -2558, -346, 5499, 127, 1215, 11381, 4114, -1904, 4749, 7972, 5805, 6624, 15875, 5445, 5725, 2042, 7048, 5855, -6362, -5898, 736, -399, -1318, 2617, 11, 273, -1172, -4317, 14688, -958, 1452, -1553, -1596, -3355, 6275, 26724, 1814, -2702, 1161, 1732, 2803, 1787, -1200, 677, 10738, -609, 18911, 18226, -1160, 11127, 2212, -450, 1646, 13961, 9408, 5144, 1263, 5634, 3658, -513, -8464, 864, -2637, -1668, -2463, };
const TfArray<1, int> tensor_dimension6 = { 1, { 96 } };
const TfArray<96, float> quant6_scale = { 96, { 0.00030506335315294564, 0.00039349941653199494, 0.00027719125500880182, 0.00034401213633827865, 0.00036338064819574356, 0.00028069064137525856, 0.00015043934399727732, 0.00028912434936501086, 0.00017611103248782456, 0.00039162984467111528, 0.0002109273336827755, 0.00026802023057825863, 0.00028631178429350257, 0.0011562966974452138, 0.00016367029456887394, 0.00013485921954270452, 0.0001183165077236481, 0.00022292415087576956, 0.00047838778118602931, 0.00026551863993518054, 0.00013075637980364263, 9.0051806182600558e-05, 9.9109172879252583e-05, 7.2360773629043251e-05, 0.0001587347942404449, 0.00046151163405738771, 0.00053134642075747252, 0.00039612958789803088, 0.00019336194964125752, 0.00038637092802673578, 0.00017194221436511725, 0.0003019964206032455, 0.00016776971460785717, 0.00021246483083814383, 0.0002852700708899647, 0.00021392302005551755, 0.00016716841491870582, 0.00025510805426165462, 0.00031839724397286773, 0.00036891017225570977, 0.00016028402023948729, 0.00044342663022689521, 0.00022925045050214976, 0.00014488169108517468, 0.00035164444125257432, 0.00017396153998561203, 0.00025104876840487123, 0.00030672896536998451, 0.00022669746249448508, 0.00020436092745512724, 0.00026367173995822668, 0.00017053619376383722, 0.00039801100501790643, 0.00021483491582330316, 0.00029654402169398963, 0.00031277496600523591, 0.00033078092383220792, 0.00023926925496198237, 0.00035451413714326918, 0.0001252314104931429, 0.00079031503992155194, 0.00043560852645896375, 0.00017637516430113465, 0.00047731515951454639, 0.00055138213792815804, 0.00030700175557285547, 8.0813500971999019e-05, 0.00021647203539032489, 0.00042118880082853138, 0.00029551010811701417, 0.00023324535868596286, 0.00018130631360691041, 0.00074586801929399371, 0.00033200526377186179, 0.00026319883181713521, 0.00019967093248851597, 0.00024539459263905883, 0.00010035766899818555, 9.9206510640215129e-05, 0.00017676879360806197, 0.00013073693844489753, 0.00015353792696259916, 0.00018554444250185043, 0.00016096465697046369, 0.00012911990052089095, 0.0002524844603613019, 0.00045374353067018092, 0.00021928503701929003, 0.00012734279152937233, 0.00055634224554523826, 0.00021433214715216309, 0.0002364201209275052, 0.00026835425524041057, 0.00039835699135437608, 0.00036752931191585958, 0.00016599427908658981, } };
const TfArray<96, int> quant6_zero = { 96, { 0,0,0,0,0,0,0,0,0,0,0,0,0,0,0,0,0,0,0,0,0,0,0,0,0,0,0,0,0,0,0,0,0,0,0,0,0,0,0,0,0,0,0,0,0,0,0,0,0,0,0,0,0,0,0,0,0,0,0,0,0,0,0,0,0,0,0,0,0,0,0,0,0,0,0,0,0,0,0,0,0,0,0,0,0,0,0,0,0,0,0,0,0,0,0,0 } };
const TfLiteAffineQuantization quant6 = { (TfLiteFloatArray*)&quant6_scale, (TfLiteIntArray*)&quant6_zero, 0 };
const MODEL_SECTION(EI_MODEL_SECTION) ALIGN(16) int8_t tensor_data7[96*1*1*16] = { 
  /* [0][0][][] */ -20,89,3,-127,-39,-38,-17,-47,-7,30,-4,58,34,-49,3,51, 
  /* [1][0][][] */ -33,27,-57,2,-23,-27,23,-65,66,58,-64,17,9,-6,37,-127, 
  /* [2][0][][] */ -6,15,-36,60,59,38,-76,-53,127,-51,15,36,16,81,-79,-7, 
  /* [3][0][][] */ 35,-52,-5,-115,-14,-26,-2,-17,98,12,46,20,10,26,25,127, 
  /* [4][0][][] */ -56,32,21,33,19,-8,7,31,-1,20,-10,-28,-127,-2,-22,22, 
  /* [5][0][][] */ -5,66,127,5,9,76,-85,82,-45,69,4,-24,54,-40,-126,33, 
  /* [6][0][][] */ 37,-51,101,-127,28,-9,-18,81,-71,-75,28,-50,-1,77,-13,90, 
  /* [7][0][][] */ 35,127,-28,-68,76,1,6,-57,113,110,-39,-2,26,-31,70,46, 
  /* [8][0][][] */ 12,-87,5,-87,18,-52,16,-76,28,62,73,-10,18,127,80,62, 
  /* [9][0][][] */ 18,-33,-7,127,37,-17,28,-56,-72,99,43,-19,-1,-64,-5,4, 
  /* [10][0][][] */ -8,30,-37,-127,6,-8,10,26,37,-21,7,-36,-29,-37,9,38, 
  /* [11][0][][] */ -2,9,13,-15,71,-23,90,-56,-76,46,-10,27,-23,127,-67,-33, 
  /* [12][0][][] */ 51,-40,-123,-27,6,-51,25,22,36,55,-39,-22,-5,127,17,37, 
  /* [13][0][][] */ -14,6,-28,6,-2,-127,-4,15,6,-9,3,-6,12,-15,13,17, 
  /* [14][0][][] */ 32,-23,91,-48,55,-4,-127,-112,-22,-35,16,-1,12,-75,-12,-21, 
  /* [15][0][][] */ -96,17,-37,-75,-6,-18,127,48,-48,19,97,-35,11,78,103,30, 
  /* [16][0][][] */ 18,55,127,103,3,16,87,67,-98,-1,-73,-5,-2,15,13,-76, 
  /* [17][0][][] */ -46,-111,-11,38,-70,-20,-70,19,-127,-37,25,-38,6,44,62,-46, 
  /* [18][0][][] */ -2,33,15,62,43,2,18,2,52,27,-13,-24,19,127,52,20, 
  /* [19][0][][] */ 7,-30,53,22,107,19,-71,-53,-89,-71,-42,-127,-27,-51,4,-33, 
  /* [20][0][][] */ 103,-26,-47,-24,15,-87,21,48,-56,45,-127,-41,2,19,-3,-13, 
  /* [21][0][][] */ 46,-34,91,20,13,12,8,101,-14,-80,41,29,-33,127,6,53, 
  /* [22][0][][] */ -28,57,-51,121,-72,0,127,64,4,63,-37,21,-5,-3,41,9, 
  /* [23][0][][] */ 55,1,111,-127,63,-5,-17,45,27,-5,29,-33,20,-46,-102,55, 
  /* [24][0][][] */ -127,37,9,-13,7,113,18,-10,-4,14,116,2,-71,21,62,-30, 
  /* [25][0][][] */ 22,25,8,22,14,16,69,-44,2,-127,-11,-15,-9,-28,15,20, 
  /* [26][0][][] */ -35,0,-6,-2,-58,-16,-35,-43,-127,-31,-14,-52,9,127,-34,67, 
  /* [27][0][][] */ -3,37,12,75,45,-30,-23,-30,49,-4,-21,5,12,127,-16,6, 
  /* [28][0][][] */ 14,73,55,61,127,-8,44,31,-96,-7,-77,-52,-3,89,46,-36, 
  /* [29][0][][] */ 2,-2,9,10,29,-2,-4,33,-21,-16,-16,-127,2,-22,-16,7, 
  /* [30][0][][] */ -17,86,-54,68,-43,-21,49,-127,-37,67,-26,-12,60,33,77,88, 
  /* [31][0][][] */ -31,-15,0,-59,-1,0,-56,-103,18,71,-11,-127,-36,-41,-8,17, 
  /* [32][0][][] */ -127,-77,-6,64,52,39,-19,17,1,-53,-84,57,85,10,62,70, 
  /* [33][0][][] */ -6,-30,-36,-21,-98,-18,-71,7,68,31,0,-63,45,-121,127,42, 
  /* [34][0][][] */ 46,-13,79,41,58,23,-51,94,-90,-52,69,23,13,0,-33,127, 
  /* [35][0][][] */ -39,59,-78,10,-14,-28,35,-127,91,109,-100,-7,1,1,86,-118, 
  /* [36][0][][] */ -24,40,18,127,37,37,102,9,-3,28,-3,7,-20,35,-77,-64, 
  /* [37][0][][] */ -17,4,17,-49,15,10,-35,-46,-57,-2,-5,-4,-2,-127,37,-52, 
  /* [38][0][][] */ 46,89,-16,-59,127,-12,28,-43,111,86,-16,-9,18,-34,55,22, 
  /* [39][0][][] */ -36,82,-7,-127,-10,12,-31,28,61,-63,-14,-15,18,58,47,27, 
  /* [40][0][][] */ -13,-30,14,-72,3,-3,-23,-38,-127,-22,10,-3,-4,-108,83,-67, 
  /* [41][0][][] */ -20,-11,-32,-7,10,-13,24,-4,-21,25,-55,-10,-127,12,18,21, 
  /* [42][0][][] */ 127,90,-27,-21,-72,-45,-23,-62,1,18,106,-46,-64,49,114,-117, 
  /* [43][0][][] */ -38,106,-78,16,82,2,95,-32,56,60,-9,22,36,-127,-94,-87, 
  /* [44][0][][] */ -24,-28,10,-30,67,13,-117,-127,-20,-28,27,29,-10,-23,72,-82, 
  /* [45][0][][] */ -21,55,-127,-28,39,-72,22,-81,-2,17,21,-66,26,-34,51,-37, 
  /* [46][0][][] */ 8,1,-16,-106,-18,14,18,-32,-118,-24,9,3,-10,-127,72,-26, 
  /* [47][0][][] */ 24,42,28,-12,127,-8,-36,20,-47,28,9,31,7,7,106,-29, 
  /* [48][0][][] */ -127,-79,-16,48,70,23,15,-15,-2,-13,-122,37,54,6,70,47, 
  /* [49][0][][] */ 12,26,95,67,125,16,58,28,-127,-51,-55,-89,-10,112,10,-71, 
  /* [50][0][][] */ 24,2,-86,-26,11,-127,-23,7,-2,-6,1,-53,50,-20,2,23, 
  /* [51][0][][] */ 12,34,41,8,24,0,13,27,-121,66,-9,-127,-5,-113,-25,93, 
  /* [52][0][][] */ 3,72,-16,34,28,-9,33,16,90,123,-44,-77,32,127,82,37, 
  /* [53][0][][] */ 0,-43,-11,-29,-93,-19,-70,7,45,32,4,-68,45,-127,116,27, 
  /* [54][0][][] */ 61,-8,-36,17,124,82,-127,-38,-73,-15,-16,-58,16,-37,-17,-38, 
  /* [55][0][][] */ 34,-1,-1,-6,29,-32,-60,-127,-29,-61,-49,-2,-4,-29,20,-5, 
  /* [56][0][][] */ -24,9,32,-14,1,-20,-104,76,-11,127,0,-6,31,15,-10,1, 
  /* [57][0][][] */ -4,22,-46,-21,-57,-55,127,88,-27,29,-11,3,29,23,123,-11, 
  /* [58][0][][] */ 54,4,-127,41,73,107,-28,73,-84,-16,-23,11,-41,51,-12,-16, 
  /* [59][0][][] */ -103,75,116,24,-72,-60,126,127,25,7,33,-11,18,12,70,-5, 
  /* [60][0][][] */ 15,-21,-44,11,24,-127,-30,-2,-14,-21,-6,-5,23,-7,-11,2, 
  /* [61][0][][] */ 16,-11,24,127,79,29,31,2,-98,4,3,36,-29,16,30,-60, 
  /* [62][0][][] */ -44,127,28,-40,-18,-9,-53,69,-28,-69,-106,-61,-32,-87,-71,-48, 
  /* [63][0][][] */ -34,19,-37,127,-84,12,-72,-35,-57,-31,-20,-29,17,58,47,39, 
  /* [64][0][][] */ 13,-3,9,31,7,2,-9,54,19,2,-16,-47,-7,-127,51,1, 
  /* [65][0][][] */ -16,-32,6,-127,32,-30,70,-28,1,63,-12,-117,-14,1,19,-48, 
  /* [66][0][][] */ 31,-24,75,-14,12,2,-24,127,10,-102,82,63,23,123,26,81, 
  /* [67][0][][] */ -6,58,-21,-127,-13,-3,-56,32,82,-83,-32,-17,42,68,66,38, 
  /* [68][0][][] */ -26,29,127,3,17,-2,-7,-8,-41,-14,-34,-43,1,-36,88,-27, 
  /* [69][0][][] */ 127,93,-29,-16,-111,-48,-17,-41,15,39,81,-72,-56,57,78,-93, 
  /* [70][0][][] */ 44,16,-70,-25,-41,23,60,127,-29,105,-38,-3,9,59,-18,30, 
  /* [71][0][][] */ 14,-7,0,16,4,-95,-8,24,-41,10,-79,16,-127,-3,46,52, 
  /* [72][0][][] */ -2,22,-127,21,15,30,34,92,-32,-23,16,2,13,17,-5,-12, 
  /* [73][0][][] */ -52,27,44,0,48,-36,-66,-127,21,-62,27,-28,17,-53,39,-15, 
  /* [74][0][][] */ -2,29,29,127,7,-10,-82,83,-58,14,-30,58,36,-110,37,-85, 
  /* [75][0][][] */ -22,26,-48,29,24,7,20,-2,109,19,-12,14,8,127,-52,-16, 
  /* [76][0][][] */ 3,-12,4,23,8,-14,-19,70,16,-36,-21,-127,-2,-3,5,11, 
  /* [77][0][][] */ 0,3,-15,127,-49,26,66,106,-2,31,-18,23,-7,-5,-29,-12, 
  /* [78][0][][] */ 20,7,35,-116,39,-35,-29,45,35,-39,-2,-41,31,127,16,54, 
  /* [79][0][][] */ -21,-86,-87,-52,-77,-2,43,-81,127,28,15,53,14,46,30,-51, 
  /* [80][0][][] */ -48,-11,127,-100,23,-44,-5,-102,-87,30,-34,-107,59,118,92,-36, 
  /* [81][0][][] */ -42,43,-127,18,60,-125,-8,44,-3,-40,58,-8,28,-1,15,6, 
  /* [82][0][][] */ 127,-6,-9,7,9,-112,-21,18,-12,-5,-88,-4,109,1,3,33, 
  /* [83][0][][] */ -27,70,-108,-87,-31,-16,51,-110,62,57,-57,-127,17,52,45,96, 
  /* [84][0][][] */ -41,33,79,-18,16,-20,54,-127,-51,36,0,-49,41,59,63,-21, 
  /* [85][0][][] */ -87,127,28,-115,-71,-28,-34,-1,-56,-8,-63,31,12,-10,-93,-31, 
  /* [86][0][][] */ -4,20,-29,-1,-30,-27,127,26,2,-17,-16,-1,13,25,84,-19, 
  /* [87][0][][] */ -30,-33,1,-116,8,-29,45,-16,-2,17,-13,-127,-15,-3,9,-43, 
  /* [88][0][][] */ 75,-25,25,-22,7,-127,0,14,-58,43,-95,-54,52,11,92,13, 
  /* [89][0][][] */ 16,-24,-38,-41,33,-9,-25,-7,-52,2,41,-57,127,-2,24,-53, 
  /* [90][0][][] */ 1,-58,30,-59,65,8,-58,78,61,-72,-50,-33,-30,112,14,-127, 
  /* [91][0][][] */ -48,-1,-25,-35,24,-6,-44,-111,-5,50,-6,-127,-24,-17,9,-5, 
  /* [92][0][][] */ -23,23,39,10,-5,-127,16,-3,5,-18,1,-19,10,-30,28,12, 
  /* [93][0][][] */ 42,-21,127,-9,-48,54,26,-26,-23,18,-72,-17,-23,1,27,4, 
  /* [94][0][][] */ 28,10,-21,-34,19,-15,-16,3,-28,-13,19,-63,127,-23,30,-23, 
  /* [95][0][][] */ 127,87,-2,43,-85,-13,-65,-9,-32,-25,94,-35,-51,25,76,-83, 
};
const TfArray<4, int> tensor_dimension7 = { 4, { 96,1,1,16 } };
const TfArray<96, float> quant7_scale = { 96, { 0.00089928257511928678, 0.0011599792633205652, 0.00081711960956454277, 0.0010140979429706931, 0.0010711934883147478, 0.0008274353458546102, 0.00044347340008243918, 0.00085229665273800492, 0.00051914982032030821, 0.0011544680455699563, 0.00062178319785743952, 0.00079008482862263918, 0.00084400566993281245, 0.0034085949882864952, 0.00048247628728859127, 0.00039754543104209006, 0.00034877992584370077, 0.00065714807715266943, 0.0014102178392931819, 0.00078271050006151199, 0.0003854508395306766, 0.0002654596755746752, 0.00029215947142802179, 0.00021330907475203276, 0.00046792716602794826, 0.0013604693813249469, 0.0015663321828469634, 0.0011677326401695609, 0.00057000300148501992, 0.0011389654828235507, 0.0005068607279099524, 0.0008902417030185461, 0.00049456080887466669, 0.00062631553737446666, 0.00084093480836600065, 0.0006306140567176044, 0.00049278826918452978, 0.00075202155858278275, 0.00093858892796561122, 0.0010874937288463116, 0.000472494080895558, 0.0013071574503555894, 0.00067579711321741343, 0.00042709024273790419, 0.0010365968337282538, 0.00051281339256092906, 0.00074005534406751394, 0.00090419250773265958, 0.00066827127011492848, 0.00060242641484364867, 0.00077726610470563173, 0.00050271599320694804, 0.0011732787825167179, 0.00063330220291391015, 0.00087416882161051035, 0.00092201522784307599, 0.00097509421175345778, 0.00070533109828829765, 0.0010450562695041299, 0.00036916404496878386, 0.0023297341540455818, 0.0012841108255088329, 0.00051992840599268675, 0.0014070558827370405, 0.001625394681468606, 0.00090499670477584004, 0.00023822649382054806, 0.00063812820008024573, 0.0012416035169735551, 0.00087112101027742028, 0.00068757351255044341, 0.00053446472156792879, 0.0021987108048051596, 0.00097870337776839733, 0.00077587203122675419, 0.00058860098943114281, 0.00072338769678026438, 0.00029583985451608896, 0.00029244640609249473, 0.00052108877571299672, 0.00038539356319233775, 0.00045260754995979369, 0.00054695812286809087, 0.00047450046986341476, 0.00038062673411332071, 0.00074428762309253216, 0.0013375701382756233, 0.00064642052166163921, 0.00037538810283876956, 0.0016400163294747472, 0.00063182011945173144, 0.00069693225668743253, 0.00079106941120699048, 0.0011742986971512437, 0.001083423150703311, 0.00048932706704363227, } };
const TfLiteAffineQuantization quant7 = { (TfLiteFloatArray*)&quant7_scale, (TfLiteIntArray*)&g0::quant6_zero, 0 };
const MODEL_SECTION(EI_MODEL_SECTION) ALIGN(16) int32_t tensor_data8[16] = { -6911, 27515, -11925, -3181, -14550, 7617, 39812, -48405, -3787, 23711, 23384, 8328, -16486, 21762, 1591, 16115, };
const TfArray<1, int> tensor_dimension8 = { 1, { 16 } };
const TfArray<16, float> quant8_scale = { 16, { 0.00070212146965786815, 0.00035323484917171299, 0.00022056455782148987, 0.00030158701702021062, 0.00036630441900342703, 0.00037952448474243283, 0.00034757179673761129, 0.00024141097674146295, 0.00031215796479955316, 0.0002782096853479743, 0.00073567271465435624, 0.00054203788749873638, 0.00034430419327691197, 0.00021891359938308597, 0.00051705748774111271, 0.000549668213352561, } };
const TfArray<16, int> quant8_zero = { 16, { 0,0,0,0,0,0,0,0,0,0,0,0,0,0,0,0 } };
const TfLiteAffineQuantization quant8 = { (TfLiteFloatArray*)&quant8_scale, (TfLiteIntArray*)&quant8_zero, 0 };
const MODEL_SECTION(EI_MODEL_SECTION) ALIGN(16) int8_t tensor_data9[16*1*1*96] = { 
  /* [0][0][][] */ -17,-19,1,-27,14,6,-49,-3,22,3,-20,10,-12,-14,-18,1,1,9,-4,-1,10,-37,4,3,0,13,-4,127,28,-38,41,-13,-9,2,5,-9,-8,9,-40,-7,-16,12,-6,36,7,16,12,9,25,3,-7,15,7,-21,-17,88,11,12,-35,-31,-10,18,1,-32,-47,-65,-18,36,0,14,25,-17,-7,-38,-10,-19,-34,22,1,-6,-18,-28,22,18,-2,-21,-8,-102,-1,-27,8,-7,37,-30,-32,-15, 
  /* [1][0][][] */ 39,-97,-96,-56,125,-6,63,22,-1,-116,-85,-44,-13,-20,-69,19,-85,26,49,50,-1,47,-23,-62,13,-21,-29,-71,29,-35,-91,31,-11,3,-14,-2,-2,-17,-9,11,-37,42,-65,-50,-50,91,23,7,14,-93,17,-63,-20,60,45,26,-37,-34,-43,-43,0,-27,-6,-51,-104,113,-16,-31,-27,-26,-29,15,70,-127,-33,-12,32,-43,30,19,-4,-42,10,-18,-51,28,-28,22,16,-57,-31,27,15,9,36,90, 
  /* [2][0][][] */ -4,51,-83,-10,76,79,27,63,-6,-93,-12,-44,-18,-20,26,37,5,-17,-34,70,20,-16,67,7,49,29,4,-39,17,-16,44,-73,29,39,-18,42,-127,-67,26,27,-4,-44,15,-23,16,-38,-11,72,-41,23,-26,-31,91,0,-11,58,29,10,28,5,13,12,23,-34,19,-6,-43,-4,-55,-22,-21,-25,-29,-62,1,38,73,45,48,-12,32,-49,1,-7,-58,15,1,33,-25,33,1,-20,2,-37,-66,-15, 
  /* [3][0][][] */ 40,23,85,-5,27,-24,18,4,-21,-48,21,-5,-3,44,32,95,24,-9,31,-5,127,-8,44,28,45,-7,-11,2,36,15,-3,62,-84,49,25,-6,-22,2,4,33,-56,-26,69,37,2,43,-27,-57,-42,-11,-26,56,14,-117,14,14,-117,74,40,35,24,90,-12,-27,40,55,-7,-19,35,-20,-4,-43,36,-17,50,-14,19,-13,62,52,-22,-51,30,14,-24,35,22,16,34,9,37,15,41,88,40,-17, 
  /* [4][0][][] */ 19,9,36,-20,127,23,3,-16,-36,-52,-31,-26,-44,42,1,77,36,-96,-44,80,2,-5,32,-16,4,-9,27,-58,24,-8,75,-32,103,46,-19,11,54,37,2,25,-7,-7,-8,-12,-3,-54,-18,13,54,14,-26,16,7,-39,27,-47,7,3,-25,36,12,85,64,16,47,56,-16,0,-38,-23,51,61,8,-73,-35,-15,37,41,118,-30,3,-37,16,1,-76,18,57,47,-39,51,19,-48,20,7,31,-8, 
  /* [5][0][][] */ 0,-7,-9,7,27,-21,48,-20,-34,-39,-8,32,1,45,-1,25,-7,-12,14,-10,47,20,-40,71,11,-5,17,-107,7,32,19,42,-3,20,13,-54,28,34,-4,17,-3,-6,37,-7,-6,-1,10,-22,-9,-16,7,-7,7,-37,0,-64,-19,19,-18,23,73,21,10,38,-4,63,1,85,16,96,16,28,4,13,8,73,-25,-20,26,11,-3,-2,13,29,-8,30,1,127,16,40,15,-14,4,17,-50,32, 
  /* [6][0][][] */ 41,-96,4,-46,-46,8,18,-1,16,-16,-34,-97,-37,1,-33,14,19,2,-4,5,-62,11,21,-22,-29,-7,-16,-25,-38,15,28,-12,71,-11,35,-12,-2,-36,34,-109,-23,93,-13,-44,6,-24,-26,3,-34,9,-22,49,-15,-47,-6,-1,20,-79,-16,-9,-31,52,43,-86,38,-45,18,-42,4,-20,127,-5,-32,3,-42,35,-88,3,21,-11,22,34,10,-14,-33,-16,31,18,1,-6,33,-28,-9,-5,-45,-16, 
  /* [7][0][][] */ 10,127,39,18,105,63,45,-40,-31,-41,41,-6,-26,34,40,29,33,-41,14,21,52,-50,57,-10,-9,27,11,-7,11,-17,12,16,54,-9,-52,3,17,21,10,78,-41,28,17,43,-18,-21,47,-16,-43,-24,36,-4,29,-63,-32,58,38,21,-28,-1,-18,-37,16,-7,-65,78,-25,-86,7,-58,0,73,-28,-23,13,12,68,75,55,-14,-47,-40,-3,-6,-29,52,-2,-16,-22,19,-40,-51,-53,-3,21,8, 
  /* [8][0][][] */ 0,-9,58,21,-119,-13,37,-16,38,98,63,5,-20,-2,27,-1,-56,18,4,9,-55,9,-127,73,10,-35,52,-2,-5,14,-2,45,64,-34,1,-4,-40,-32,-2,25,6,-31,35,0,-39,-1,34,4,-108,9,14,41,-76,-35,-39,53,35,-68,-91,-38,9,-42,-34,2,7,84,-9,-64,5,-8,-44,-28,50,53,60,-18,-31,-44,-38,15,-94,19,-35,0,36,2,54,55,6,-58,38,62,-6,-12,36,4, 
  /* [9][0][][] */ 24,-122,-30,15,87,101,-49,-48,43,-63,83,70,-8,11,100,-127,18,-23,-20,5,-56,-50,28,-25,-30,5,-21,45,-21,8,-14,-13,25,8,-126,40,-2,-5,-39,69,31,-83,-26,47,-7,-33,-69,-37,34,15,-25,-85,70,41,-3,-48,8,93,-10,-19,8,-54,-33,122,-97,-24,-2,-29,-9,32,-55,-108,49,-11,-1,39,58,-67,5,-6,-5,-30,-15,13,7,-65,8,-6,-25,-51,-77,57,-79,-20,-5,-61, 
  /* [10][0][][] */ -50,-21,-29,-37,-23,-1,63,-16,32,22,25,52,19,-18,4,-4,-7,20,-25,-16,-3,30,15,28,-8,-4,9,-127,26,-41,58,-35,-9,18,6,-7,-1,42,3,-5,4,-25,21,-44,5,0,23,19,-6,50,-24,-13,-44,-28,-12,-53,15,16,-6,-32,28,1,2,7,-37,89,-11,-27,10,-22,5,-14,-28,-8,21,51,-4,40,-23,20,-23,4,1,29,7,-20,-5,106,3,-8,15,6,16,-32,45,-35, 
  /* [11][0][][] */ -89,32,2,-1,26,-51,-15,17,-69,11,19,60,22,26,-29,-5,53,-4,-65,-56,33,3,-7,17,81,24,63,-4,-11,33,-27,25,-17,44,3,-7,-12,18,29,10,-13,-5,20,19,81,30,77,25,59,57,-2,58,7,-74,27,-13,-87,-2,-28,-37,15,-8,0,33,3,-10,19,3,30,23,-6,31,-28,13,36,14,-14,75,-127,74,-30,8,-62,-51,127,25,50,-12,20,50,-8,-69,-15,50,-24,1, 
  /* [12][0][][] */ -23,-7,-40,9,94,39,4,-15,-17,36,39,-1,10,-35,42,-10,-53,-7,-2,-18,-16,-1,-61,71,-17,68,-26,127,-16,35,-54,0,-33,29,13,26,-21,-17,-1,20,-12,-18,-15,-5,-13,-12,20,27,0,8,-9,-20,-38,10,-27,-21,0,-21,15,30,-26,-33,-4,63,45,-90,11,57,-50,-122,-9,64,8,7,24,102,3,-27,-26,3,-15,36,-61,-8,30,-28,2,-44,-3,6,4,-6,-50,26,-2,29, 
  /* [13][0][][] */ -64,45,-10,-9,-74,-3,-25,5,-37,-40,31,23,95,17,-21,-11,-7,23,-39,-1,4,-34,72,-76,55,33,1,-13,-15,-36,-36,-99,-91,-36,-11,0,7,7,44,-32,-33,97,-4,21,48,18,-22,-2,52,-36,39,70,72,-57,88,-1,-20,55,27,5,10,27,-13,20,3,-43,17,3,20,2,18,-127,23,-22,-97,25,52,59,-40,-67,76,-33,2,-38,29,-46,93,0,-28,-23,-20,23,44,-32,-22,14, 
  /* [14][0][][] */ -22,9,-23,-49,31,-6,-14,17,-79,-9,-2,-18,-28,-86,-85,-46,-100,-7,64,18,14,-9,9,-112,-46,12,-55,-15,3,-26,-19,-41,-62,-61,10,14,-22,-23,2,-8,0,86,-97,-37,-56,14,5,4,127,-41,26,-27,29,63,-121,31,-6,6,-111,-1,-16,24,43,26,1,21,8,-5,-72,21,53,33,41,-11,-42,7,47,-67,-43,-101,1,-41,-2,30,33,-98,-60,15,-57,14,13,62,5,32,9,-27, 
  /* [15][0][][] */ -31,-86,-17,-34,3,21,-13,-73,-14,14,-11,-41,35,-36,41,-20,-89,1,-13,22,-36,1,-67,-44,-17,-1,-9,18,-31,-17,52,-93,-10,7,14,1,-7,3,-89,-7,18,-66,-10,17,-24,-45,40,31,38,3,-8,-127,-13,51,-2,50,52,-15,-21,37,-8,-16,39,-6,1,-16,-11,-9,-31,21,9,37,-32,2,-15,-28,-31,0,-4,-4,-10,35,-15,52,-17,-53,-43,-29,-60,42,14,82,-42,-3,-9,-26, 
};
const TfArray<4, int> tensor_dimension9 = { 4, { 16,1,1,96 } };
const TfArray<16, float> quant9_scale = { 16, { 0.029840162023901939, 0.01501248124986887, 0.0093739936128258705, 0.012817448005080223, 0.01556793786585331, 0.016129789873957634, 0.014771801419556141, 0.010259966365993023, 0.013266713358461857, 0.011823911219835281, 0.031266089528799057, 0.023036610335111618, 0.014632928185164928, 0.0093038277700543404, 0.021974943578243256, 0.023360898718237877, } };
const TfLiteAffineQuantization quant9 = { (TfLiteFloatArray*)&quant9_scale, (TfLiteIntArray*)&g0::quant8_zero, 0 };
const MODEL_SECTION(EI_MODEL_SECTION) ALIGN(16) int32_t tensor_data10[96] = { 24982, 59395, -235, 125, 14943, -4337, -351, 762, 6014, 14462, -4517, -320, 693, 6902, 5149, -8513, -3967, -69, -715, 13934, -9664, 16545, -1837, 6018, 19801, -139, -4858, 18181, 13477, -18157, 1307, 22124, 23945, -10142, 2140, -98, -1172, -181, 3755, -8083, -5948, -1073, -10361, -212, 30565, -1270, 12512, -2075, -14750, 2121, 7, -633, -2294, 13591, -3614, 13354, 19678, -108, 36164, -91, -8918, -1049, 1190, 415, -2070, 12254, -1566, -8110, -3364, 3114, -615, -3776, 1697, 125, -1883, -4252, 115, -1947, 39039, -7045, -4821, -11547, -62, -385, 65306, -12922, -10447, -27524, -6421, 8466, -1979, 34029, 868, -2197, -3283, 824, };
const TfArray<96, float> quant10_scale = { 96, { 8.9268200099468231e-05, 9.6409065008629113e-05, 0.00011684166383929551, 0.00022045773221179843, 0.00021287711570039392, 0.00018747201829683036, 6.6231317759957165e-05, 7.9515295510645956e-05, 0.00025374884717166424, 0.0001671415229793638, 0.00026564716245047748, 0.00012422546569723636, 0.00023119903926271945, 0.00022033497225493193, 0.00042692580609582365, 0.00015051325317472219, 0.00022687038290314376, 0.00014828827988822013, 0.00016355485422536731, 7.5674448453355581e-05, 7.9879435361362994e-05, 5.0210772315040231e-05, 0.00013331521768122911, 0.00011247192742303014, 7.8531666076742113e-05, 9.4129572971723974e-05, 0.00018727396673057228, 0.00016796629643067718, 7.6361946412362158e-05, 0.00044790888205170631, 0.00040080110193230212, 0.00021011715580243617, 0.00012737976794596761, 0.00014022225514054298, 0.00024475550162605941, 0.00047292315866798162, 0.00035294683766551316, 0.00024835110525600612, 0.00021891055803280324, 0.00010421800834592432, 0.00021049205679446459, 0.00022325380996335298, 0.00033404765417799354, 7.439943146891892e-05, 0.00034600877552293241, 8.863727271091193e-05, 0.00011288642417639494, 0.00022186650312505662, 0.00065792357781901956, 0.00012384518049657345, 0.00044127285946160555, 0.00016359343135263771, 0.0002539174456615001, 0.00021594892314169556, 0.00022012385306879878, 0.00012725622218567878, 0.00014357578766066581, 0.00042263686191290617, 4.1267561755375937e-05, 0.00017769981059245765, 0.00032793695572763681, 0.00034577891346998513, 0.00012016575055895373, 0.0001490324066253379, 0.00012391460768412799, 0.00015288550639525056, 0.00026626294129528105, 0.00027003602008335292, 0.00021677225595340133, 0.00013009639224037528, 0.00022416672436520457, 9.5253868494182825e-05, 0.0003039472212549299, 0.00013786766794510186, 0.00042080364073626697, 0.00045087700709700584, 0.00012342372792772949, 8.5152409155853093e-05, 6.6086337028536946e-05, 0.00017533852951601148, 0.00027609287644736469, 0.00022537034237757325, 0.00018040533177554607, 0.00030515107209794223, 5.4914045904297382e-05, 0.00012633833102881908, 7.3416966188233346e-05, 0.00048239924944937229, 0.00026075204368680716, 0.00012499514559749514, 0.00039958776324056089, 3.1691368349129334e-05, 0.00014343098155222833, 9.8190466815140098e-05, 0.00030148043879307806, 0.00026260913000442088, } };
const TfLiteAffineQuantization quant10 = { (TfLiteFloatArray*)&quant10_scale, (TfLiteIntArray*)&g0::quant6_zero, 0 };
const MODEL_SECTION(EI_MODEL_SECTION) ALIGN(16) int8_t tensor_data11[1*3*3*96] = { 
  /* [0][0][][] */ -49,-73,-12,127,22,72,75,-59,-16,-20,-13,-2,-30,-1,37,0,-8,-45,27,23,20,-127,127,7,-84,10,48,-29,-127,-127,40,23,10,25,60,-19,-30,-10,29,-4,-13,28,-105,76,24,-69,38,47,-17,52,-24,21,1,-8,16,50,-92,-51,-61,-20,-10,1,12,38,70,-27,75,14,-8,15,20,127,22,21,25,0,-12,19,127,-3,-18,13,-29,22,125,22,-80,-16,-1,-35,-15,-40,1,-25,-17,25, 127,-127,75,105,-42,127,41,-119,69,4,-16,127,127,-102,-14,15,12,127,127,-112,127,-78,82,70,-127,-115,-69,-34,-54,45,-58,-22,-88,52,-127,-83,-44,-13,-54,61,0,127,127,85,-53,-114,-110,-49,-14,-127,44,87,66,-33,44,82,-48,40,-80,-114,-45,-42,-61,67,75,-61,27,29,-79,32,-16,88,116,127,12,20,2,59,-31,55,64,127,127,-22,-8,77,-116,127,-122,-101,5,-127,-91,-127,-40,106, -77,-14,28,-84,15,-24,64,-9,79,-36,-26,20,-19,-8,-9,-15,-9,-18,8,-4,-22,-96,29,-1,-118,98,7,-55,119,48,-14,7,0,13,13,-28,-9,36,17,13,26,13,-117,66,17,-19,38,15,-14,13,-17,6,-10,0,-3,22,-66,5,-33,52,2,40,35,-1,-6,-39,-31,23,8,0,-2,36,10,-26,-7,3,-13,-6,-83,5,-23,-25,-19,4,-109,13,-35,-23,-51,27,-25,-29,29,-27,-16,2, 
  /* [0][1][][] */ -65,-75,72,-35,-47,94,15,127,-52,-22,0,-117,27,-113,79,32,-2,-61,-18,90,50,-67,46,52,-96,-9,127,-23,-25,61,121,-103,-127,93,-85,-57,-36,31,-27,94,-48,-26,-4,48,-48,127,-22,65,15,95,18,-2,15,-55,25,33,127,122,-69,-86,127,-32,-36,127,73,-39,-14,-1,127,40,127,96,-41,102,-3,11,14,14,-29,12,-46,124,-81,111,1,36,-56,31,79,-127,-32,-6,127,-67,-24,0, 68,124,55,-114,127,78,80,37,-127,127,127,-38,-66,-127,-127,127,127,-65,-125,-51,98,89,-127,127,-108,-89,-44,127,-125,107,-127,-127,-86,127,105,127,127,-127,-104,127,-63,-96,111,-127,-127,-36,-127,-127,127,-112,84,44,127,127,127,-127,99,-127,-127,127,18,-79,-127,-100,-127,127,-127,127,-120,-127,-105,-84,-127,-80,127,127,-127,127,-75,127,127,29,-42,-127,58,127,96,44,127,15,127,3,-69,36,127,-127, -54,-14,-51,36,-56,-98,33,-28,18,-35,-27,95,2,91,14,10,-4,62,-7,127,-3,-79,-45,8,-72,105,-72,-20,-64,-18,18,-64,-71,41,5,-17,-29,46,-68,42,127,-4,-39,28,-42,-61,17,45,8,118,-12,5,-33,-72,4,19,97,3,0,22,-34,127,94,-52,-43,12,38,-9,-73,123,-18,-84,-1,-54,-19,-21,27,16,77,-36,-72,-43,58,16,-47,-14,76,21,15,67,-43,23,-44,94,-27,-5, 
  /* [0][2][][] */ -70,0,-5,-22,13,-45,67,24,54,-29,-36,-3,18,19,-27,2,-7,65,9,3,-49,-77,3,-5,-21,-54,34,-71,87,36,25,24,16,-6,-11,-46,-6,36,-2,-1,-17,-6,-65,102,3,32,11,37,-16,-30,10,-19,24,-3,8,16,-70,25,-17,13,15,1,-21,-5,0,-47,-47,14,-31,13,26,32,12,-20,27,4,17,4,-74,-12,-10,-9,18,15,-127,8,13,-43,-61,-51,-28,-47,9,57,-20,-8, 122,31,-127,-36,-72,-25,35,29,-65,-31,-20,-106,-79,111,-13,39,2,-53,-8,-127,92,-52,-39,1,-101,127,-52,20,-40,-22,-9,-6,-60,16,26,7,-22,-28,127,52,10,-14,74,-35,-39,77,-67,-43,-33,-5,-127,-127,-46,-27,2,40,-67,-6,11,38,-8,-18,10,-48,-54,33,64,-22,115,110,-23,-67,10,-58,4,3,101,3,52,22,11,-97,-50,3,1,10,127,40,-64,38,-19,-108,40,79,-11,26, -55,12,-20,25,16,-67,-127,0,-12,-9,-15,7,15,-24,19,-2,-9,-18,6,18,-46,-68,15,3,20,-98,21,2,-46,-40,-6,14,41,-18,-7,-25,-35,4,41,-37,22,-2,-48,-36,3,65,22,17,-10,-3,10,-8,21,4,-4,-5,-61,-11,0,-39,-11,11,88,-11,35,-2,-2,30,2,5,-4,21,-18,16,-1,14,36,0,75,-11,2,-9,-6,-16,71,4,42,-40,58,40,-17,-51,-8,1,-15,-16, 
};
const TfArray<4, int> tensor_dimension11 = { 4, { 1,3,3,96 } };
const TfArray<96, float> quant11_scale = { 96, { 0.0037938985042273998, 0.0040973853319883347, 0.0049657705239951611, 0.0093694534152746201, 0.0090472772717475891, 0.0079675605520606041, 0.0028148309793323278, 0.0033793998882174492, 0.010784325189888477, 0.0071035148575901985, 0.011290004476904869, 0.0052795824594795704, 0.0098259588703513145, 0.0093642361462116241, 0.01814434677362442, 0.0063968133181333542, 0.0096419909968972206, 0.0063022519461810589, 0.0069510811008512974, 0.0032161639537662268, 0.0033948759082704782, 0.0021339578088372946, 0.0056658964604139328, 0.0047800568863749504, 0.0033375956118106842, 0.004000506829470396, 0.0079591432586312294, 0.0071385675109922886, 0.0032453828025609255, 0.019036127254366875, 0.017034046351909637, 0.0089299790561199188, 0.0054136398248374462, 0.0059594456106424332, 0.010402108542621136, 0.020099233835935593, 0.015000239945948124, 0.010554921813309193, 0.0093036983162164688, 0.0044292653910815716, 0.0089459121227264404, 0.0094882864505052567, 0.014197025448083878, 0.0031619756482541561, 0.014705372974276543, 0.003767083864659071, 0.0047976728528738022, 0.0094293262809514999, 0.027961751446127892, 0.0052634202875196934, 0.018754096701741219, 0.0069527206942439079, 0.010791490785777569, 0.0091778291389346123, 0.0093552637845277786, 0.0054083894938230515, 0.0061019710265100002, 0.017962066456675529, 0.0017538713291287422, 0.0075522419065237045, 0.013937320560216904, 0.014695603400468826, 0.0051070442423224449, 0.0063338768668472767, 0.0052663707174360752, 0.0064976336434483528, 0.011316174641251564, 0.011476530693471432, 0.009212820790708065, 0.0055290968157351017, 0.0095270853489637375, 0.0040482892654836178, 0.012917757034301758, 0.0058593759313225746, 0.017884153872728348, 0.019162273034453392, 0.0052455081604421139, 0.003618977265432477, 0.0028086693491786718, 0.0074518872424960136, 0.011733947321772575, 0.0095782391726970673, 0.0076672262512147427, 0.012968920171260834, 0.0023338468745350838, 0.0053693791851401329, 0.0031202209647744894, 0.020501967519521713, 0.011081961914896965, 0.0053122933022677898, 0.016982479020953178, 0.0013468831311911345, 0.0060958163812756538, 0.0041730948723852634, 0.012812918983399868, 0.011160887777805328, } };
const TfLiteAffineQuantization quant11 = { (TfLiteFloatArray*)&quant11_scale, (TfLiteIntArray*)&g0::quant6_zero, 3 };
const MODEL_SECTION(EI_MODEL_SECTION) ALIGN(16) int32_t tensor_data12[96] = { 2121, 6904, 14922, 41714, 16260, -4570, -1697, 6771, 30079, -4781, 14649, 4027, 12275, 14968, 45780, 1742, 3892, 8741, 15482, 5733, -350, 358, 12637, -1585, 4075, -25, 13797, 8255, 6110, 50375, 59226, 23893, 9111, -1125, 13480, 2871, 1489, 4049, 21136, -1000, 11486, 9211, 36190, -3403, 28291, 9671, 5304, 22028, 64495, 13156, -466, 10100, -5467, -340, -2484, 7543, -616, 22866, 5880, 8611, 5839, 16586, 8540, 5904, 10609, 9056, 6005, -5752, 10094, -3729, 5417, 8697, 18967, 5545, -4800, -5434, 7947, 429, 2480, -1190, 26462, 18490, 5328, 18092, 4163, 336, 9156, 102096, 12197, 13316, 6198, -447, 7316, 12057, 5572, 16989, };
const TfArray<96, float> quant12_scale = { 96, { 0.00019650987815111876, 0.00021230142738204449, 0.00012667178816627711, 5.5867545597720891e-05, 0.00018320084200240672, 0.00022383782197721303, 0.00044226832687854767, 0.00024254100571852177, 7.7730466728098691e-05, 0.00028704729629680514, 0.00018155515135731548, 0.00020799579215236008, 0.00010316921543562785, 0.00015600584447383881, 5.2295014029368758e-05, 0.00032857607584446669, 0.00013470694830175489, 0.00014003791147843003, 0.00014474691124632955, 0.00019075478485319763, 0.0002529365592636168, 0.00060475018108263612, 0.00015552145487163216, 0.0004083582607563585, 0.00063645053887739778, 0.00021373861818574369, 0.0001627321180421859, 0.00016579453949816525, 0.0002656152646522969, 7.0412577770184726e-05, 4.7505458496743813e-05, 0.000101571946288459, 0.00018542345787864178, 0.00025143290986306965, 0.0001470325660193339, 0.00019144051475450397, 0.0003509177768137306, 0.00035833948641084135, 0.00012922061432618648, 0.00053774728439748287, 0.0001655956293689087, 0.00017692038090899587, 7.4236573709640652e-05, 0.00030521291773766279, 0.00011506733426358551, 0.00016267487080767751, 0.00032943484256975353, 0.00012208519910927862, 6.373093492584303e-05, 0.00016088339907582849, 0.00020994424994569272, 0.00016979547217488289, 0.00020024490368086845, 0.00019509022240526974, 0.00041775769204832613, 0.00014864199329167604, 0.00018154391727875918, 8.0455320130567998e-05, 0.00034583717933855951, 0.00016967729607131332, 0.00027554968255572021, 8.2399070379324257e-05, 0.00016593064356129616, 0.00016908383986447006, 0.00023235012486111373, 0.00021458524861373007, 0.00021200024639256299, 0.00022954460291657597, 0.00016861135372892022, 0.00019984485697932541, 0.00021301148808561265, 0.0001829036045819521, 0.00011060432007070631, 0.00019060120393987745, 0.00031883639167062938, 0.00024951854720711708, 0.00020921631949022412, 0.000283896952169016, 0.00029985810397192836, 0.00036870862822979689, 7.8756667790003121e-05, 9.0860514319501817e-05, 0.00016222131671383977, 0.00011121039278805256, 0.00027994083939120173, 0.000202266062842682, 0.00025468069361522794, 3.8338126614689827e-05, 0.00011978841212112457, 0.00016826893261168152, 0.00020341403433121741, 0.00032141146948561072, 0.00019925144442822784, 0.00013558911450672895, 0.00020426721312105656, 0.00010105035471497104, } };
const TfLiteAffineQuantization quant12 = { (TfLiteFloatArray*)&quant12_scale, (TfLiteIntArray*)&g0::quant6_zero, 0 };
const MODEL_SECTION(EI_MODEL_SECTION) ALIGN(16) int8_t tensor_data13[96*1*1*16] = { 
  /* [0][0][][] */ 19,53,-13,56,34,36,-15,-7,23,18,-66,91,11,-127,45,-103, 
  /* [1][0][][] */ 8,52,17,-14,30,-24,127,-93,13,96,-35,-48,13,-27,21,17, 
  /* [2][0][][] */ -126,25,-22,-27,-15,3,30,88,-28,44,127,-21,-92,26,30,-49, 
  /* [3][0][][] */ -81,65,25,60,-80,72,99,127,5,74,-101,24,30,-102,-84,-63, 
  /* [4][0][][] */ 8,-8,35,62,-30,56,-2,37,18,-9,7,-13,4,10,-127,-13, 
  /* [5][0][][] */ -1,-54,54,-9,6,-20,-3,28,-64,113,-63,-127,-31,37,-47,-30, 
  /* [6][0][][] */ 10,-6,24,-17,31,72,-64,-63,6,20,42,8,127,-8,0,-31, 
  /* [7][0][][] */ 25,-5,127,-9,-24,-32,7,4,-73,26,-75,-44,4,-4,30,-14, 
  /* [8][0][][] */ 18,-6,72,63,-79,54,39,25,47,0,21,-127,-75,3,-121,-67, 
  /* [9][0][][] */ 68,-127,63,62,29,-34,29,31,122,14,65,17,-61,24,-113,-10, 
  /* [10][0][][] */ -70,-110,34,14,-73,48,-28,53,109,127,0,-47,-36,90,44,-21, 
  /* [11][0][][] */ -13,-52,6,-94,18,-25,-127,-91,-48,43,-29,-34,37,-5,37,-40, 
  /* [12][0][][] */ -7,-7,14,-57,-43,-50,-117,-49,-67,-79,-5,23,1,127,116,29, 
  /* [13][0][][] */ -15,-127,-63,64,16,-41,-20,-23,49,34,-13,18,11,36,108,1, 
  /* [14][0][][] */ -10,-73,46,38,23,63,22,127,52,88,18,-38,20,53,-50,118, 
  /* [15][0][][] */ 34,-20,-13,75,0,-16,127,4,16,-126,24,-39,-1,-28,-3,-26, 
  /* [16][0][][] */ 46,-89,-45,29,14,-9,34,-63,102,60,123,-10,-19,96,83,127, 
  /* [17][0][][] */ -52,-78,54,126,83,35,-9,-6,127,-28,-24,-47,2,68,-94,35, 
  /* [18][0][][] */ -33,5,8,10,-113,-6,12,66,-83,-32,-34,-103,8,-127,60,14, 
  /* [19][0][][] */ 17,-27,34,-98,61,4,-82,116,64,-90,105,81,-29,63,18,127, 
  /* [20][0][][] */ 23,-7,71,-69,-5,-2,-30,69,-8,-48,104,-18,13,13,-41,127, 
  /* [21][0][][] */ -79,-17,40,-13,29,22,-84,-22,-10,63,-30,-3,-127,-7,0,-19, 
  /* [22][0][][] */ 29,-27,29,-38,9,-70,-2,-11,-127,25,-7,-36,-28,-4,86,-7, 
  /* [23][0][][] */ 21,4,37,0,9,20,-7,15,-8,-7,36,-11,127,13,-8,-41, 
  /* [24][0][][] */ -17,2,8,-73,-9,-17,34,7,-53,-14,-16,-127,2,-94,35,13, 
  /* [25][0][][] */ -127,2,-55,-9,51,-42,-103,-110,-29,50,-31,-105,-90,-96,-8,-16, 
  /* [26][0][][] */ 79,-12,53,-85,127,-40,-22,-3,91,-52,31,-18,-8,78,-28,55, 
  /* [27][0][][] */ 111,-29,26,-32,-31,-46,-18,-18,-36,16,-127,22,17,-12,-1,35, 
  /* [28][0][][] */ -108,3,-127,-82,41,0,71,-62,-18,37,-73,-1,41,-16,-48,36, 
  /* [29][0][][] */ -65,-34,-6,127,-11,24,21,-36,-30,1,-79,35,22,-72,29,-41, 
  /* [30][0][][] */ 52,-9,127,-10,89,41,-19,90,-25,-63,51,-30,-26,11,-65,65, 
  /* [31][0][][] */ 18,-114,-10,-43,-9,-59,27,-37,4,61,100,23,-24,106,88,127, 
  /* [32][0][][] */ -16,84,-40,32,-127,15,-67,-41,-62,-36,11,51,22,39,32,58, 
  /* [33][0][][] */ 14,-15,6,127,-2,-5,26,-38,-105,58,72,-21,2,-11,46,122, 
  /* [34][0][][] */ 35,-13,20,-9,75,-45,-127,-1,-49,79,-48,-7,-46,14,-13,5, 
  /* [35][0][][] */ 85,34,-8,16,25,-127,-35,5,-44,0,-88,3,102,0,-24,-9, 
  /* [36][0][][] */ 20,-3,-127,9,40,7,-21,18,-22,-8,8,-4,6,7,-15,4, 
  /* [37][0][][] */ 5,-9,127,10,-51,49,44,-59,-4,38,-77,31,23,-6,28,-8, 
  /* [38][0][][] */ -127,18,-6,16,28,67,5,-9,9,-19,118,-25,-38,11,-16,-16, 
  /* [39][0][][] */ -4,2,16,36,34,-21,-127,41,16,26,0,-29,5,-8,-3,-1, 
  /* [40][0][][] */ 28,52,-39,127,-15,31,56,11,-45,-11,-9,25,-5,34,-51,-9, 
  /* [41][0][][] */ 23,16,-27,-26,-42,0,127,79,-52,86,-27,-22,9,58,28,-4, 
  /* [42][0][][] */ 25,-34,-10,-38,8,19,-49,6,57,-55,127,52,-51,39,-22,46, 
  /* [43][0][][] */ -70,-9,15,-44,24,3,-66,-64,-17,42,-6,-10,-127,-7,32,5, 
  /* [44][0][][] */ 18,-12,-13,-8,3,-28,-13,-42,127,-15,17,31,29,86,12,47, 
  /* [45][0][][] */ -54,-72,9,-90,17,-23,7,50,3,-70,-4,-26,36,77,-36,127, 
  /* [46][0][][] */ -30,16,-16,84,-64,-15,-14,-71,-127,25,-57,-10,-10,30,3,-36, 
  /* [47][0][][] */ -54,-26,-125,127,5,34,-11,-54,24,46,53,61,-21,-25,16,-9, 
  /* [48][0][][] */ -28,16,19,-127,22,-41,-35,13,-73,1,42,-27,31,33,114,24, 
  /* [49][0][][] */ -14,25,94,110,-29,87,-116,15,51,-77,-127,-51,-1,0,-38,-111, 
  /* [50][0][][] */ 6,63,33,-109,65,18,-40,63,127,-28,-35,4,3,-31,4,-24, 
  /* [51][0][][] */ 2,-29,16,-21,30,-10,-59,-127,15,-77,8,-18,-9,-2,4,1, 
  /* [52][0][][] */ 36,28,-1,12,44,2,-59,127,-104,127,-69,-26,65,91,-6,-36, 
  /* [53][0][][] */ 6,104,31,-58,-16,16,28,-2,-62,-20,-61,46,19,-127,-109,-28, 
  /* [54][0][][] */ 7,4,21,18,42,-28,17,-25,-6,27,-20,-21,-6,127,-37,-4, 
  /* [55][0][][] */ -123,127,77,-16,32,-6,-1,-7,-28,35,86,-47,-12,-21,112,-9, 
  /* [56][0][][] */ 48,-4,10,-127,83,-24,-33,65,39,-52,46,126,1,19,57,68, 
  /* [57][0][][] */ -17,15,23,126,-10,55,41,127,-12,-1,30,-22,41,66,25,-4, 
  /* [58][0][][] */ 5,125,17,-127,14,61,-13,17,104,-7,-6,67,-9,-91,36,58, 
  /* [59][0][][] */ 41,63,56,-87,-57,8,41,8,9,38,20,-59,-26,-127,-73,-5, 
  /* [60][0][][] */ 56,-6,101,-41,-45,127,59,-51,1,59,-48,-21,40,5,45,-10, 
  /* [61][0][][] */ -34,44,-21,-34,-17,26,96,127,-6,78,-32,8,43,62,-1,-45, 
  /* [62][0][][] */ -31,-23,3,-23,-127,45,-59,10,-36,-68,7,-63,-24,-110,86,27, 
  /* [63][0][][] */ 7,-49,0,-87,39,-2,-121,-127,-55,84,-20,1,63,14,4,-53, 
  /* [64][0][][] */ -11,-1,30,23,34,-5,-32,-127,27,-114,31,-32,8,-11,6,20, 
  /* [65][0][][] */ -127,17,29,-67,11,60,64,-57,-61,37,52,-18,-13,22,-10,-11, 
  /* [66][0][][] */ 68,13,69,1,-49,9,-52,38,-64,-21,104,-76,-32,32,-127,-17, 
  /* [67][0][][] */ 26,-11,-47,49,32,-54,-66,-72,23,-127,-34,-28,-84,28,-74,26, 
  /* [68][0][][] */ -7,-28,-78,69,-46,-127,32,-11,-54,21,28,-23,-2,47,122,-30, 
  /* [69][0][][] */ -15,28,-36,73,9,-127,4,96,29,0,43,4,123,46,-25,-7, 
  /* [70][0][][] */ 4,8,-26,-29,-20,15,127,91,-18,58,-28,11,3,46,1,-14, 
  /* [71][0][][] */ 22,-33,-26,-55,39,13,-4,76,-32,-60,-9,-8,37,-127,55,-5, 
  /* [72][0][][] */ 21,32,-4,24,27,-37,-61,-127,27,52,-46,3,64,66,38,65, 
  /* [73][0][][] */ -26,-127,-9,-66,-81,-10,29,-25,-24,6,-32,-35,8,-36,33,-8, 
  /* [74][0][][] */ -36,15,56,109,-4,-22,-127,72,39,-30,-31,-58,-11,18,-26,15, 
  /* [75][0][][] */ -53,31,-17,17,-11,66,83,127,-1,54,20,-39,-97,62,20,10, 
  /* [76][0][][] */ 26,-22,-34,-29,55,-77,-127,-96,-37,-34,-8,-11,35,-14,63,-36, 
  /* [77][0][][] */ -31,0,-54,-24,-50,-3,-22,-46,127,0,-58,11,-10,43,36,-84, 
  /* [78][0][][] */ -96,-127,-1,79,51,67,-14,25,1,-64,-119,63,14,-27,88,68, 
  /* [79][0][][] */ 10,-17,15,-74,127,1,49,2,73,14,32,38,3,-26,37,-41, 
  /* [80][0][][] */ 16,-14,57,-127,-29,-39,-25,50,-81,-75,-24,-39,22,118,-11,24, 
  /* [81][0][][] */ 32,-52,50,71,2,37,-27,-23,6,5,-22,-90,-23,65,-127,38, 
  /* [82][0][][] */ -99,16,34,-89,-7,-27,15,-22,-68,-9,-75,-86,16,-127,-114,-7, 
  /* [83][0][][] */ -32,-11,3,-98,-23,16,-23,65,-69,-23,-14,-110,23,-127,-12,79, 
  /* [84][0][][] */ 127,29,41,58,-84,27,-72,16,14,-17,125,-31,-98,36,93,-90, 
  /* [85][0][][] */ -21,-15,45,-38,47,-37,-59,125,-75,-127,-63,-30,9,110,105,-114, 
  /* [86][0][][] */ 5,-5,2,14,-62,53,-40,56,-74,-44,38,-18,3,-127,-3,25, 
  /* [87][0][][] */ 127,-37,16,-2,-41,-43,10,-28,-7,20,-88,36,41,6,25,53, 
  /* [88][0][][] */ 36,67,-7,-23,-27,-29,-1,4,101,14,36,6,-43,-46,127,-71, 
  /* [89][0][][] */ 40,91,-73,-24,-45,-29,29,-78,21,57,23,-52,-28,-27,-24,-127, 
  /* [90][0][][] */ -8,-30,2,-78,-70,1,127,-48,92,-72,11,-69,24,-17,-49,-16, 
  /* [91][0][][] */ 19,-3,-25,-76,-30,-18,-5,-22,-51,32,89,80,15,-5,24,127, 
  /* [92][0][][] */ 29,-5,3,20,62,-8,-82,-127,56,-64,-8,-21,-43,-18,-4,-15, 
  /* [93][0][][] */ 87,24,57,-127,-28,-19,-6,60,54,-65,82,-32,-43,113,-31,44, 
  /* [94][0][][] */ -92,28,-115,4,73,-127,-9,16,-8,-52,84,-20,-4,-3,-10,-12, 
  /* [95][0][][] */ -29,58,19,-127,5,12,-53,-3,15,-36,-58,-56,15,16,-73,-14, 
};
const TfArray<96, float> quant13_scale = { 96, { 0.00069439166691154242, 0.00075019302312284708, 0.00044761024764738977, 0.00019741480355150998, 0.00064736255444586277, 0.00079095829278230667, 0.0015628092223778367, 0.00085704826051369309, 0.0002746701065916568, 0.0010143166873604059, 0.00064154731808230281, 0.00073497853009030223, 0.00036456104135140777, 0.00055126572260633111, 0.00018479082791600376, 0.0011610636720433831, 0.00047600347897969186, 0.00049484107876196504, 0.00051148090278729796, 0.00067405536537989974, 0.00089378224220126867, 0.0021369587630033493, 0.00054955406812950969, 0.0014429838629439473, 0.0022489756811410189, 0.00075527152512222528, 0.00057503383141011, 0.00058585527585819364, 0.00093858403852209449, 0.00024881144054234028, 0.00016786633932497352, 0.00035891687730327249, 0.00065521645592525601, 0.00088846893049776554, 0.00051955756498500705, 0.00067647843388840556, 0.0012400108389556408, 0.0012662364169955254, 0.00045661683543585241, 0.0019001957261934876, 0.00058515241835266352, 0.00062516977777704597, 0.00026232399977743626, 0.0010785071644932032, 0.00040660449303686619, 0.0005748315597884357, 0.0011640982702374458, 0.00043140299385413527, 0.00022520105994772166, 0.00056850112741813064, 0.00074186368146911263, 0.00059999304357916117, 0.00070758984657004476, 0.00068937515607103705, 0.0014761978527531028, 0.00052524462807923555, 0.00064150762045755982, 0.00028429870144464076, 0.0012220579665154219, 0.00059957546181976795, 0.00097368843853473663, 0.00029116717632859945, 0.0005863361875526607, 0.00059747841442003846, 0.00082103756722062826, 0.00075826322427019477, 0.00074912875425070524, 0.00081112392945215106, 0.00059580884408205748, 0.00070617621531710029, 0.00075270212255418301, 0.00064631225541234016, 0.00039083388401195407, 0.00067351263714954257, 0.0011266473447903991, 0.00088170426897704601, 0.0007392914267256856, 0.0010031845886260271, 0.0010595852509140968, 0.0013028769753873348, 0.00027829629834741354, 0.00032106673461385071, 0.00057322887005284429, 0.00039297551847994328, 0.00098920520395040512, 0.00071473186835646629, 0.00089994532754644752, 0.00013547245180234313, 0.00042328698327764869, 0.00059459882322698832, 0.00071878836024552584, 0.0011357467155903578, 0.00070407934254035354, 0.0004791207320522517, 0.00072180316783487797, 0.00035707378992810845, } };
const TfLiteAffineQuantization quant13 = { (TfLiteFloatArray*)&quant13_scale, (TfLiteIntArray*)&g0::quant6_zero, 0 };
const MODEL_SECTION(EI_MODEL_SECTION) ALIGN(16) int32_t tensor_data14[16] = { -6665, 4353, 153, 24502, 25808, 619, -5364, -3339, 18886, 5479, 30509, 15061, -10694, 13560, 42695, -22358, };
const TfArray<16, float> quant14_scale = { 16, { 0.00045312376460060477, 0.00028891905094496906, 0.00027022152789868414, 0.00020015338668599725, 0.00033613629057072103, 0.00032450814615003765, 0.00035606638994067907, 0.00034662921098060906, 0.00020720054453704506, 0.00024719801149331033, 0.00035229188506491482, 0.00061731348978355527, 0.00040266290307044983, 0.00038179630064405501, 0.00046152956201694906, 0.00030536428675986826, } };
const TfLiteAffineQuantization quant14 = { (TfLiteFloatArray*)&quant14_scale, (TfLiteIntArray*)&g0::quant8_zero, 0 };
const MODEL_SECTION(EI_MODEL_SECTION) ALIGN(16) int8_t tensor_data15[16*1*1*96] = { 
  /* [0][0][][] */ -5,21,-2,16,49,63,-29,-15,35,6,21,6,-10,18,24,51,1,-12,-17,2,87,-46,5,-15,-18,-29,-41,-88,-12,10,30,46,107,4,8,-3,8,-19,-22,7,-34,1,21,-25,5,-24,-18,33,-17,16,-8,-5,-40,-14,5,-9,27,22,-6,-27,-55,27,-13,-14,11,17,54,7,14,8,5,-23,-55,-12,5,3,3,-78,4,-17,45,-26,-52,-36,22,-7,3,20,-13,4,20,-34,32,19,-4,127, 
  /* [1][0][][] */ 56,-101,47,80,-45,-73,-29,-85,-19,-102,-21,62,10,-83,-33,-58,-100,6,24,13,-27,-127,-27,3,121,-71,-89,20,-60,88,-16,37,-9,37,-61,26,-27,-5,51,-24,23,-82,70,-51,-62,-8,73,-18,51,1,4,-54,73,-66,15,-34,6,35,-11,-105,14,-69,1,-54,-2,-86,22,26,26,55,-72,-17,-92,51,-23,72,14,86,19,-39,25,22,-66,36,-97,73,-12,53,-64,33,16,24,-10,-45,22,-8, 
  /* [2][0][][] */ 8,16,-4,-38,9,-8,-7,19,64,-10,10,70,-5,-1,49,5,-24,-21,18,-13,-20,-67,12,-57,-11,-23,-21,31,2,18,127,-46,12,-65,-12,58,22,108,-38,-23,6,-22,1,27,-56,-56,-59,12,24,26,-22,-31,26,4,6,-35,-41,3,2,38,-1,3,68,91,-6,-94,26,-75,-12,-15,-17,4,-18,10,-21,19,8,49,18,5,-4,89,22,-11,-25,-1,8,10,26,8,5,-60,-44,-19,-13,54, 
  /* [3][0][][] */ -12,-18,-44,45,39,-9,2,-15,-14,31,7,0,4,-17,44,1,54,-39,16,16,-6,-3,-12,19,-10,15,18,-2,28,-42,52,-21,33,-34,-7,34,-3,-9,-23,12,22,-64,30,-11,-13,2,7,16,-127,43,-5,25,-109,-45,-15,-33,30,15,-19,53,9,30,15,22,-4,-81,-34,15,64,20,27,27,-39,6,-10,-37,-53,-53,35,-40,14,-33,21,75,62,53,28,30,33,-12,0,14,-22,11,-18,-31, 
  /* [4][0][][] */ -3,-34,5,-65,14,1,-49,18,-17,-41,-19,-13,11,85,12,8,60,-5,13,5,-5,40,53,16,-15,-5,24,1,24,-3,-4,-12,-25,8,1,6,39,-29,8,-12,8,14,-97,-29,42,1,-8,-9,-7,89,-9,-19,-15,-15,23,-2,0,-22,14,39,18,10,6,-4,30,-120,26,-23,-46,15,-4,-11,-12,6,-21,28,-14,61,62,19,10,7,127,-43,53,-24,-17,-14,85,2,4,18,-26,35,9,-46, 
  /* [5][0][][] */ 1,-2,-8,-4,6,-5,0,112,45,-16,-12,-34,-14,30,32,34,-2,-2,5,-38,-49,-4,-4,-39,17,10,31,70,67,12,61,44,-30,-5,5,-2,-53,-57,-38,-14,-34,-14,-11,-1,58,19,7,11,5,11,-10,5,-27,-15,17,-4,-10,-17,-21,29,-38,27,-14,-34,14,13,-20,1,2,16,14,9,32,10,0,-5,-13,30,12,127,-7,-42,14,31,16,-11,18,-20,4,-28,19,-106,-27,-12,-12,-100, 
  /* [6][0][][] */ -26,-8,7,-55,-11,-25,-13,0,1,7,-13,8,34,-51,-1,-18,-15,-52,19,4,10,-6,-14,-7,58,-3,-9,-5,26,-24,18,-9,-32,20,-26,1,11,14,58,44,-1,-28,-51,-20,5,-36,43,-127,25,25,16,15,12,4,-8,-38,31,-7,-7,9,5,4,-7,13,38,67,28,-26,-32,-5,9,-43,28,11,42,-12,-20,21,6,-2,-21,15,50,-28,-8,59,30,-26,27,15,-40,-13,-35,11,-9,11, 
  /* [7][0][][] */ 12,18,19,-23,-5,-2,-11,-34,-5,-16,-19,-13,-10,-98,35,5,-2,-35,-24,-5,14,-24,-31,-10,-21,-14,7,-10,7,28,6,-6,-26,9,-4,-8,11,-21,-32,17,2,-16,-22,35,-11,17,-11,65,-5,31,-8,-28,-26,5,-5,-52,40,2,-16,5,-13,1,-13,-10,-30,48,20,-25,-10,-8,8,40,-6,-7,-7,12,44,0,-12,-23,0,-37,35,0,-36,127,-3,13,-34,-14,-2,23,-32,0,-5,4, 
  /* [8][0][][] */ -61,28,-48,9,38,-17,-23,35,12,62,-38,12,16,37,67,-24,-3,28,-67,6,23,25,-30,1,-34,-19,15,15,32,-81,0,-3,26,12,16,0,-13,31,-71,42,15,25,-8,-127,-38,2,35,-30,-35,22,16,72,-102,75,16,-11,-2,-22,-16,-21,1,-45,3,7,-30,30,18,-23,-9,-10,21,77,-9,38,31,32,-9,-85,-10,-34,-10,-11,25,0,-71,-2,24,-45,7,43,-24,0,36,-28,-22,-11, 
  /* [9][0][][] */ 27,-76,-17,-42,0,40,-25,6,27,-25,-12,25,-40,-24,2,12,-10,4,42,-24,-33,4,-23,-69,33,17,13,-29,-22,-54,-17,-5,-23,21,15,34,4,50,-9,6,6,2,-23,-98,12,-17,33,-125,-50,-7,-28,31,-23,-3,-12,3,-47,29,-18,15,-4,1,1,32,17,127,31,44,-8,-4,-7,-40,-8,-4,-28,14,72,-9,1,12,-20,10,14,-69,-8,41,-2,-18,-45,37,-47,1,1,7,4,-17, 
  /* [10][0][][] */ 22,48,-34,31,77,-103,-15,-36,0,60,34,-4,-12,13,18,-84,23,22,-26,48,-81,-13,-6,-4,-67,-24,-53,55,20,1,3,29,-14,-22,43,-23,74,-14,-30,-3,-8,72,31,-9,-61,-17,-36,5,-20,-20,-19,2,1,-3,4,-4,14,33,-36,-18,16,14,-2,21,15,44,37,20,23,6,47,56,-51,-22,-54,-5,2,16,-16,-2,32,-13,-73,-37,73,-41,84,-1,-13,12,25,1,76,41,-28,-127, 
  /* [11][0][][] */ 56,42,-26,28,5,13,57,22,-11,-11,-24,-22,-6,15,39,-4,17,-13,-103,-2,5,21,3,9,-38,-14,2,5,4,31,-14,-2,5,-11,6,21,7,12,-25,23,0,41,59,-95,38,-32,-3,0,-127,17,15,-53,24,25,-3,11,-14,-18,-1,5,25,-14,-9,19,-31,60,-22,15,44,-12,37,25,-53,-25,21,25,0,-29,-48,7,19,-15,87,52,30,-25,-6,5,-3,15,-14,8,6,20,-26,31, 
  /* [12][0][][] */ -27,-4,10,0,-26,27,12,10,110,4,-19,-2,2,13,-40,-41,31,14,12,77,48,39,-12,-29,10,9,23,-29,-127,23,22,-28,11,-21,-10,-14,12,-5,14,-17,-49,-22,-1,10,3,40,-4,1,18,12,-44,5,-4,-10,13,-10,69,-32,15,12,18,-12,17,-10,-1,26,-38,4,9,-3,-20,-18,15,7,-68,3,21,2,10,-59,-11,-6,37,45,-13,-23,-26,-28,-6,14,-6,45,-7,-27,12,20, 
  /* [13][0][][] */ 25,-11,-25,30,38,2,12,1,-3,5,15,-5,18,-14,11,-15,14,-68,-44,16,-5,-27,12,1,1,12,2,-6,-4,-41,-2,17,-8,20,11,37,15,4,23,17,3,6,22,44,21,8,-5,-127,21,-8,4,14,-10,-1,15,11,-13,19,28,14,7,20,-13,4,-10,-19,-18,-54,2,16,-8,-43,-14,34,-3,18,-19,-7,22,-5,28,-11,-14,15,7,36,1,16,4,6,21,-15,7,11,-9,-15, 
  /* [14][0][][] */ -119,-62,29,41,19,-34,-45,3,-16,4,-15,12,62,-11,-127,-6,61,-16,-13,29,-16,-16,32,18,-108,5,25,-2,-42,-87,-23,-4,-17,15,25,-63,29,42,-5,20,24,27,-23,-42,13,107,65,43,-97,47,19,38,-49,-4,18,2,6,-5,77,43,29,34,17,32,-1,-19,-52,45,-8,71,-50,-92,-73,-6,-15,51,-5,32,71,-4,61,25,28,8,12,21,38,19,28,52,62,-12,-10,14,21,-40, 
  /* [15][0][][] */ 76,-31,47,-6,-4,61,25,-37,-19,40,13,16,-80,-16,-11,20,-5,27,45,-6,13,10,-79,56,15,4,41,-7,18,38,-57,-74,-7,-23,53,-8,36,-28,-46,-105,-2,43,-13,25,-1,37,-26,-36,111,-47,-51,32,48,-112,45,-112,-14,-68,31,13,-127,-6,11,22,81,-19,-59,44,-40,71,-30,11,51,26,30,1,26,-63,60,-28,-13,7,36,77,-35,14,3,-61,-4,5,60,-1,-73,50,11,-19, 
};
const TfArray<16, float> quant15_scale = { 16, { 0.019257759675383568, 0.012279059737920761, 0.011484415270388126, 0.0085065187886357307, 0.014285791665315628, 0.013791595585644245, 0.015132821165025234, 0.014731740579009056, 0.0088060228154063225, 0.010505915619432926, 0.014972404576838017, 0.026235822588205338, 0.017113173380494118, 0.01622634194791317, 0.019615005701780319, 0.012977981939911842, } };
const TfLiteAffineQuantization quant15 = { (TfLiteFloatArray*)&quant15_scale, (TfLiteIntArray*)&g0::quant8_zero, 0 };
const MODEL_SECTION(EI_MODEL_SECTION) ALIGN(16) int32_t tensor_data16[96] = { 11674, -8743, 2599, 62784, -1410, -4543, -10610, 721, -3220, 993, 2791, -1709, 1261, -7712, 6081, -6548, -998, 16737, 24640, 2735, 160, -2183, -667, -315, 18649, -963, -403, -3555, -5733, -7169, 7448, -9243, 35, -833, -758, 13703, 910, -3782, 22156, 1136, -83, 1723, -10137, -8113, -7635, 66836, 298, 16153, 30968, -12803, 156, 7582, 7529, -119, -5451, 2665, -12424, 1260, 1684, -8003, -1099, -545, -11309, -1693, 1570, 17236, 28756, 26216, -12196, 488, -6221, -849, 55485, 10757, -450, 453, 19338, 32877, -1002, -6086, -1403, -9067, 1740, -2934, 798, -390, 1160, -998, 1178, -2709, -257, -659, 339, -1015, 79, 46343, };
const TfArray<96, float> quant16_scale = { 96, { 0.00015838487888686359, 0.00014931634359527379, 0.00021637897589243948, 3.4968481486430392e-05, 0.00016744030290283263, 0.00015869367052800953, 0.00028210313757881522, 8.6823099991306663e-05, 0.00010873848805204034, 0.00033532999805174768, 0.00017515156650915742, 0.00028554248274303973, 9.8492258985061198e-05, 0.00038363246130757034, 0.00015727838035672903, 0.00012372875062283128, 0.00010523221135372296, 0.00028673207270912826, 6.5400039602536708e-05, 0.00025669485330581665, 5.3462204959942028e-05, 0.00018356798682361841, 0.0001122481407946907, 0.0003540342440828681, 0.00018776100478135049, 0.00023991276975721121, 0.00013182137627154589, 0.00017496100917924196, 0.00011839771468658, 0.00011752669524867088, 0.00011838021600851789, 0.00016683206195011735, 0.00012501125456765294, 0.00013658191892318428, 0.00020564290753100067, 0.00016923224029596895, 0.00049583252985030413, 0.00011335159797454253, 4.6447774366242811e-05, 0.00014123064465820789, 0.00023904642148409039, 0.00030393866472877562, 0.00034121389035135508, 0.00016591843450441957, 0.00017978806863538921, 4.7090168663999066e-05, 0.00018190544506069273, 0.00020947272423654795, 8.4290208178572357e-05, 0.00018409149197395891, 0.00019735126988962293, 0.00018927724158857018, 0.00024634230067022145, 0.00025833604740910232, 0.0002856797946151346, 0.00044609862379729748, 0.00032866714172996581, 0.00021322212705854326, 0.00012216718459967524, 8.1792903074529022e-05, 0.0003067358338739723, 0.00014356784231495112, 0.00029621910653077066, 0.00012660778884310275, 0.00016088248230516911, 0.00016355837578885257, 8.4078463260084391e-05, 6.896442937431857e-05, 0.00033242933568544686, 0.00023274743580259383, 0.00026388865080662072, 0.00011175944382557645, 0.00010263915464747697, 0.00014856179768685251, 0.00015993916895240545, 0.00022420841560233384, 0.00055091327521950006, 4.7816029109526426e-05, 0.00026040209922939539, 0.0002962182043120265, 0.00017658043361734599, 0.00023471984604839236, 9.9676028185058385e-05, 0.0001514357136329636, 0.00013406178914010525, 9.5728959422558546e-05, 0.00013709282211493701, 0.0001633137435419485, 0.00018210301641374826, 9.529850649414584e-05, 0.00018422283756081015, 0.00010994415788445622, 0.00013683858560398221, 0.00043601542711257935, 0.015423208475112915, 8.5226674855221063e-05, } };
const TfLiteAffineQuantization quant16 = { (TfLiteFloatArray*)&quant16_scale, (TfLiteIntArray*)&g0::quant6_zero, 0 };
const MODEL_SECTION(EI_MODEL_SECTION) ALIGN(16) int8_t tensor_data17[1*3*3*96] = { 
  /* [0][0][][] */ -18,9,-20,105,-17,24,-65,-53,17,-5,100,-9,3,-8,-4,52,5,15,-31,1,73,2,32,-33,1,17,43,47,20,13,22,47,-8,27,12,-14,6,48,-75,-27,20,9,27,18,-84,-55,23,-5,-11,-19,-9,-8,48,5,-8,1,-2,-35,30,-28,28,-3,127,28,-12,-11,12,-52,65,35,4,-2,81,-33,71,4,16,-127,31,63,1,12,127,-13,38,31,-29,-18,36,-7,-14,81,-1,21,-2,12, -49,13,-8,10,51,-8,-13,-127,39,14,-127,-5,-16,-11,4,92,19,-30,-15,-16,78,-98,127,26,-62,-31,-107,-15,27,33,-49,16,116,12,-14,0,-23,127,-71,-127,9,-20,-31,13,44,-127,127,-45,-77,51,48,5,38,-65,32,56,37,42,-98,83,127,35,4,-20,44,-38,-97,-1,37,-31,-18,48,-48,-49,106,-4,-30,-59,-31,65,-65,66,-14,8,-11,48,52,-39,-26,52,-13,73,-127,-30,23,-127, 0,-3,-23,-73,9,18,37,22,-3,-2,4,62,1,-12,-11,8,-13,17,-15,15,6,24,23,-31,0,-31,9,13,-7,4,45,-80,43,18,11,-22,13,5,-42,-23,8,4,-16,9,21,-29,20,0,6,-7,4,-6,3,4,-5,8,-8,46,8,-1,10,-18,3,-16,-25,-18,31,-51,-106,-6,41,-15,-127,-21,-13,18,10,-8,7,11,-13,24,-38,-3,-41,23,26,36,-23,-16,25,-11,18,7,-2,-44, 
  /* [0][1][][] */ -41,59,-17,37,-83,-15,-10,-42,24,95,-44,-22,-30,-24,-6,63,127,-24,-90,-15,60,-127,-28,16,-35,-48,-127,-6,36,36,-51,29,-127,-75,-54,4,67,-3,-62,45,-20,85,2,-1,34,-55,-13,-32,127,45,-4,19,44,9,-36,-17,32,11,-123,127,-36,-89,21,127,-60,-36,-88,126,-35,127,-16,56,-37,-55,39,8,-36,-70,127,47,127,38,9,-1,127,30,-95,47,-38,-35,-103,40,95,103,29,-59, 127,127,127,127,-45,-127,127,25,127,-127,16,-127,-105,127,127,127,-16,-127,-64,-127,127,24,-66,127,127,127,-57,-127,127,127,-127,127,-9,-127,-123,127,-127,-44,98,104,-127,-127,127,127,127,-122,-107,127,-14,127,-127,-127,-127,127,127,-127,127,-127,-41,42,-107,-28,-71,-67,127,127,-70,127,127,-108,-127,127,-42,127,-127,-127,-127,127,-74,127,-42,127,80,127,-38,-127,-25,-104,-127,-127,-24,-127,-21,-127,-127,115, -25,65,-37,4,127,73,-22,52,5,23,-13,-8,-26,-30,-12,-6,-104,-22,-127,36,31,78,-11,-115,-35,-41,125,74,8,37,72,8,125,-48,127,-3,57,6,-103,13,36,24,-22,3,-23,-53,-13,-43,82,16,-12,38,-6,-5,-76,-15,23,21,127,-86,3,127,-1,-35,-112,-28,-75,100,13,-17,116,25,-16,-57,13,47,-29,-6,-43,1,-46,7,44,24,-91,35,127,-45,33,-21,127,-10,-109,35,34,18, 
  /* [0][2][][] */ -4,-38,-21,-62,-4,14,40,33,-3,10,-20,52,24,-34,-6,5,42,2,9,19,-12,29,-17,-27,2,-24,6,2,-9,-4,47,-74,-37,65,-26,-24,32,-35,-68,16,9,9,-33,18,13,-80,-13,-1,-8,7,16,-8,8,1,-23,5,0,46,-49,36,-6,-13,5,18,-8,-10,21,-53,-54,11,-19,-9,-119,-33,2,18,14,-11,56,18,21,24,-38,15,13,25,-20,11,6,25,23,-6,19,40,-7,-30, -28,-11,-25,24,-44,76,-26,67,5,-5,53,-12,127,-6,-17,-20,-1,-39,-63,22,-24,79,-47,-112,-47,-48,99,71,14,48,54,-3,-121,61,-13,-22,-28,-27,-127,-4,45,-13,-14,36,-25,-47,-17,-48,-61,28,67,24,-12,-80,29,51,18,28,76,-52,19,-58,-8,1,17,-26,-127,-56,-10,-27,-61,24,37,-48,-28,-7,-46,25,-54,1,48,35,18,11,6,62,-94,127,17,123,-31,-17,112,-21,47,82, -10,-34,-25,30,13,67,-45,15,2,-6,1,12,12,-50,-9,-14,-43,-5,18,17,-26,5,-23,4,-4,18,-3,51,-1,-5,34,27,18,43,20,-22,-6,-25,-32,8,11,-11,22,9,-73,-33,-13,4,0,-16,-2,-5,-10,8,-18,-6,-1,-50,15,-26,-22,49,9,-28,-12,-3,38,-54,44,7,55,-19,32,-57,-16,23,10,11,-4,22,-30,33,86,-15,-19,53,39,-8,110,12,3,-19,11,-21,-6,-49, 
};
const TfArray<96, float> quant17_scale = { 96, { 0.0067313574254512787, 0.0063459444791078568, 0.009196106344461441, 0.0014861604431644082, 0.007116212509572506, 0.0067444811575114727, 0.011989383026957512, 0.0036899817641824484, 0.0046213855966925621, 0.014251524582505226, 0.0074439416639506817, 0.012135555036365986, 0.0041859210468828678, 0.01630437932908535, 0.0066843312233686447, 0.005258471705019474, 0.0044723688624799252, 0.012186112813651562, 0.0027795014902949333, 0.010909531265497208, 0.0022721437271684408, 0.0078016393817961216, 0.0047705457545816898, 0.015046454966068268, 0.007979842834174633, 0.010196292772889137, 0.0056024086661636829, 0.0074358428828418255, 0.0050319028086960316, 0.0049948845990002155, 0.0050311591476202011, 0.0070903622545301914, 0.0053129782900214195, 0.005804731510579586, 0.0087398234754800797, 0.0071923700161278248, 0.021072881296277046, 0.0048174429684877396, 0.0019740303978323936, 0.0060023022815585136, 0.010159472934901714, 0.012917392887175083, 0.01450159028172493, 0.0070515330880880356, 0.0076409927569329739, 0.0020013321191072464, 0.0077309813350439072, 0.0089025907218456268, 0.0035823336802423, 0.0078238882124423981, 0.0083874287083745003, 0.0080442829057574272, 0.010469547472894192, 0.010979281738400459, 0.012141390703618526, 0.01895919069647789, 0.013968353159725666, 0.0090619400143623352, 0.0051921051926910877, 0.0034761982969939709, 0.013036272488534451, 0.0061016329564154148, 0.01258931215852499, 0.0053808307275176048, 0.0068375053815543652, 0.0069512310437858105, 0.0035733345430344343, 0.0029309880919754505, 0.01412824634462595, 0.0098917661234736443, 0.011215267702937126, 0.00474977632984519, 0.0043621640652418137, 0.006313876248896122, 0.0067974142730236053, 0.0095288576558232307, 0.023413814604282379, 0.0020321812480688095, 0.011067088693380356, 0.012589273042976856, 0.007504668552428484, 0.0099755935370922089, 0.004236231092363596, 0.0064360178075730801, 0.0056976261548697948, 0.0040684808045625687, 0.0058264448307454586, 0.0069408337585628033, 0.0077393781393766403, 0.0040501863695681095, 0.0078294705599546432, 0.0046726264990866184, 0.0058156396262347698, 0.018530655652284622, 0.6554863452911377, 0.0036221335176378489, } };
const TfLiteAffineQuantization quant17 = { (TfLiteFloatArray*)&quant17_scale, (TfLiteIntArray*)&g0::quant6_zero, 3 };
const MODEL_SECTION(EI_MODEL_SECTION) ALIGN(16) int32_t tensor_data18[96] = { 15794, 1764, 6446, -750, 4781, 5673, 18023, 6655, -1831, 13629, 7382, 1529, 9115, 45489, -180, -2716, 10018, 13385, 2010, -206, -830, 15734, 5295, 3607, 9535, 5997, 4310, 5042, 12, -102, 6403, 8573, 18388, 2182, 6925, -863, 23736, 9610, 810, 5150, 1190, 13693, 12902, 5813, 3615, 9845, 17812, 5817, 5087, 4285, 362, -832, 22468, 8451, 9675, 18754, -255, 9362, 3399, 4123, 14975, 6075, 2914, 5946, 7669, 4750, 6658, -1048, 25184, 10637, 10594, -1304, -1590, 3223, 1808, 3550, 25422, 15672, 15415, -3185, 6464, -4992, -2704, 717, 7896, 5232, 7987, 4767, 12461, 5164, 9765, 4021, 18958, 20886, -11302, 14006, };
const TfArray<96, float> quant18_scale = { 96, { 0.00016251161287073046, 0.00018801215628627688, 0.00020719754684250802, 0.00070537492865696549, 0.00032026355620473623, 0.00016326854529324919, 0.00017717418086249381, 0.00053091911831870675, 0.00024551380192860961, 0.00013248132017906755, 0.00019618199439719319, 0.00054979586275294423, 0.00029978185193613172, 0.00010561473027337343, 0.00026842494844458997, 0.00025572063168510795, 0.00021617536549456418, 0.00017475835920777172, 0.00021241475769784302, 0.00050904584350064397, 0.00033011217601597309, 0.00015877009718678892, 0.00029677562997676432, 0.00020947845769114792, 0.00018588491366244853, 0.00035117371589876711, 0.00033792635076679289, 0.00018312146130483598, 0.00071580993244424462, 0.00027219235198572278, 0.00022343025193549693, 0.00022288048057816923, 0.00010782946628751233, 0.00050541502423584461, 0.00024177426530513912, 0.00034199233050458133, 9.5485032943543047e-05, 0.00027519033756107092, 0.00062114989850670099, 0.0001940972579177469, 0.0004179289098829031, 0.00013495070743374527, 0.00016728807531762868, 0.00013529686839319766, 0.0003143557405564934, 0.00032774469582363963, 0.00015854449884500355, 0.00025382210151292384, 0.00029694565455429256, 0.00020169385243207216, 0.0003820873680524528, 0.00076402118429541588, 0.00012019804125884548, 0.00019547696865629405, 0.00024094522814266384, 9.8451208032201976e-05, 0.00033556725247763097, 0.00018677733896765858, 0.0002269350370625034, 0.0003973567218054086, 0.0001130602031480521, 0.00023180384596344084, 0.00036538005224429071, 0.00046324319555424154, 0.00013801506429444999, 0.00023242934548761696, 0.00029157500830478966, 0.00034876566496677697, 0.00010755226685432717, 0.00010996411583619192, 0.00018598434689920396, 0.00036253675352782011, 0.00023790323757566512, 0.00039869762258604169, 0.00023114537179935724, 0.00035303254844620824, 9.4212657131720334e-05, 0.00028482559719122946, 0.0001073489838745445, 0.00039187594666145742, 0.00016622430121060461, 0.00041340943425893784, 0.00015266674745362252, 0.00037814542884007096, 0.00019881941261701286, 0.00029441961669363081, 0.00020172513904981315, 0.00028448784723877907, 0.00013320478319656104, 0.00031483446946367621, 0.00014263894991017878, 0.00042433183989487588, 0.000110814486106392, 0.00013216315710451454, 0.00025897394516505301, 0.00023589316697325557, } };
const TfLiteAffineQuantization quant18 = { (TfLiteFloatArray*)&quant18_scale, (TfLiteIntArray*)&g0::quant6_zero, 0 };
const MODEL_SECTION(EI_MODEL_SECTION) ALIGN(16) int8_t tensor_data19[96*1*1*16] = { 
  /* [0][0][][] */ 31,-26,109,127,62,-11,48,-41,127,-9,-22,-91,40,58,-21,-79, 
  /* [1][0][][] */ 61,68,-16,6,103,-7,-9,45,79,61,-69,127,18,-31,116,-95, 
  /* [2][0][][] */ 26,-76,4,32,-28,22,-45,93,-67,-64,0,94,3,-127,75,-107, 
  /* [3][0][][] */ 119,116,-24,26,-127,-21,-67,-37,-1,-6,117,-74,-62,82,-34,-30, 
  /* [4][0][][] */ -4,-9,24,7,-41,28,-19,33,-63,-20,22,-26,-6,-127,45,9, 
  /* [5][0][][] */ 101,-50,-30,24,-9,-110,-12,19,8,24,-127,-11,29,-2,5,22, 
  /* [6][0][][] */ -126,-89,-27,109,-65,-34,-38,30,-127,-62,-100,-64,4,56,-4,107, 
  /* [7][0][][] */ -30,20,-89,42,39,-127,-15,25,10,-29,2,-16,-2,9,-16,19, 
  /* [8][0][][] */ 33,-49,-13,-22,8,16,-65,-72,-24,6,-67,5,-127,7,-7,31, 
  /* [9][0][][] */ 19,-51,48,127,13,30,-3,-58,112,-84,2,-9,15,44,-62,22, 
  /* [10][0][][] */ -91,-83,-17,-46,120,29,60,75,118,-96,-127,34,93,-99,-93,86, 
  /* [11][0][][] */ 39,-16,-127,27,31,27,-20,36,4,-14,-3,-13,4,22,-33,13, 
  /* [12][0][][] */ 85,-54,-8,4,-10,-99,-81,-43,34,-8,-127,-28,-65,-26,-4,61, 
  /* [13][0][][] */ 33,-46,-8,-89,91,-2,-117,-127,59,-89,-10,18,-5,-8,33,25, 
  /* [14][0][][] */ -39,21,-78,-47,74,-127,53,-63,46,41,-7,-98,3,99,-8,30, 
  /* [15][0][][] */ 23,2,73,45,57,-60,-29,-9,1,-59,-73,0,-127,-66,-41,53, 
  /* [16][0][][] */ -123,61,-14,3,-36,73,49,40,-30,27,127,-12,-6,-7,-6,-33, 
  /* [17][0][][] */ -13,-16,-51,-21,-52,16,48,73,-25,127,-12,8,-10,63,69,-2, 
  /* [18][0][][] */ -23,127,-47,-4,-1,8,62,-52,13,105,-32,94,22,-45,33,-91, 
  /* [19][0][][] */ 16,-27,51,11,4,44,-15,24,12,-8,-44,-8,-127,14,-15,34, 
  /* [20][0][][] */ 91,-69,-4,-96,-31,12,16,-81,-71,23,-127,-36,33,17,48,2, 
  /* [21][0][][] */ 36,15,127,56,6,54,29,-16,-1,22,-38,5,-6,64,12,-21, 
  /* [22][0][][] */ 37,9,30,-12,-4,3,16,127,2,-12,43,58,-11,47,16,20, 
  /* [23][0][][] */ -26,24,-97,19,21,-127,22,37,-4,-16,-8,7,-56,-6,-7,32, 
  /* [24][0][][] */ 40,-72,20,-57,63,2,-22,-3,33,33,95,91,-26,87,127,45, 
  /* [25][0][][] */ -127,-101,-34,8,12,0,8,-42,-57,3,-94,4,28,37,38,46, 
  /* [26][0][][] */ 20,-7,32,12,2,-2,-31,48,-67,-45,-15,18,0,-127,50,-26, 
  /* [27][0][][] */ -110,40,-26,27,45,-1,-6,41,32,-33,127,19,-27,10,-18,-27, 
  /* [28][0][][] */ -12,1,20,23,-3,-3,15,83,28,9,-21,-12,-127,-9,-9,48, 
  /* [29][0][][] */ -4,69,50,-37,38,-24,17,-16,-127,33,-31,8,5,29,-90,5, 
  /* [30][0][][] */ -23,2,-127,-33,44,-57,-9,17,-26,-12,-23,-11,-34,-39,9,-1, 
  /* [31][0][][] */ 112,-5,-127,14,29,-2,-17,46,0,10,-57,-53,12,-8,-72,28, 
  /* [32][0][][] */ -111,32,21,49,29,81,33,56,29,17,127,15,-35,18,-9,-44, 
  /* [33][0][][] */ 4,-19,127,-16,-66,18,5,-45,-13,11,-23,26,-25,26,41,22, 
  /* [34][0][][] */ 1,-34,-8,-87,9,13,1,-13,-23,-38,-1,-127,-18,9,38,16, 
  /* [35][0][][] */ 14,-35,50,45,72,-17,22,-20,-121,39,-19,41,-21,127,-51,-44, 
  /* [36][0][][] */ -108,48,-33,9,-21,50,53,107,-8,34,127,-1,18,31,20,-28, 
  /* [37][0][][] */ -34,17,127,-30,-99,-60,47,-43,34,33,-10,-8,-2,-78,73,21, 
  /* [38][0][][] */ 4,-4,-10,21,47,-65,-48,8,-20,-19,92,-3,127,22,-19,8, 
  /* [39][0][][] */ -7,-12,-10,-34,-77,-90,65,127,-16,5,7,-65,16,53,54,58, 
  /* [40][0][][] */ 79,-20,-1,-4,-26,103,-17,15,27,-5,9,-12,127,35,-35,-30, 
  /* [41][0][][] */ -9,-7,-23,-127,28,14,-22,-63,-16,-52,11,-27,-10,-23,-19,33, 
  /* [42][0][][] */ 24,32,12,101,-112,2,-101,14,-60,-65,54,-66,-30,127,-33,10, 
  /* [43][0][][] */ 19,100,-27,127,14,30,54,-77,-25,91,-15,28,-8,-32,46,34, 
  /* [44][0][][] */ -11,-18,-127,22,46,87,-32,61,-10,-16,38,-19,8,-23,-66,6, 
  /* [45][0][][] */ 1,25,-12,-127,-24,-14,36,-12,-4,8,-22,3,12,-64,52,-19, 
  /* [46][0][][] */ 10,14,61,-3,-9,30,-36,65,33,-41,-36,1,21,127,67,-6, 
  /* [47][0][][] */ 19,-21,9,-44,-56,21,-54,49,-4,-25,20,25,-17,-127,55,21, 
  /* [48][0][][] */ -1,-7,5,-127,4,-13,-15,2,13,-32,14,5,0,35,-6,41, 
  /* [49][0][][] */ 40,-44,5,127,98,17,11,62,-66,21,23,52,-16,56,115,-5, 
  /* [50][0][][] */ -17,-19,81,-30,5,127,-46,-66,29,-45,118,31,88,0,-12,-63, 
  /* [51][0][][] */ 30,56,16,4,25,-10,-40,23,44,1,0,127,19,38,27,-48, 
  /* [52][0][][] */ -21,65,127,-9,22,-43,18,-52,-28,-3,1,35,0,90,-115,-7, 
  /* [53][0][][] */ 1,-9,-67,-127,-73,14,33,-25,-13,55,-15,-22,39,-22,65,22, 
  /* [54][0][][] */ 4,22,-31,-74,37,25,-24,15,79,-28,-6,-37,-12,127,5,29, 
  /* [55][0][][] */ -7,-53,-31,-17,3,-58,-37,-127,17,-97,-18,-19,-34,-65,-41,-13, 
  /* [56][0][][] */ 31,46,33,67,4,-20,23,127,23,-30,12,-34,82,-17,-51,28, 
  /* [57][0][][] */ 97,-30,127,-2,-73,-34,11,12,30,22,-102,32,78,-39,67,-21, 
  /* [58][0][][] */ 117,88,27,127,-122,-78,-24,37,-17,-2,82,-29,-65,-61,-33,-121, 
  /* [59][0][][] */ 127,-26,-17,-1,-41,-22,4,1,-30,20,-118,-24,13,3,-6,40, 
  /* [60][0][][] */ -127,35,-11,12,7,20,22,24,24,18,96,11,-35,-4,24,-28, 
  /* [61][0][][] */ -127,33,28,23,1,1,-46,-38,111,-83,100,5,58,-19,-89,-32, 
  /* [62][0][][] */ -13,-50,-127,70,82,115,-14,95,8,-73,28,-13,-91,-15,-96,-26, 
  /* [63][0][][] */ -52,14,127,-43,-41,-33,35,-10,13,11,1,16,-7,-41,72,25, 
  /* [64][0][][] */ 34,58,-6,59,89,9,89,-103,4,127,-20,-17,14,-116,-2,15, 
  /* [65][0][][] */ -1,24,12,-7,86,32,-5,-127,-14,-66,-33,-51,2,-37,52,5, 
  /* [66][0][][] */ -127,0,-35,18,-48,12,28,-35,-84,-40,-78,58,61,16,51,82, 
  /* [67][0][][] */ -14,-52,16,127,10,-10,-35,52,57,24,11,-22,7,-26,-83,-34, 
  /* [68][0][][] */ -11,10,-46,127,-59,-9,21,-33,-42,31,18,-20,-24,-87,-4,-36, 
  /* [69][0][][] */ 101,100,11,127,76,-4,72,-112,34,123,10,77,26,-41,59,-2, 
  /* [70][0][][] */ -37,-100,41,-59,127,-8,17,21,66,-48,38,-84,19,115,78,87, 
  /* [71][0][][] */ 10,52,25,92,37,-127,-21,92,44,-76,6,25,-2,-46,-60,36, 
  /* [72][0][][] */ -127,-72,-27,51,8,34,-22,21,-47,-18,-92,44,48,10,13,102, 
  /* [73][0][][] */ -22,-20,4,59,47,-30,0,-12,53,8,-6,25,36,127,-70,-32, 
  /* [74][0][][] */ 82,-38,26,-18,-47,13,36,-11,-18,-3,-127,25,-100,-15,49,42, 
  /* [75][0][][] */ -10,-18,-38,127,-45,0,4,-25,-56,19,5,-26,-2,-56,-4,-25, 
  /* [76][0][][] */ 1,-17,-12,40,29,15,-24,-127,16,-121,-4,17,-38,-14,31,-29, 
  /* [77][0][][] */ 127,-44,48,49,-39,-17,-63,8,47,-14,-35,55,39,19,-52,30, 
  /* [78][0][][] */ -38,-4,35,-15,4,6,-68,30,50,-40,-60,-63,-1,127,59,-25, 
  /* [79][0][][] */ 1,41,63,10,49,69,-40,-62,20,-35,91,-22,127,-39,-31,-49, 
  /* [80][0][][] */ -120,-76,-70,127,17,51,25,-3,-77,29,-113,28,55,-82,-19,52, 
  /* [81][0][][] */ 76,-20,-71,46,78,95,-4,-26,-16,-127,-10,-81,-16,-24,-88,16, 
  /* [82][0][][] */ 127,118,0,58,-120,-33,-81,-20,-83,-6,117,-63,-58,110,2,-53, 
  /* [83][0][][] */ 127,42,7,-20,8,-24,7,33,39,31,83,-32,-49,-40,-17,-73, 
  /* [84][0][][] */ 12,-64,-75,-19,34,16,17,-127,-28,-35,40,18,-27,-18,-2,-1, 
  /* [85][0][][] */ -25,-7,-48,-55,-38,-2,70,77,-9,127,-19,-47,-1,69,63,-10, 
  /* [86][0][][] */ 104,-30,25,0,0,-36,-12,-21,0,-3,-127,0,28,27,-8,15, 
  /* [87][0][][] */ -10,33,24,-28,-7,81,-32,63,-13,-43,30,13,20,-127,-1,-2, 
  /* [88][0][][] */ -20,-43,-104,-31,63,-40,-28,-127,18,-9,-42,-16,-36,-8,52,-9, 
  /* [89][0][][] */ 26,-40,23,-127,14,14,-41,119,98,-68,33,-8,-18,54,61,63, 
  /* [90][0][][] */ 8,21,-61,53,47,-28,107,-86,63,127,-6,30,19,-10,-2,-26, 
  /* [91][0][][] */ 45,-19,-30,-4,-1,-127,-9,-5,-5,-3,-55,-15,32,-13,6,24, 
  /* [92][0][][] */ 24,23,127,68,59,17,3,30,-39,24,-67,51,41,84,-21,7, 
  /* [93][0][][] */ 127,-37,-37,2,-23,-46,12,39,-19,44,-115,3,10,17,3,37, 
  /* [94][0][][] */ 14,-21,42,73,123,-36,-7,55,-6,-15,5,68,-7,127,-35,-73, 
  /* [95][0][][] */ -106,44,30,42,18,36,23,5,4,8,127,4,-8,31,-20,-35, 
};
const TfArray<96, float> quant19_scale = { 96, { 0.00057699432363733649, 0.0006675335462205112, 0.00073565088678151369, 0.0025044200010597706, 0.0011370895663276315, 0.0005796818295493722, 0.00062905350932851434, 0.001885018078610301, 0.00087169196922332048, 0.00047037238255143166, 0.00069654040271416306, 0.0019520395435392857, 0.0010643696878105402, 0.00037498306483030319, 0.00095303764101117849, 0.00090793118579313159, 0.00076752644963562489, 0.00062047620303928852, 0.00075417448533698916, 0.0018073575338348746, 0.0011720568872988224, 0.00056371017126366496, 0.0010536961490288377, 0.00074374920222908258, 0.00065998081117868423, 0.0012468354543671012, 0.0011998009867966175, 0.00065016921143978834, 0.0025414694100618362, 0.00096641364507377148, 0.00079328479478135705, 0.00079133285908028483, 0.00038284642505459487, 0.001794466283172369, 0.00085841485997661948, 0.0012142371851950884, 0.00033901777351275086, 0.00097705796360969543, 0.002205380704253912, 0.00068913854192942381, 0.0014838485512882471, 0.00047913988237269223, 0.00059395306743681431, 0.00048036890802904963, 0.0011161139700561762, 0.0011636512354016304, 0.00056290917564183474, 0.0009011904476210475, 0.0010542997624725103, 0.00071611010935157537, 0.0013565937988460064, 0.0027126425411552191, 0.00042676081648096442, 0.0006940371822565794, 0.00085547135677188635, 0.00034954911097884178, 0.0011914250208064914, 0.00066314934520050883, 0.00080572848673909903, 0.0014108073664829135, 0.00040141807403415442, 0.00082301505608484149, 0.0012972748372703791, 0.0016447360394522548, 0.00049001979641616344, 0.00082523591117933393, 0.0010352313984185457, 0.0012382857967168093, 0.00038186224992386997, 0.00039042546995915473, 0.00066033384064212441, 0.0012871797662228346, 0.00084467086708173156, 0.001415568171069026, 0.00082067720359191298, 0.0012534352717921138, 0.00033450021874159575, 0.0010112677700817585, 0.00038114050403237343, 0.0013913479633629322, 0.00059017614694312215, 0.0014678022125735879, 0.00054204033222049475, 0.0013425979996100068, 0.00070590450195595622, 0.0010453311260789633, 0.00071622122777625918, 0.0010100685758516192, 0.0004729409993160516, 0.0011178137501701713, 0.00050643685972318053, 0.0015065820189192891, 0.00039344470133073628, 0.00046924271737225354, 0.00091948197223246098, 0.00083753414219245315, } };
const TfLiteAffineQuantization quant19 = { (TfLiteFloatArray*)&quant19_scale, (TfLiteIntArray*)&g0::quant6_zero, 0 };
const MODEL_SECTION(EI_MODEL_SECTION) ALIGN(16) int32_t tensor_data20[16] = { -36326, 5978, 501, -6714, -140, -6568, -11367, -43269, 1455, 21459, 34378, -11568, -3439, -21811, 35001, -38517, };
const TfArray<16, float> quant20_scale = { 16, { 0.00066642020829021931, 0.00077748327748849988, 0.0009628942352719605, 0.00113740807864815, 0.00069564557634294033, 0.0010268090991303325, 0.00097064569126814604, 0.00056913431035354733, 0.00063559861155226827, 0.00058608036488294601, 0.00071468757232651114, 0.00052080454770475626, 0.00089518283493816853, 0.0011985746677964926, 0.0005480871768668294, 0.00048137642443180084, } };
const TfLiteAffineQuantization quant20 = { (TfLiteFloatArray*)&quant20_scale, (TfLiteIntArray*)&g0::quant8_zero, 0 };
const MODEL_SECTION(EI_MODEL_SECTION) ALIGN(16) int8_t tensor_data21[16*1*1*48] = { 
  /* [0][0][][] */ -14,-2,-17,4,24,-3,6,108,-56,19,43,-3,19,-14,-4,18,18,-9,-11,-17,70,-8,19,127,-20,83,-6,-12,27,-15,31,-27,-19,54,15,-47,15,47,16,-16,-110,-32,20,50,37,28,-115,-56, 
  /* [1][0][][] */ -39,-20,25,6,-33,10,-1,61,-56,-37,13,-53,-19,-15,3,-3,-30,117,-14,15,4,2,-34,-20,26,-36,14,19,-27,-94,-34,28,-21,-16,37,-13,-6,-42,3,16,-26,-31,127,8,10,-1,25,-10, 
  /* [2][0][][] */ -21,-12,-11,-33,4,-75,4,-24,0,15,12,28,20,18,-10,16,-7,-19,-20,-19,-2,-4,2,-127,-12,84,-16,7,0,-23,-2,-4,-8,60,11,-3,21,11,27,1,-37,6,-23,-7,-1,-12,12,8, 
  /* [3][0][][] */ -7,31,-2,-29,-4,-3,7,-5,-20,-4,2,37,-127,7,-6,2,2,1,-15,2,-30,7,9,18,-8,-13,2,23,-12,18,7,13,2,6,16,19,-11,24,42,6,10,2,27,-28,11,-5,6,19, 
  /* [4][0][][] */ 33,-23,9,10,15,29,26,-23,-30,7,-13,-22,0,15,-2,16,19,-9,-83,2,-8,10,15,70,-4,-27,12,51,5,-76,16,3,14,-34,31,-127,14,36,2,18,-18,20,8,-26,-10,-21,4,7, 
  /* [5][0][][] */ 24,1,-25,53,-1,-5,9,26,-2,-2,42,7,4,49,1,5,-19,19,28,6,10,5,2,-26,-2,-50,-1,-19,-6,-9,-1,6,65,-127,2,27,-13,-12,16,3,-89,55,19,-4,-4,-4,-95,-4, 
  /* [6][0][][] */ 25,-3,7,8,-12,-8,4,-13,-3,-1,-4,7,-19,10,7,4,-2,-14,127,8,5,6,11,-30,4,7,24,-17,-13,-3,-4,9,-2,-12,35,-36,-1,-43,68,13,1,-6,-4,6,-13,5,1,-11, 
  /* [7][0][][] */ -56,-9,-4,33,-14,70,-5,49,5,29,0,127,71,2,-12,-2,-8,-26,-5,-15,-30,-7,-9,58,-5,-31,-43,-23,-13,-5,-13,-3,3,-3,-17,-4,9,-62,95,-8,12,28,-55,-59,8,-5,7,-3, 
  /* [8][0][][] */ -50,-47,0,5,-3,7,2,34,-1,-73,1,45,51,-5,6,7,-9,60,-28,5,-45,23,-2,-14,3,0,5,46,-9,126,-9,22,0,-2,-17,-127,-115,66,34,27,21,-5,109,-25,7,29,26,22, 
  /* [9][0][][] */ -24,3,-2,31,16,-27,-4,1,61,-39,7,62,-62,5,10,-1,-9,16,-41,-20,48,11,-26,-20,4,13,56,-18,11,15,12,-6,1,14,74,-108,-10,-127,-93,6,-32,31,50,6,1,7,-23,-43, 
  /* [10][0][][] */ -26,-6,-35,-127,46,92,17,-18,5,32,32,14,56,-54,-28,27,42,-48,62,-35,33,-28,42,58,-54,-119,5,-39,53,34,54,-42,-32,-89,33,-9,16,-54,5,-29,-34,-67,-7,13,9,14,30,-48, 
  /* [11][0][][] */ -2,54,-4,67,40,-62,-81,-12,-1,68,-23,1,-3,58,-10,-68,39,49,9,-1,-49,-109,18,5,13,-47,19,-22,52,-46,28,-88,51,-12,-44,-104,102,11,8,-127,7,67,107,-80,-8,-57,40,28, 
  /* [12][0][][] */ 119,3,-19,10,7,24,-3,104,19,-12,-53,-22,-6,14,-12,-3,-13,2,-6,-1,10,4,1,12,3,12,-1,9,-7,13,-7,1,9,-69,-7,4,-13,-16,-25,-6,-22,-77,3,-127,-56,-15,86,-4, 
  /* [13][0][][] */ 11,3,0,7,6,-11,3,-1,1,7,3,22,-3,4,7,0,4,3,10,1,11,-11,6,-2,2,1,19,127,12,-4,7,-3,3,1,-41,23,10,-5,4,-15,-12,-4,-1,4,-3,-5,-10,-12, 
  /* [14][0][][] */ 57,-25,42,-59,57,32,32,-96,-44,-60,-13,127,-71,-9,66,9,47,25,-53,65,18,21,71,-15,28,61,-34,-111,32,-24,54,50,-4,57,-120,-47,-46,41,84,7,-37,18,50,-3,-8,1,12,-33, 
  /* [15][0][][] */ -3,-51,-58,-31,59,21,72,-56,-5,14,-22,-27,85,12,-87,58,62,57,77,-86,-92,-27,57,-10,-84,36,19,46,60,51,49,-39,14,58,92,127,-18,-102,-16,-30,87,52,108,-43,-11,-23,-10,51, 
};
const TfArray<4, int> tensor_dimension21 = { 4, { 16,1,1,48 } };
const TfArray<16, float> quant21_scale = { 16, { 0.028322858735918999, 0.033043038100004196, 0.040923003107309341, 0.04833984375, 0.029564935714006424, 0.043639384210109711, 0.041252441704273224, 0.02418820746243, 0.027012940496206284, 0.024908414110541344, 0.030374221503734589, 0.022134192287921906, 0.038045268505811691, 0.050939422100782394, 0.02329370379447937, 0.020458497107028961, } };
const TfLiteAffineQuantization quant21 = { (TfLiteFloatArray*)&quant21_scale, (TfLiteIntArray*)&g0::quant8_zero, 0 };
const MODEL_SECTION(EI_MODEL_SECTION) ALIGN(16) int32_t tensor_data22[48] = { 6712, 34249, -1730, 38911, 4211, 129585, -1962, 52155, 3451, 34345, 22979, -751, -2962, 29736, -663, -2143, -755, 1738, 881, -1991, 780, -2982, 1420, -20535, -4170, 46124, 130121, 98390, 3158, 2114, -2191, 1290, 23491, 950, 25113, -911, 31360, 4945, 56073, 3114, 934, 67121, 1556, 5861, 57327, -468, 1909, 50906, };
const TfArray<1, int> tensor_dimension22 = { 1, { 48 } };
const TfArray<48, float> quant22_scale = { 48, { 6.6373104345984757e-05, 3.8976719224592671e-05, 0.00015399696712847799, 5.6538228818681091e-05, 0.00013237277744337916, 6.1090548115316778e-05, 0.00016575305198784918, 0.00010799862502608448, 7.9398538218811154e-05, 3.6737259506480768e-05, 4.9852267693495378e-05, 0.00011317987809889019, 4.8113193770404905e-05, 3.5458451748127118e-05, 0.00015445402823388577, 0.00019809049263130873, 0.00018210257985629141, 7.0369002060033381e-05, 0.00013026513624936342, 0.00014772788563277572, 9.720505477162078e-05, 0.00017066534201148897, 0.00011037066724384204, 0.00013336175470612943, 0.00011892418842762709, 9.4269511464517564e-05, 2.7787898943643086e-05, 7.3327828431501985e-05, 0.00012214800517540425, 0.00013536737242247909, 0.00011610077490331605, 0.00013417046284303069, 4.7325796913355589e-05, 0.00013254249643068761, 3.187663241988048e-05, 5.6203378335339949e-05, 0.00018684743554331362, 7.9495177487842739e-05, 0.00010115988698089495, 7.9027333413250744e-05, 0.00011093681678175926, 8.5954183305148035e-05, 7.1406786446459591e-05, 7.5474781624507159e-05, 2.8732594728353433e-05, 0.00014457482029683888, 9.9387769296299666e-05, 3.2497249776497483e-05, } };
const TfArray<48, int> quant22_zero = { 48, { 0,0,0,0,0,0,0,0,0,0,0,0,0,0,0,0,0,0,0,0,0,0,0,0,0,0,0,0,0,0,0,0,0,0,0,0,0,0,0,0,0,0,0,0,0,0,0,0 } };
const TfLiteAffineQuantization quant22 = { (TfLiteFloatArray*)&quant22_scale, (TfLiteIntArray*)&quant22_zero, 0 };
const MODEL_SECTION(EI_MODEL_SECTION) ALIGN(16) int8_t tensor_data23[1*3*3*48] = { 
  /* [0][0][][] */ 70,-92,97,69,53,-35,106,-64,61,-91,-78,47,51,-43,-72,-89,102,74,49,77,66,-74,-82,51,-31,-40,-66,-64,-67,62,-63,-114,-13,41,70,65,-64,53,-50,-24,51,-73,59,61,-91,10,76,-36, 82,-93,127,85,-77,-69,-57,-82,98,-105,-62,74,79,-109,-95,92,-37,92,82,127,84,-115,52,72,-50,-77,-69,-80,56,80,-31,-127,-86,80,81,82,-81,82,-83,-18,76,-95,84,90,-72,-127,94,-103, 33,-46,69,38,18,-41,-46,-39,43,-32,6,33,29,-77,-56,-1,-53,35,35,70,31,-54,31,27,-28,-45,-45,-23,32,31,86,-89,-85,45,36,34,-30,38,-37,-12,41,-41,36,44,-6,-8,37,-71, 
  /* [0][1][][] */ 94,-112,-42,93,55,-81,127,-89,88,-114,-72,82,84,-110,-12,-127,127,107,74,-37,84,107,-127,74,72,-76,-96,-99,-127,87,-69,-10,-86,69,108,96,-85,80,-79,89,84,-102,86,91,-88,104,95,-93, 127,-127,-66,127,-127,-127,-90,-127,127,-127,-127,127,127,-127,-21,98,-66,127,127,-50,127,127,68,127,127,-127,-127,-127,53,127,-29,14,-127,127,127,127,-127,127,-127,127,127,-127,127,127,-127,-12,127,-127, 64,-79,-32,66,37,-61,-47,-62,55,-40,-61,59,49,-53,-17,12,-62,51,59,-30,58,65,49,64,66,-65,-63,-45,37,56,127,14,-61,69,49,49,-50,60,-59,56,60,-57,54,62,-59,-67,58,-57, 
  /* [0][2][][] */ 45,-51,-49,48,26,-54,63,-42,40,-72,-4,42,57,-71,82,-80,71,52,35,-31,24,-11,-76,30,-26,-45,-50,-49,-74,32,-41,88,-73,35,49,43,-26,36,-43,-89,46,-51,38,46,-22,16,41,-74, 72,-76,-48,80,-56,-64,-72,-67,50,-75,-66,63,75,-49,127,32,-47,60,62,-42,54,-17,41,67,-49,-67,-79,-61,32,62,-23,114,-57,64,57,57,-48,61,-68,-108,67,-67,58,63,-85,50,63,-52, 41,-40,-27,44,28,-19,-17,-34,16,-24,-52,30,33,2,65,25,-34,23,30,-33,29,1,39,42,-25,-28,-49,-23,33,34,62,66,-1,33,16,24,-22,28,-28,-57,28,-32,23,29,-60,9,32,-4, 
};
const TfArray<4, int> tensor_dimension23 = { 4, { 1,3,3,48 } };
