/*
 * Copyright (c) 2026 EdgeImpulse Inc.
 *
 * Generated by Edge Impulse and licensed under the applicable Edge Impulse
 * Terms of Service. Community and Professional Terms of Service
 * (https://edgeimpulse.com/legal/terms-of-service) or Enterprise Terms of
 * Service (https://edgeimpulse.com/legal/enterprise-terms-of-service),
 * according to your product plan subscription (the “License”).
 *
 * This software, documentation and other associated files (collectively referred
 * to as the “Software”) is a single SDK variation generated by the Edge Impulse
 * platform and requires an active paid Edge Impulse subscription to use this
 * Software for any purpose.
 *
 * You may NOT use this Software unless you have an active Edge Impulse subscription
 * that meets the eligibility requirements for the applicable License, subject to
 * your full and continued compliance with the terms and conditions of the License,
 * including without limitation any usage restrictions under the applicable License.
 *
 * If you do not have an active Edge Impulse product plan subscription, or if use
 * of this Software exceeds the usage limitations of your Edge Impulse product plan
 * subscription, you are not permitted to use this Software and must immediately
 * delete and erase all copies of this Software within your control or possession.
 * Edge Impulse reserves all rights and remedies available to enforce its rights.
 *
 * Unless required by applicable law or agreed to in writing, the Software is
 * distributed on an "AS IS" BASIS, WITHOUT WARRANTIES OR CONDITIONS OF ANY KIND,
 * either express or implied. See the License for the specific language governing
 * permissions, disclaimers and limitations under the License.
 */
// Generated on: 07.06.2026 04:25:12

#include <stdio.h>
#include <stdlib.h>
#include "edge-impulse-sdk/tensorflow/lite/c/builtin_op_data.h"
#include "edge-impulse-sdk/tensorflow/lite/c/common.h"
#include "edge-impulse-sdk/tensorflow/lite/micro/micro_mutable_op_resolver.h"
#include "edge-impulse-sdk/porting/ei_classifier_porting.h"

#if EI_CLASSIFIER_PRINT_STATE
#if defined(__cplusplus) && EI_C_LINKAGE == 1
extern "C" {
    extern void ei_printf(const char *format, ...);
}
#else
extern void ei_printf(const char *format, ...);
#endif
#endif

#define STRINGIZE(x) #x
#define STRINGIZE_VALUE_OF(x) STRINGIZE(x)

#if defined (__GNUC__)  /* GNU compiler */
#define ALIGN(X) __attribute__((aligned(X)))
#define DEFINE_SECTION(x) __attribute__((section(x)))
#elif defined (_MSC_VER)
#define ALIGN(X) __declspec(align(X))
#elif defined (__TASKING__) /* TASKING Compiler */
#define ALIGN(X) __align(X)
#define DEFINE_SECTION(x) __attribute__((section(x)))
#elif defined (__ARMCC_VERSION) /* Arm Compiler */
#define ALIGN(X) __ALIGNED(x)
#define DEFINE_SECTION(x) __attribute__((section(x)))
#elif defined (__ICCARM__) /* IAR Compiler */
#define ALIGN(x) __attribute__((aligned(x)))
#define DEFINE_SECTION(x) __attribute__((section(x)))
#elif defined (__clang__) /* LLVM/Clang Compiler */
#define ALIGN(X) __ALIGNED(x)
#define DEFINE_SECTION(x) __attribute__((section(x)))
#endif

#if defined(EI_MODEL_SECTION) && (defined(__GNUC__) || defined(__clang__))
#define MODEL_SECTION(X) __attribute__((section(STRINGIZE_VALUE_OF(X))))
#else
#define MODEL_SECTION(X)
#endif

#ifndef EI_MAX_SCRATCH_BUFFER_COUNT
#ifndef CONFIG_IDF_TARGET_ESP32S3
#define EI_MAX_SCRATCH_BUFFER_COUNT 14
#else
#define EI_MAX_SCRATCH_BUFFER_COUNT 28
#endif // CONFIG_IDF_TARGET_ESP32S3
#endif // EI_MAX_SCRATCH_BUFFER_COUNT

#ifndef EI_MAX_OVERFLOW_BUFFER_COUNT
#define EI_MAX_OVERFLOW_BUFFER_COUNT 10
#endif // EI_MAX_OVERFLOW_BUFFER_COUNT

using namespace tflite;
using namespace tflite::ops;
using namespace tflite::ops::micro;

namespace {

#if defined(EI_CLASSIFIER_ALLOCATION_STATIC_HIMAX) || defined(EI_CLASSIFIER_ALLOCATION_STATIC_HIMAX_GNU)
constexpr int kTensorArenaSize = 154928;
#else
constexpr int kTensorArenaSize = 153904;
#endif

#if defined(EI_CLASSIFIER_ALLOCATION_STATIC)
#if defined (EI_TENSOR_ARENA_LOCATION)
uint8_t tensor_arena[kTensorArenaSize] ALIGN(16) DEFINE_SECTION(STRINGIZE_VALUE_OF(EI_TENSOR_ARENA_LOCATION));
#else
uint8_t tensor_arena[kTensorArenaSize] ALIGN(16);
#endif
#elif defined(EI_CLASSIFIER_ALLOCATION_STATIC_HIMAX)
#pragma Bss(".tensor_arena")
uint8_t tensor_arena[kTensorArenaSize] ALIGN(16);
#pragma Bss()
#elif defined(EI_CLASSIFIER_ALLOCATION_STATIC_HIMAX_GNU)
uint8_t tensor_arena[kTensorArenaSize] ALIGN(16) __attribute__((section(".tensor_arena")));
#else
#define EI_CLASSIFIER_ALLOCATION_HEAP 1
uint8_t* tensor_arena = NULL;
#endif

static uint8_t* tensor_boundary;
static uint8_t* current_location;

template <int SZ, class T> struct TfArray {
  int sz; T elem[SZ];
};

enum used_operators_e {
  OP_CONV_2D, OP_DEPTHWISE_CONV_2D, OP_ADD, OP_SOFTMAX,  OP_LAST
};

struct TensorInfo_t { // subset of TfLiteTensor used for initialization from constant memory
  TfLiteAllocationType allocation_type;
  TfLiteType type;
  void* data;
  TfLiteIntArray* dims;
  size_t bytes;
  TfLiteQuantization quantization;
};

typedef struct {
  TfLiteTensor tensor;
  int16_t index;
} TfLiteTensorWithIndex;

typedef struct {
  TfLiteEvalTensor tensor;
  int16_t index;
} TfLiteEvalTensorWithIndex;

TfLiteContext ctx{};
static const int MAX_TFL_TENSOR_COUNT = 4;
static TfLiteTensorWithIndex tflTensors[MAX_TFL_TENSOR_COUNT];
static const int MAX_TFL_EVAL_COUNT = 4;
static TfLiteEvalTensorWithIndex tflEvalTensors[MAX_TFL_EVAL_COUNT];
TfLiteRegistration registrations[OP_LAST];

namespace g0 {
const TfArray<4, int> tensor_dimension0 = { 4, { 1,96,96,3 } };
const TfArray<1, float> quant0_scale = { 1, { 0.0039215688593685627, } };
const TfArray<1, int> quant0_zero = { 1, { -128 } };
const TfLiteAffineQuantization quant0 = { (TfLiteFloatArray*)&quant0_scale, (TfLiteIntArray*)&quant0_zero, 0 };
const MODEL_SECTION(EI_MODEL_SECTION) ALIGN(8) int32_t tensor_data1[2] = { 27482, -28778, };
const TfArray<1, int> tensor_dimension1 = { 1, { 2 } };
const TfArray<2, float> quant1_scale = { 2, { 0.00016382128524128348, 0.00015708366117905825, } };
const TfArray<2, int> quant1_zero = { 2, { 0,0 } };
const TfLiteAffineQuantization quant1 = { (TfLiteFloatArray*)&quant1_scale, (TfLiteIntArray*)&quant1_zero, 0 };
const MODEL_SECTION(EI_MODEL_SECTION) ALIGN(16) int8_t tensor_data2[2*1*1*32] = { 
  /* [0][0][][] */ 61,-44,-55,105,-36,-1,-37,72,127,-38,-44,-38,-24,64,-49,37,101,-96,-62,-98,92,63,72,-65,-85,-102,-48,71,-7,-75,-11,103, 
  /* [1][0][][] */ 55,77,74,-66,-99,78,-10,12,-41,-13,38,110,116,41,41,-2,-42,0,-87,-92,-80,38,33,112,89,79,-50,-5,108,-108,-127,-50, 
};
const TfArray<4, int> tensor_dimension2 = { 4, { 2,1,1,32 } };
const TfArray<2, float> quant2_scale = { 2, { 0.0036144687328487635, 0.0034658133517950773, } };
const TfLiteAffineQuantization quant2 = { (TfLiteFloatArray*)&quant2_scale, (TfLiteIntArray*)&g0::quant1_zero, 0 };
const MODEL_SECTION(EI_MODEL_SECTION) ALIGN(16) int32_t tensor_data3[32] = { -36, 107, 105, -82, 732, 83, -282, 58, -72, -377, 109, 52, 100, -27, 80, -303, -155, 150, 478, -350, -162, 101, 115, 17, 172, 179, -152, -320, 154, -163, 1012, 1349, };
const TfArray<1, int> tensor_dimension3 = { 1, { 32 } };
const TfArray<32, float> quant3_scale = { 32, { 4.412185080582276e-05, 4.2551349906716496e-05, 4.1529045120114461e-05, 4.1873252484947443e-05, 4.3551954149734229e-05, 4.1624462028266862e-05, 4.1869650885928422e-05, 4.1129576857201755e-05, 4.1376846638740972e-05, 4.3727046431740746e-05, 4.3247116991551593e-05, 4.187822196399793e-05, 4.1071889427257702e-05, 4.1249484638683498e-05, 4.7551184252370149e-05, 4.199559407425113e-05, 4.3120333430124447e-05, 5.8561410696711391e-05, 4.4485870603239164e-05, 4.0180686482926831e-05, 4.2130646761506796e-05, 4.1293256799690425e-05, 4.2776009649969637e-05, 4.1328828956466168e-05, 4.945651744492352e-05, 4.2287494579795748e-05, 4.1587831219658256e-05, 4.1048035200219601e-05, 3.9351281884592026e-05, 4.0030859963735566e-05, 4.8052163037937135e-05, 5.1557406550273299e-05, } };
const TfArray<32, int> quant3_zero = { 32, { 0,0,0,0,0,0,0,0,0,0,0,0,0,0,0,0,0,0,0,0,0,0,0,0,0,0,0,0,0,0,0,0 } };
const TfLiteAffineQuantization quant3 = { (TfLiteFloatArray*)&quant3_scale, (TfLiteIntArray*)&quant3_zero, 0 };
const MODEL_SECTION(EI_MODEL_SECTION) ALIGN(16) int8_t tensor_data4[32*1*1*96] = { 
  /* [0][0][][] */ -54,-49,101,-2,95,-13,-90,-103,52,-92,-111,1,57,7,-41,51,-53,-35,-57,-55,-73,-103,3,104,-111,6,70,-44,108,0,-25,-98,80,-64,-94,64,-105,-85,-90,19,68,-92,-101,99,39,-110,97,-21,15,-50,-52,94,-70,-53,-95,96,28,63,126,-107,-79,83,-48,39,-7,12,67,75,54,89,83,-123,97,-108,43,83,-101,13,-62,23,49,19,87,-15,-61,-48,-85,97,25,111,-8,-127,12,53,28,13, 
  /* [1][0][][] */ -58,40,-72,0,-31,79,39,14,84,-99,-103,114,81,-23,23,71,114,-40,45,127,-44,-3,40,30,38,23,-45,111,16,17,100,-65,59,110,-5,36,57,63,-3,-65,-61,8,-18,-93,-38,41,-28,-52,-25,-72,110,65,18,90,-84,-47,32,106,71,88,-55,120,-63,-89,-49,40,79,43,116,35,24,13,-110,92,-46,51,93,-43,-40,79,-79,91,-48,-116,31,115,-64,-60,85,85,103,22,91,97,34,-1, 
  /* [2][0][][] */ 47,44,-63,99,-13,-70,93,103,-100,94,-34,127,109,-12,83,-111,-56,-27,44,64,-96,-14,118,24,-24,88,104,12,-65,96,81,98,-74,-17,-91,-103,-85,99,121,-28,-119,-78,19,-1,-91,125,-24,-77,101,55,88,-85,-41,71,19,22,-68,104,-56,9,-14,64,-33,63,105,52,52,91,-87,76,15,-72,39,-79,36,32,-46,-23,7,15,41,-94,-6,-41,3,-105,-15,-26,98,120,-16,5,-40,-81,-42,-66, 
  /* [3][0][][] */ 127,-1,40,-18,-31,112,-116,43,50,24,71,3,93,98,83,4,106,100,-61,15,116,-90,-67,-118,-17,-118,-83,108,44,-104,90,14,-61,-34,54,-15,-96,-8,43,51,-21,-95,-98,1,86,29,-36,-85,68,-90,99,22,95,34,95,-100,-122,-124,-109,-63,-102,38,-21,76,67,-36,-63,-32,-30,-72,1,103,18,-60,65,-52,29,101,98,-61,-95,-121,35,94,29,76,-47,-125,-88,44,-4,-85,95,-100,-96,40, 
  /* [4][0][][] */ 56,109,23,63,-17,12,48,24,72,123,4,62,6,-25,8,-48,-2,14,-70,22,114,-71,106,43,4,1,83,-37,-37,9,-41,-45,87,122,35,-96,-19,3,-115,59,-38,-45,-63,-74,49,114,42,71,41,-74,11,-68,-82,48,-48,24,43,-86,55,30,15,-35,-35,-26,-52,62,21,-28,20,-102,-78,-71,-37,38,127,75,56,1,8,-51,18,-27,-88,-10,18,85,100,3,-108,-62,40,63,34,99,-95,-15, 
  /* [5][0][][] */ 99,-89,77,87,48,-121,28,61,110,-115,0,-69,36,105,34,41,65,63,-69,102,35,54,20,-26,-105,-63,-21,-94,53,42,15,-102,-42,5,-68,24,-116,-36,57,23,-90,-54,45,103,-40,27,37,-52,-113,118,19,37,46,21,26,-22,114,55,-68,-38,36,-72,42,-83,-23,107,-27,30,85,6,111,-71,-46,78,-27,-73,18,-48,13,90,111,47,32,112,-83,80,-2,44,74,-99,127,91,-14,30,80,-83, 
  /* [6][0][][] */ 14,-49,113,75,-76,-66,-5,64,-16,-87,3,-88,87,54,116,-125,39,-1,-3,104,-82,-125,108,57,-65,-87,-10,-61,-31,-122,46,-81,-96,-127,-52,-111,-12,37,-115,78,85,56,22,-19,-114,105,-94,-49,-89,15,-28,-72,56,-60,95,-27,4,-12,-69,111,-101,2,64,-73,-58,64,99,-55,75,-7,-112,-7,53,-62,-95,-45,-88,-107,-61,-30,31,-31,41,-30,-76,-92,-44,-101,83,92,95,16,-57,-72,73,-31, 
  /* [7][0][][] */ 123,75,-39,-47,-74,121,-20,-1,119,5,-100,8,52,-92,48,80,57,18,-1,121,55,38,-4,92,-67,109,41,59,-82,116,-21,38,27,28,73,108,-108,93,-11,-27,101,-81,90,75,54,-1,110,-117,56,-61,-127,-68,-24,93,20,28,126,-92,13,-57,7,-10,89,-121,-68,-56,72,27,-111,22,72,87,93,28,66,63,-61,59,-103,47,97,-37,-21,-76,92,37,-113,101,85,9,90,66,-58,-41,-1,-67, 
  /* [8][0][][] */ 13,28,-46,-92,52,30,-78,-25,7,34,45,91,-13,-49,-86,-78,-75,97,-76,9,28,-27,82,113,-123,91,50,75,-76,9,-94,117,100,-37,47,-11,117,1,-28,75,81,105,-119,-127,-9,-34,-27,111,23,-111,-63,-8,-72,-13,-31,-120,46,107,-108,105,111,40,40,122,-41,-52,-23,107,-96,48,29,-5,75,71,5,20,-57,108,85,72,35,81,-121,-92,25,46,73,-49,34,-43,-94,101,-88,-106,-55,61, 
  /* [9][0][][] */ 20,-1,104,36,96,-110,-56,-119,32,45,-17,45,-35,-86,-107,-34,-1,-8,-105,-54,-4,89,-115,-111,119,-17,-20,17,-17,-53,-93,106,63,-6,44,-26,-83,10,-36,-51,40,-75,46,-99,73,13,-109,48,44,-11,-88,-48,65,-75,-64,93,76,-66,6,-12,-97,97,86,-71,-86,-3,95,39,-25,92,98,-98,-1,80,-107,-102,-84,-126,-47,94,26,21,92,22,-50,-95,27,-23,90,28,-39,127,101,-5,74,-41, 
  /* [10][0][][] */ -62,88,92,-64,-7,101,108,33,41,36,26,-59,116,86,-35,16,-31,81,-89,-51,-14,31,60,-67,34,59,-120,-109,-42,91,-94,-79,82,103,122,81,-37,8,-21,34,-33,117,-106,-33,-99,-54,-1,-56,-4,18,32,16,69,26,-67,-29,-97,-10,39,-41,1,83,114,33,127,-71,-95,-22,32,-14,-88,-64,90,65,-79,111,-6,67,68,28,79,5,61,105,-98,65,105,-19,41,12,5,-67,-46,-45,-39,-61, 
  /* [11][0][][] */ 98,23,-13,104,103,12,52,37,116,95,-81,125,21,-81,26,-69,-54,-108,76,45,44,77,28,-114,-117,-87,-25,76,90,19,27,-42,-96,-86,32,60,-60,70,-15,-71,-28,109,-68,12,-46,-51,-94,-91,75,127,123,30,-90,-109,17,36,-74,-53,-14,-92,-68,95,69,-15,-33,96,-59,20,80,72,-81,-69,43,106,-106,56,-58,37,-47,96,-110,-17,-59,-39,48,-95,22,-18,-87,-10,21,-127,-76,-45,-70,-34, 
  /* [12][0][][] */ 14,77,-58,3,100,5,-35,41,-78,67,-12,22,-31,17,50,-78,-100,-33,-42,-76,32,-8,21,105,-67,-46,102,-101,103,26,-38,123,-94,-69,-43,24,1,-76,-8,45,123,43,-111,-37,-24,-83,-38,125,-48,-106,-86,116,45,6,-89,93,-17,-56,65,74,65,122,0,47,127,40,-46,124,69,113,49,78,92,119,-13,-3,-28,40,-119,-93,-58,113,54,18,-35,31,61,127,-93,-109,105,45,112,-11,36,83, 
  /* [13][0][][] */ 116,-58,106,101,91,99,82,70,76,-108,12,-28,103,76,67,-49,-123,-76,-69,34,72,-29,123,-49,-69,45,1,20,-90,-84,84,39,39,109,-20,45,-87,-31,33,72,-66,80,-52,15,-46,32,-1,-31,33,112,-45,-109,-100,34,102,-83,-49,32,-13,-77,-27,120,-79,5,-47,-63,-97,92,-35,-9,104,-1,-93,40,-82,-43,-103,70,85,-62,54,-100,101,23,-86,-111,99,127,-10,-54,-74,55,119,-50,71,-3, 
  /* [14][0][][] */ -58,-86,82,67,49,-26,-12,-102,-68,-35,64,71,-18,-76,-91,-73,-45,-51,16,5,-38,33,2,58,-105,-86,-30,30,-107,-127,-75,18,82,-17,-50,2,89,92,30,-101,-23,-111,36,82,41,-120,47,-92,99,20,69,25,92,-24,-37,-9,-39,11,22,92,-34,-77,-46,54,-102,-10,73,-99,-96,-79,-75,72,8,56,28,-63,54,-94,52,36,38,-23,-108,-54,-107,-96,-97,83,102,10,84,-63,52,80,-35,42, 
  /* [15][0][][] */ 12,-31,-31,68,85,-91,58,-109,55,-7,-78,6,103,-3,-96,-119,87,7,-102,27,44,15,70,106,77,66,39,91,18,51,65,-108,8,1,-70,-9,-73,110,95,-74,12,111,-55,-30,24,-85,-50,-87,-8,-86,-5,25,-107,-111,-51,-11,65,48,-48,107,-51,-69,-4,110,-45,94,-78,-4,-68,0,58,-79,13,-16,56,-114,-8,52,103,75,-87,55,-115,-69,-127,-39,-99,32,82,66,-123,-45,51,109,-114,112, 
  /* [16][0][][] */ -68,-5,102,-64,31,116,-56,34,44,43,-110,60,-32,-53,-50,-64,103,78,61,57,105,76,-42,50,-36,49,-64,59,-107,2,41,12,-103,73,52,51,-39,52,-62,-68,20,-48,67,86,67,98,99,-16,-55,-127,9,104,-48,110,72,40,23,83,60,9,110,103,31,72,44,9,-39,92,34,91,-37,-14,26,95,60,83,-20,95,-111,-20,11,-87,52,10,9,104,96,3,72,10,-24,113,63,-35,-89,22, 
  /* [17][0][][] */ -5,-52,17,82,0,-117,-44,-33,59,-28,65,76,118,72,-94,44,38,28,105,106,-36,-1,25,-33,-6,67,-66,46,105,-12,-33,41,-60,-15,30,43,-19,50,-21,-41,-84,-11,24,11,-39,17,56,-61,30,110,20,36,11,80,33,-21,-106,89,-62,-73,51,-36,27,32,-28,-31,37,-89,-56,38,101,52,5,-127,-59,65,105,-25,36,-15,10,14,-25,-73,-80,14,84,-5,44,55,-42,-88,22,79,31,33, 
  /* [18][0][][] */ -55,101,115,-45,1,-42,-84,12,5,83,-96,-43,-33,48,71,-45,29,-8,51,-40,109,-30,34,-58,28,-96,0,117,25,64,13,66,66,-15,-47,-98,-24,32,-31,76,-38,7,-45,0,-111,17,17,-3,31,-39,92,66,-102,9,-2,89,27,38,-26,-98,97,109,65,77,-3,-116,-16,96,108,-73,-48,114,-96,-35,-65,-88,66,68,9,-54,-56,2,-9,-64,103,-10,73,58,-94,-72,-65,127,97,-30,94,-12, 
  /* [19][0][][] */ 16,28,75,36,62,-91,98,92,95,-68,27,-17,-104,32,-62,60,74,-113,110,64,-26,81,-63,10,78,-86,27,-77,-100,-127,-71,49,83,-91,32,-4,5,-76,-65,-110,45,-126,-91,7,-90,29,79,-102,-32,35,-40,45,-42,12,7,-5,21,102,-2,-32,57,-63,104,65,-78,-6,-32,-5,-11,53,75,-56,-69,-103,-61,-90,-28,-124,11,109,59,-123,-34,81,-95,-10,5,-7,92,29,-10,71,-37,118,72,-53, 
  /* [20][0][][] */ -9,67,71,94,-90,95,19,56,14,11,-88,-1,-17,86,43,-76,-54,-37,-71,-33,21,-46,-79,-73,78,-77,-101,46,20,7,-39,117,106,44,-17,53,40,-33,-24,-110,-86,-35,-95,-106,-22,-67,-71,106,66,-127,-99,37,45,110,59,-2,92,71,103,88,110,-55,-72,-27,-34,-70,-52,14,-91,-85,-72,77,-67,-80,29,18,106,77,110,106,86,3,82,-25,60,119,-18,71,17,95,23,70,19,24,-9,-4, 
  /* [21][0][][] */ 97,82,74,-106,105,-81,76,20,-3,-65,-74,44,11,41,-55,-91,-105,-31,33,-7,112,-50,75,-85,62,-86,-37,77,18,12,-9,-21,5,23,-92,-113,118,101,-115,-34,-6,7,32,-12,-103,-84,-82,97,-25,-64,-16,94,41,75,-100,28,-51,57,-45,127,58,-79,17,-21,91,35,-37,-71,-103,0,65,80,37,-21,77,71,-110,-29,66,111,15,106,37,-75,27,-102,70,-83,-107,84,117,-119,-44,-66,73,-29, 
  /* [22][0][][] */ 33,-49,-66,-91,89,-60,109,65,-89,94,-73,-100,90,-110,-113,-83,40,86,-127,-73,88,-72,35,34,99,-3,-117,109,-64,-78,-62,-108,39,64,21,20,7,-15,-52,-116,3,-9,8,100,62,-114,93,-21,-71,-94,-5,-17,-62,-91,-55,38,-12,-30,-23,-28,110,-76,-77,-114,-65,21,-112,-48,111,112,-21,-2,-66,17,66,-85,48,-49,67,105,108,-96,-83,-114,83,86,103,-32,-59,34,-79,41,19,21,-34,107, 
  /* [23][0][][] */ 39,-92,2,57,108,-127,3,-108,57,-82,88,82,32,-111,13,-39,93,-37,-104,111,97,-85,108,-36,-17,-12,81,23,78,61,68,-40,-44,45,23,37,103,-12,-107,3,-112,-4,9,-113,-85,-95,114,27,77,-100,-105,-49,89,-60,-62,92,-86,-19,112,49,-117,-95,-54,-25,45,41,-122,-117,74,-15,120,-77,-4,-54,-38,-99,55,-22,97,119,-56,-52,25,-111,96,-3,119,-18,-92,45,118,-11,112,-51,-28,82, 
  /* [24][0][][] */ -78,-34,-84,-50,-84,-127,-59,-69,67,109,74,53,116,59,-32,-100,-67,38,34,-41,91,-66,-44,-29,45,-21,67,58,99,53,8,-55,4,6,30,35,-40,-73,66,-19,-62,-80,95,11,22,-26,40,68,-71,-26,-19,10,67,47,63,-56,-1,71,33,2,85,1,21,76,-102,90,-37,-81,-106,52,-43,-17,-30,33,85,96,59,-62,-87,-57,-65,-79,-48,-94,7,51,-5,-83,30,-93,17,-68,-12,28,-88,29, 
  /* [25][0][][] */ -110,-51,-76,-8,99,-84,-102,60,52,-107,-38,34,92,3,-110,-18,-69,64,43,-93,74,90,-8,-55,17,-43,-102,46,87,-72,41,122,94,-113,50,82,106,-62,-12,-20,-84,101,-100,8,102,47,65,41,-107,115,-72,11,52,-24,-60,19,-20,57,-99,80,127,51,54,40,6,83,-15,-11,-78,5,-21,-112,38,-109,75,28,84,78,20,25,56,56,-41,89,-72,-59,-100,-85,-16,-34,117,23,-111,-8,-11,-77, 
  /* [26][0][][] */ 56,-123,-22,-13,-104,-1,-11,-16,-109,-127,110,87,-88,-50,13,-17,116,32,-87,-75,13,74,102,14,52,64,17,47,11,-1,-93,-1,-29,-64,-104,-109,-70,88,-58,114,-102,107,58,31,-70,75,-42,105,-21,22,6,100,7,-51,0,-109,98,64,51,24,2,-98,64,-14,112,-22,-58,60,-95,80,87,100,81,-95,-91,7,42,-112,-100,10,-29,76,84,-76,82,3,-48,12,-86,116,6,20,-60,115,50,91, 
  /* [27][0][][] */ 10,4,-69,-112,-123,-74,-78,-20,40,99,34,-113,-31,54,81,-36,63,-22,64,-81,-103,6,-35,-29,-111,42,-116,-7,60,24,-39,-12,60,67,-102,-94,-98,-72,-119,87,-103,14,23,13,99,20,67,102,90,65,54,-83,-100,-94,-8,-39,104,-31,-106,-87,-66,-68,-39,54,36,-54,-122,104,44,5,-127,3,58,-57,-14,-96,43,-74,86,103,83,-34,114,-63,-82,-90,-40,27,-56,-9,-43,-52,52,16,85,53, 
  /* [28][0][][] */ 78,-1,102,32,-122,-111,-106,-87,-59,-110,64,97,-73,-94,8,111,112,121,-49,96,-31,28,-113,-78,-122,93,-94,-48,-63,-89,-5,-40,-127,19,86,84,32,-117,-40,28,113,46,-100,62,-118,-13,15,56,21,-40,-108,-31,-75,24,70,51,66,-13,103,60,-24,-35,-99,8,69,81,-21,71,-82,32,-110,-47,81,34,2,-102,-119,-63,-93,38,-83,-99,103,-44,68,-121,73,-88,-113,-78,-25,-87,-44,56,-110,-74, 
  /* [29][0][][] */ 61,54,61,-51,-94,15,-125,7,108,-18,-95,-103,108,-112,-49,-51,-109,109,24,-68,-82,-36,57,5,-37,5,-42,-31,-113,-14,112,-3,58,1,-85,-62,-14,110,-13,104,51,115,-50,85,4,111,-58,-27,21,-15,63,-104,73,-107,122,50,-103,57,-59,113,-127,100,-102,-48,-69,-70,56,100,98,-94,33,-76,116,85,62,25,117,-68,-32,37,-6,-91,-12,-82,67,127,44,81,-42,101,72,90,-113,16,-6,60, 
  /* [30][0][][] */ 59,-41,-31,47,-72,68,-33,15,116,8,26,-29,-100,30,84,23,19,49,88,-70,47,-67,-80,41,-75,36,-39,121,-1,-127,-57,35,-45,-36,-69,-33,32,16,14,55,109,-50,8,116,123,-19,114,81,-34,63,13,-44,95,-33,22,107,-51,-56,-73,-26,-86,10,-23,19,-90,-60,-62,111,-5,114,33,-19,-86,121,78,-56,-48,-43,-44,-41,53,33,-84,1,-69,71,-89,112,-21,-70,77,72,-20,26,25,-43, 
  /* [31][0][][] */ 106,-53,69,106,48,103,-17,-73,-9,4,-36,-70,63,-74,-4,122,-18,-37,26,35,70,62,8,123,70,-77,68,59,-62,-86,75,114,52,45,-47,1,112,10,-75,-59,85,-30,-8,62,42,-18,0,45,97,3,101,-5,-99,-36,-29,33,-55,69,5,127,-11,11,115,-13,41,111,-4,-37,45,-95,-78,30,-46,-1,45,38,-57,-2,72,93,-36,-12,58,82,79,127,-60,23,28,-11,-74,-25,23,99,0,8, 
};
const TfArray<4, int> tensor_dimension4 = { 4, { 32,1,1,96 } };
const TfArray<32, float> quant4_scale = { 32, { 0.0018751786556094885, 0.0018084322800859809, 0.0017649843357503414, 0.0017796132015064359, 0.0018509579822421074, 0.0017690395470708609, 0.0017794601153582335, 0.0017480070237070322, 0.0017585159512236714, 0.0018583993660286069, 0.0018380024703219533, 0.0017798243789002299, 0.001745555317029357, 0.0017531031044200063, 0.0020209252834320068, 0.0017848127754405141, 0.0018326140707358718, 0.0024888599291443825, 0.0018906494369730353, 0.0017076791264116764, 0.0017905524000525475, 0.0017549633048474789, 0.0018179803155362606, 0.0017564751906320453, 0.0021019019186496735, 0.0017972184577956796, 0.0017674827249720693, 0.0017445414559915662, 0.0016724293818697333, 0.0017013115575537086, 0.0020422169473022223, 0.0021911896765232086, } };
const TfLiteAffineQuantization quant4 = { (TfLiteFloatArray*)&quant4_scale, (TfLiteIntArray*)&g0::quant3_zero, 0 };
const MODEL_SECTION(EI_MODEL_SECTION) ALIGN(16) int32_t tensor_data5[96] = { -1881, 3916, 11207, 1989, -2580, -3823, 18666, 2154, 2200, -1839, 10745, -243, -6925, 2264, 11507, 6528, 11000, 5540, -4074, -4384, 4616, 27772, 17498, 15681, 969, 752, 4666, 3560, 1843, -4413, 6198, -2128, -266, 4297, 12, 863, 8897, 4503, -1872, 5186, 7403, 5042, 5410, 10097, 3866, 3880, 1759, 6126, 4935, -4695, -4983, 490, -250, -1160, 1960, -19, 173, -1079, -3254, 11173, -851, 1326, -1129, -2057, -3719, 7232, 20445, 1910, -2080, 792, 1105, 2112, 1330, -936, 483, 9742, -490, 14351, 15645, -896, 7481, 1674, -555, 1136, 11702, 7679, 4205, 1470, 4741, 3950, -260, -6726, 761, -1679, -1679, -2576, };
const TfArray<1, int> tensor_dimension5 = { 1, { 96 } };
const TfArray<96, float> quant5_scale = { 96, { 0.00033012180938385427, 0.00039913793443702161, 0.00021289056167006493, 0.00044111110037192702, 0.0004101836821064353, 0.00038572814082726836, 0.00017816443869378418, 0.00032489217119291425, 0.00026769519899971783, 0.00035578079405240715, 0.00018335890490561724, 0.0002908531459979713, 0.00036545246257446706, 0.0012491263914853334, 0.00026903624529950321, 0.0001765798224369064, 0.00016779177531134337, 0.00026084980345331132, 0.00048311083810403943, 0.00038779480382800102, 0.00013539665087591857, 9.6831769042182714e-05, 0.00017556799866724759, 0.0001071211154339835, 0.0001998763473238796, 0.00062743964372202754, 0.00064029201166704297, 0.00030433305073529482, 0.00028469043900258839, 0.00044401822378858924, 0.00023706322826910764, 0.0003595388843677938, 0.00019194374908693135, 0.00027120663435198367, 0.00034568380215205252, 0.00028313766233623028, 0.00021365511929616332, 0.00023757439339533448, 0.00032949217711575329, 0.00034235970815643668, 0.00017330949776805937, 0.00051238428568467498, 0.00027741541271097958, 0.00022912824351806194, 0.00050090299919247627, 0.00025930386618711054, 0.00028546524117700756, 0.00035394841688685119, 0.00027287786360830069, 0.00027940241852775216, 0.00031149073038250208, 0.00018958916189149022, 0.00064001389546319842, 0.00025842178729362786, 0.00039868455496616662, 0.00045949453487992287, 0.00054458965314552188, 0.00025964246015064418, 0.00047332144458778203, 0.00016501937352586538, 0.00088977778796106577, 0.00049085845239460468, 0.00024706617114134133, 0.00038476911140605807, 0.00049881992163136601, 0.0002659260353539139, 0.0001060517315636389, 0.00020368455443531275, 0.00055316369980573654, 0.00041885656537488103, 0.0003589361731428653, 0.00024651133571751416, 0.0010090807918459177, 0.00044748029904440045, 0.00035458782804198563, 0.00022209467715583742, 0.00028403193573467433, 0.00013031915295869112, 0.00011512429773574695, 0.00024317568750120699, 0.00019409177184570581, 0.00020094666979275644, 0.00021396703959908336, 0.00022509793052449822, 0.00015492552483920008, 0.0003118072054348886, 0.00055462686577811837, 0.00018782394181471318, 0.00014278656453825533, 0.00051690154941752553, 0.00033859870745800436, 0.00029419769998639822, 0.00029383107903413475, 0.00061941088642925024, 0.00036994452239014208, 0.00015924719627946615, } };
const TfArray<96, int> quant5_zero = { 96, { 0,0,0,0,0,0,0,0,0,0,0,0,0,0,0,0,0,0,0,0,0,0,0,0,0,0,0,0,0,0,0,0,0,0,0,0,0,0,0,0,0,0,0,0,0,0,0,0,0,0,0,0,0,0,0,0,0,0,0,0,0,0,0,0,0,0,0,0,0,0,0,0,0,0,0,0,0,0,0,0,0,0,0,0,0,0,0,0,0,0,0,0,0,0,0,0 } };
const TfLiteAffineQuantization quant5 = { (TfLiteFloatArray*)&quant5_scale, (TfLiteIntArray*)&quant5_zero, 0 };
const MODEL_SECTION(EI_MODEL_SECTION) ALIGN(16) int8_t tensor_data6[96*1*1*16] = { 
  /* [0][0][][] */ -19,104,-3,-127,-48,-38,-25,-68,-8,28,8,81,14,-70,-13,41, 
  /* [1][0][][] */ -55,29,-78,-11,-38,-29,24,-101,63,54,-63,30,-1,-3,56,-127, 
  /* [2][0][][] */ -17,21,-31,30,31,38,-77,-77,127,-46,5,24,-20,90,-86,43, 
  /* [3][0][][] */ 57,-75,9,-109,7,-31,-1,5,127,6,70,33,-5,44,22,118, 
  /* [4][0][][] */ -95,58,12,42,6,-20,2,47,-7,2,27,-35,-127,-27,-11,26, 
  /* [5][0][][] */ 12,64,119,0,28,76,-79,70,-54,66,-31,-25,27,-37,-127,31, 
  /* [6][0][][] */ 46,-57,116,-127,42,-5,-34,105,-64,-101,51,-44,8,83,-16,69, 
  /* [7][0][][] */ 50,123,-36,-66,84,3,7,-60,127,91,-21,21,19,-35,72,35, 
  /* [8][0][][] */ 12,-83,12,-87,31,-53,15,-78,32,57,70,-7,12,127,76,57, 
  /* [9][0][][] */ 17,-32,-6,127,38,-6,38,-67,-68,121,33,-15,-9,-71,-10,0, 
  /* [10][0][][] */ 15,20,-40,-127,23,-11,4,49,35,-40,22,-41,-21,-40,1,16, 
  /* [11][0][][] */ 9,13,18,-14,84,-37,94,-55,-80,41,-7,23,1,127,-66,-40, 
  /* [12][0][][] */ 69,-25,-97,-10,45,-64,45,32,28,57,-56,-57,-35,127,7,9, 
  /* [13][0][][] */ -13,8,-26,13,4,-127,0,17,9,-11,4,-3,10,-16,10,7, 
  /* [14][0][][] */ 38,-30,117,-37,81,2,-127,-91,-5,-51,32,9,11,-78,-20,-46, 
  /* [15][0][][] */ -106,48,-19,-52,-32,9,127,60,-56,47,101,-21,13,79,65,1, 
  /* [16][0][][] */ 5,67,127,107,-8,24,73,61,-100,3,-59,-8,14,4,-4,-75, 
  /* [17][0][][] */ -43,-105,-12,23,-74,-20,-63,10,-127,-32,18,-40,-6,43,58,-31, 
  /* [18][0][][] */ 6,47,7,62,43,9,14,-11,64,37,-29,-23,8,127,51,26, 
  /* [19][0][][] */ 11,-26,35,25,117,12,-78,-50,-94,-80,-39,-127,-41,-40,5,-49, 
  /* [20][0][][] */ 113,-40,-65,-26,16,-123,23,35,-55,48,-127,-31,42,7,9,-10, 
  /* [21][0][][] */ 84,-12,65,-19,-23,-6,-18,83,-35,-109,65,39,-11,127,39,77, 
  /* [22][0][][] */ -8,35,-30,127,-39,-3,108,83,9,35,-13,31,0,9,39,-19, 
  /* [23][0][][] */ 41,21,117,-120,27,7,-49,46,-5,11,29,6,3,-35,-127,66, 
  /* [24][0][][] */ -127,38,12,-24,2,112,23,-25,-5,19,100,-4,-84,24,61,-22, 
  /* [25][0][][] */ 25,26,17,15,13,13,58,-50,-5,-127,-9,-14,-10,-25,8,24, 
  /* [26][0][][] */ -33,-8,-4,11,-50,-11,-34,-30,-103,-33,0,-39,12,127,-34,45, 
  /* [27][0][][] */ -8,36,10,65,40,-26,-22,-36,54,5,-24,3,5,127,-13,18, 
  /* [28][0][][] */ 20,63,52,66,127,-14,39,43,-85,-17,-52,-42,22,90,53,-44, 
  /* [29][0][][] */ 8,-8,8,15,29,-5,14,42,-11,-9,-12,-127,1,-4,-11,6, 
  /* [30][0][][] */ -16,82,-54,82,-43,-21,47,-127,-39,61,-21,-8,60,39,82,79, 
  /* [31][0][][] */ -38,-26,-6,-67,-3,1,-55,-109,19,77,-8,-127,-36,-41,-2,29, 
  /* [32][0][][] */ -127,-86,-17,51,47,38,-18,4,-5,-48,-103,54,73,10,67,82, 
  /* [33][0][][] */ -13,-48,-36,-5,-86,1,-85,7,81,25,13,-56,36,-127,123,40, 
  /* [34][0][][] */ 51,-7,73,33,51,21,-55,84,-97,-55,69,27,12,-2,-26,127, 
  /* [35][0][][] */ -33,54,-64,22,-2,-17,30,-111,86,78,-84,-3,5,0,65,-127, 
  /* [36][0][][] */ -56,36,37,127,51,43,98,30,-21,20,-11,-14,-3,31,-83,-32, 
  /* [37][0][][] */ 3,-17,16,-83,-9,-1,-46,-60,-88,-23,4,0,-2,-127,60,-31, 
  /* [38][0][][] */ 57,92,-17,-57,127,-9,41,-35,118,84,-19,-10,9,-34,57,7, 
  /* [39][0][][] */ -26,58,-3,-127,-10,8,-45,34,45,-62,-16,-12,11,67,39,32, 
  /* [40][0][][] */ -13,-19,16,-81,-24,-5,-15,-42,-127,-6,-4,-13,-8,-93,71,-49, 
  /* [41][0][][] */ -3,-20,-40,-22,6,-42,18,-11,-26,11,-42,-7,-127,16,27,35, 
  /* [42][0][][] */ 127,95,-50,-31,-99,-56,-31,-66,-3,34,86,-48,-60,57,107,-114, 
  /* [43][0][][] */ -25,124,-73,-10,50,-2,90,-51,33,85,-41,12,16,-127,-88,-38, 
  /* [44][0][][] */ -35,-9,20,-51,65,11,-106,-127,-30,-11,28,7,8,-35,76,-52, 
  /* [45][0][][] */ -18,34,-127,-47,7,-70,14,-75,-6,21,9,-60,19,-12,49,-6, 
  /* [46][0][][] */ 5,3,-18,-83,-7,14,21,-27,-117,-24,11,10,-13,-127,67,-33, 
  /* [47][0][][] */ 13,49,27,-17,127,-9,-30,12,-58,38,1,26,4,4,108,-20, 
  /* [48][0][][] */ -127,-74,-20,37,61,19,8,-20,-1,-15,-102,48,54,7,68,52, 
  /* [49][0][][] */ 35,4,90,77,123,-15,54,22,-120,-46,-42,-78,6,127,31,-64, 
  /* [50][0][][] */ 41,-10,-83,2,12,-127,-23,-9,-10,-27,5,-35,24,-13,4,-6, 
  /* [51][0][][] */ 2,39,47,15,29,4,5,29,-125,54,11,-127,17,-119,-23,87, 
  /* [52][0][][] */ -5,69,0,52,57,2,30,40,68,98,-25,-70,41,127,75,22, 
  /* [53][0][][] */ -3,-46,-10,-16,-81,-5,-74,3,52,24,14,-63,30,-127,117,16, 
  /* [54][0][][] */ 52,-9,-37,2,122,85,-127,-50,-79,-10,-27,-71,1,-38,-23,-28, 
  /* [55][0][][] */ 43,-2,0,8,39,-32,-61,-127,-23,-58,-54,13,-15,-25,12,-15, 
  /* [56][0][][] */ -22,16,23,-19,-3,-22,-94,62,-13,127,-3,-9,24,7,-7,9, 
  /* [57][0][][] */ -1,14,-52,-25,-58,-55,121,84,-31,25,-15,2,23,31,127,-6, 
  /* [58][0][][] */ 44,20,-127,50,96,99,-25,44,-97,-40,-6,13,-37,22,1,-30, 
  /* [59][0][][] */ -111,73,117,19,-78,-59,122,127,17,2,36,-13,14,14,74,9, 
  /* [60][0][][] */ 5,-10,-59,2,12,-127,-29,-8,-19,-15,-7,-19,28,-13,-4,11, 
  /* [61][0][][] */ 27,-8,22,127,78,15,30,6,-88,1,12,36,-13,21,35,-57, 
  /* [62][0][][] */ -48,127,19,-43,-27,-11,-68,57,-32,-74,-87,-57,-9,-91,-60,-43, 
  /* [63][0][][] */ -40,30,-28,127,-78,15,-71,-37,-63,-29,-23,-36,22,64,33,29, 
  /* [64][0][][] */ 15,0,14,40,12,7,-11,74,34,-6,-12,-55,-8,-127,61,2, 
  /* [65][0][][] */ -8,-33,13,-127,47,-38,73,-30,-2,55,6,-126,-11,2,15,-60, 
  /* [66][0][][] */ 22,-15,67,-30,-15,6,-17,102,-6,-75,54,47,-5,127,14,88, 
  /* [67][0][][] */ 1,58,-6,-127,-15,-1,-62,33,81,-90,-25,-2,27,72,69,37, 
  /* [68][0][][] */ -32,34,127,20,15,1,-1,5,-32,-17,-14,-42,17,-22,91,-32, 
  /* [69][0][][] */ 127,72,-11,0,-71,-33,-17,-22,13,14,79,-63,-57,49,66,-90, 
  /* [70][0][][] */ 42,6,-38,-13,-13,24,54,127,-22,81,-28,-1,13,54,-21,18, 
  /* [71][0][][] */ -1,-1,-7,9,-3,-75,-3,18,-42,17,-77,11,-127,-5,43,55, 
  /* [72][0][][] */ 7,26,-127,9,15,17,24,95,-44,-31,14,-3,18,16,-4,9, 
  /* [73][0][][] */ -38,17,32,5,37,-38,-64,-127,24,-71,32,-18,5,-42,41,-24, 
  /* [74][0][][] */ -1,29,42,127,17,-1,-86,79,-72,19,-49,51,16,-116,32,-85, 
  /* [75][0][][] */ -13,28,-61,4,10,-8,15,-27,104,33,-18,9,8,127,-41,1, 
  /* [76][0][][] */ -4,-12,0,20,4,-11,-14,56,12,-31,-19,-127,-7,-4,5,15, 
  /* [77][0][][] */ -26,33,-3,127,-49,33,67,98,12,41,-13,35,-3,-20,-29,-8, 
  /* [78][0][][] */ -20,-16,57,-104,54,-18,-47,51,33,-45,16,-41,35,127,6,65, 
  /* [79][0][][] */ -25,-91,-73,-55,-73,6,18,-82,127,18,25,53,20,36,32,-51, 
  /* [80][0][][] */ -65,5,127,-99,10,-8,-6,-102,-74,42,-22,-92,24,95,70,-15, 
  /* [81][0][][] */ -37,48,-119,30,75,-127,-9,58,0,-41,61,-8,28,-1,14,-10, 
  /* [82][0][][] */ 127,-12,2,14,11,-103,-30,22,-17,-14,-104,-9,107,1,-5,34, 
  /* [83][0][][] */ -28,85,-118,-80,-40,-18,46,-117,56,48,-43,-127,11,44,51,92, 
  /* [84][0][][] */ -49,30,70,-47,-1,-19,53,-127,-54,39,-8,-48,28,55,59,10, 
  /* [85][0][][] */ -92,116,29,-127,-72,-29,-30,-8,-58,-4,-67,30,5,-5,-98,-20, 
  /* [86][0][][] */ -5,9,-32,10,-26,-24,127,23,-1,-31,4,5,4,26,77,-25, 
  /* [87][0][][] */ -33,-40,-1,-127,2,-26,45,-20,-10,15,-7,-122,-20,-7,14,-32, 
  /* [88][0][][] */ 102,-22,44,-16,16,-110,-12,20,-63,31,-127,-41,32,30,76,9, 
  /* [89][0][][] */ 19,-19,-39,-56,22,-10,-31,-13,-55,1,37,-61,127,-12,25,-38, 
  /* [90][0][][] */ 7,-58,38,-56,70,-7,-59,91,66,-78,-41,-33,-8,107,28,-127, 
  /* [91][0][][] */ -48,-17,-24,-51,18,-13,-38,-109,16,61,-5,-127,-28,-16,-2,10, 
  /* [92][0][][] */ -20,24,44,17,6,-127,17,5,6,-23,3,-19,5,-29,22,3, 
  /* [93][0][][] */ 35,-15,127,-14,-49,58,22,-35,-25,23,-71,-12,-26,-6,26,7, 
  /* [94][0][][] */ 32,9,-5,-22,37,-1,-12,2,-26,-18,21,-72,127,-22,37,-30, 
  /* [95][0][][] */ 127,105,3,33,-103,-7,-81,-9,-38,-27,105,-44,-51,36,80,-74, 
};
const TfArray<4, int> tensor_dimension6 = { 4, { 96,1,1,16 } };
const TfArray<96, float> quant6_scale = { 96, { 0.00081410683924332261, 0.00098430609796196222, 0.00052500516176223755, 0.0010878152679651976, 0.0010115457698702812, 0.00095123646315187216, 0.00043936778092756867, 0.00080121011706069112, 0.00066015776246786118, 0.00087738392176106572, 0.00045217774459160864, 0.00071726716123521328, 0.00090123503468930721, 0.0030804455745965242, 0.00066346494713798165, 0.00043545998050831258, 0.00041378795867785811, 0.00064327649306505919, 0.0011913899797946215, 0.00095633300952613354, 0.00033389899181202054, 0.00023879489162936807, 0.00043296473450027406, 0.00026416924083605409, 0.0004929110873490572, 0.0015473163221031427, 0.0015790113247931004, 0.00075050967279821634, 0.00070206937380135059, 0.0010949844727292657, 0.00058461690787225962, 0.00088665168732404709, 0.00047334865666925907, 0.00066881725797429681, 0.00085248390678316355, 0.00069824012462049723, 0.00052689062431454659, 0.00058587745297700167, 0.00081255409168079495, 0.00084428646368905902, 0.00042739507625810802, 0.0012635806342586875, 0.00068412860855460167, 0.00056504859821870923, 0.0012352669145911932, 0.00063946406589820981, 0.00070398015668615699, 0.00087286514462903142, 0.00067293865140527487, 0.0006890287040732801, 0.00076816108776256442, 0.00046754206414334476, 0.0015783255221322179, 0.00063728878740221262, 0.00098318804521113634, 0.0011331503046676517, 0.0013430017279461026, 0.0006402990547940135, 0.0011672485852614045, 0.0004069509741384536, 0.0021942632738500834, 0.0012104961788281798, 0.00060928496532142162, 0.00094887142768129706, 0.001230129855684936, 0.00065579492365941405, 0.00026153205544687808, 0.00050230242777615786, 0.0013641460100188851, 0.0010329338256269693, 0.0008851653547026217, 0.00060791667783632874, 0.002488474128767848, 0.0011035222560167313, 0.00087444199016317725, 0.00054770323913544416, 0.00070044549647718668, 0.0003213774471078068, 0.00028390574152581394, 0.00059969071298837662, 0.00047864584485068917, 0.00049555057194083929, 0.00052765983855351806, 0.00055510952370241284, 0.00038205872988328338, 0.00076894153608009219, 0.0013677541865035892, 0.00046318885870277882, 0.00035212308284826577, 0.0012747206492349505, 0.00083501148037612438, 0.00072551507037132978, 0.0007246109307743609, 0.0015275167534127831, 0.00091231276746839285, 0.00039271634886972606, } };
const TfLiteAffineQuantization quant6 = { (TfLiteFloatArray*)&quant6_scale, (TfLiteIntArray*)&g0::quant5_zero, 0 };
const MODEL_SECTION(EI_MODEL_SECTION) ALIGN(16) int32_t tensor_data7[16] = { -10024, 18198, -15993, 2525, -12488, 7547, 30476, -54252, -3080, 18504, 23601, 13840, -9502, 17132, -4400, 10807, };
const TfArray<1, int> tensor_dimension7 = { 1, { 16 } };
const TfArray<16, float> quant7_scale = { 16, { 0.00075899029616266489, 0.00042617580038495362, 0.00019161026284564286, 0.00023235137632582337, 0.00037489723763428628, 0.00043795039528049529, 0.00031411630334332585, 0.00025721770361997187, 0.00031250086612999439, 0.0002297159080626443, 0.00083701201947405934, 0.00066171644721180201, 0.00045416434295475483, 0.00023279618471860886, 0.0005327903782017529, 0.00051380012882873416, } };
const TfArray<16, int> quant7_zero = { 16, { 0,0,0,0,0,0,0,0,0,0,0,0,0,0,0,0 } };
const TfLiteAffineQuantization quant7 = { (TfLiteFloatArray*)&quant7_scale, (TfLiteIntArray*)&quant7_zero, 0 };
const MODEL_SECTION(EI_MODEL_SECTION) ALIGN(16) int8_t tensor_data8[16*1*1*96] = { 
  /* [0][0][][] */ -25,-6,5,-31,15,1,-47,-5,16,-3,-16,2,1,-12,-29,10,-1,7,0,8,15,-35,7,6,10,19,7,127,33,-37,43,-7,0,-3,12,-2,-14,9,-34,-12,-22,10,1,31,2,1,11,11,22,2,-3,6,21,-20,-9,81,14,3,-34,-33,4,19,-10,-38,-49,-61,-23,34,11,10,9,-15,-7,-31,-4,-21,-23,22,11,10,-11,-30,30,14,-10,-7,-5,-98,8,-15,1,-6,54,-41,-33,-6, 
  /* [1][0][][] */ 43,-75,-82,-67,127,-18,67,36,-17,-101,-58,-7,5,4,-58,38,-79,1,45,43,18,39,-14,-64,18,-6,-13,-84,36,-14,-58,42,-30,39,-3,-16,17,-3,5,27,-25,32,-40,-9,-40,92,2,1,27,-88,12,-38,-31,40,49,6,-46,-17,-36,-40,30,-22,-8,-40,-88,118,-26,-16,-7,-34,-17,21,61,-108,-28,-4,30,-59,38,14,8,-32,38,-3,-48,60,-19,34,36,-33,-8,18,23,6,41,108, 
  /* [2][0][][] */ 1,50,-81,-3,98,71,29,65,-16,-102,-12,-29,-17,-9,29,31,14,-21,-42,68,26,-13,85,27,41,21,3,-46,26,-18,46,-69,41,47,-19,45,-127,-79,30,29,4,-40,4,-5,17,-31,15,82,-43,14,-24,-21,98,-15,-6,66,18,7,28,11,23,27,37,-17,17,-12,-23,2,-39,7,-23,-32,-44,-74,7,73,81,56,37,-10,21,-56,17,-4,-49,19,11,27,-38,21,-2,-32,6,-30,-60,-4, 
  /* [3][0][][] */ 50,10,86,-2,38,-27,7,-4,-25,-69,21,-50,-6,25,45,108,24,-13,37,12,113,-16,45,12,47,3,-18,13,29,39,-6,81,-100,10,42,3,-13,-15,6,28,-72,-20,67,22,14,36,-45,-77,-63,-14,-53,46,-15,-127,7,29,-108,72,48,40,6,95,-20,-48,31,66,6,-38,31,-25,2,-58,49,-24,44,-22,14,9,49,41,-26,-69,21,-16,-36,26,22,33,22,10,21,31,39,103,57,-36, 
  /* [4][0][][] */ 10,3,23,-10,127,44,-21,-23,-31,-57,-43,-42,-35,15,1,61,34,-75,-36,111,-19,-3,33,-17,0,4,18,-48,11,-20,72,-38,94,-3,-13,18,31,18,25,-3,-35,-6,-32,-27,-24,-73,-29,22,32,13,-17,9,1,-38,5,-28,50,-8,-45,40,0,50,47,12,43,45,-17,-13,-48,-3,33,66,13,-74,-53,-28,35,45,102,-29,-13,-47,13,-9,-82,4,41,47,-41,27,-1,-47,14,-1,42,-10, 
  /* [5][0][][] */ 17,-13,-15,5,24,-20,43,-18,-17,-32,-11,12,-8,27,-2,8,-12,-12,11,-14,33,18,-41,64,7,-14,10,-94,1,27,14,25,-1,14,-2,-50,30,21,-14,22,-3,-12,25,-11,-4,0,8,-29,-12,-16,9,-10,-8,-24,-5,-52,-4,21,-16,9,65,29,8,46,3,52,7,76,0,93,19,26,7,13,1,61,-30,-15,9,15,-5,-6,-5,24,-2,21,-10,127,-9,30,0,-10,-4,16,-58,8, 
  /* [6][0][][] */ 11,-71,22,-36,-42,20,25,19,13,-16,-22,-87,-27,-10,-20,42,24,3,6,11,-46,33,18,12,-21,20,-13,-20,-20,13,50,1,59,-11,81,-14,-11,-11,36,-121,-36,107,2,-39,9,-43,-35,31,-20,45,-26,72,-16,-66,-7,-13,16,-76,-17,13,-11,50,25,-103,27,-31,11,-28,1,0,127,6,-38,13,-40,33,-88,-1,31,7,30,43,31,-9,-35,-1,43,19,26,1,50,-43,-6,-9,-24,-4, 
  /* [7][0][][] */ -9,127,48,21,108,57,38,-32,-32,-31,37,-32,-21,19,28,35,21,-35,14,49,42,-44,41,15,-10,24,21,5,20,-19,16,18,45,-5,-32,16,16,11,4,69,-51,39,14,26,-22,-44,17,-5,-36,-20,44,5,31,-47,-33,53,63,-5,-26,13,14,-36,-16,-10,-50,66,-26,-92,-2,-41,-24,67,-12,-25,6,29,63,59,51,1,-52,-43,5,-12,-24,50,2,-10,-33,20,-43,-42,-35,-14,37,7, 
  /* [8][0][][] */ -3,2,57,16,-127,-26,37,-27,23,71,61,11,-4,15,29,3,-54,3,14,8,-34,-11,-103,62,30,-27,65,-9,7,18,11,54,74,-28,0,-7,-34,-24,14,26,3,-25,40,11,-57,-5,38,3,-100,6,33,17,-68,-37,-42,41,29,-56,-86,-17,32,-40,-42,-16,-2,82,-9,-45,19,-15,-54,-20,29,53,49,-15,-22,-46,-9,31,-81,17,-8,-11,24,25,56,48,27,-30,38,55,10,-14,36,15, 
  /* [9][0][][] */ -9,-102,-26,13,89,81,-43,-38,33,-52,98,105,1,24,99,-118,9,-34,-8,11,-68,-46,32,-22,-15,18,-13,32,-22,15,10,-6,12,2,-118,20,-6,5,-2,71,33,-85,-13,67,-5,-20,-86,-45,35,30,-21,-84,57,33,-22,-60,13,95,-22,-6,19,-83,-41,127,-98,-5,8,-31,-8,23,-63,-84,44,-5,9,22,57,-73,19,-6,-1,-20,-4,20,1,-62,26,1,18,-30,-65,44,-72,-19,-9,-36, 
  /* [10][0][][] */ -42,-17,-27,-40,-21,-5,61,-25,32,15,16,28,29,-13,-11,0,-5,25,-23,-16,1,26,18,22,-8,-7,13,-127,20,-44,48,-35,2,15,-5,-14,-9,33,2,-9,7,-30,21,-47,6,-1,34,17,-9,31,-23,-21,-30,-26,-5,-52,20,7,-7,-36,25,10,1,6,-37,84,-19,-31,17,-31,-4,-14,-25,-5,19,57,-2,38,-16,18,-24,-6,9,26,5,-20,-11,104,2,-6,13,10,24,-37,38,-30, 
  /* [11][0][][] */ -67,12,6,-3,16,-55,-10,4,-41,-3,-4,28,18,30,-19,-8,50,6,-57,-49,14,3,1,-1,58,-4,57,6,-28,12,-42,19,0,21,-13,-12,-15,1,18,16,-13,-3,-1,-3,86,31,69,2,41,31,-8,31,5,-55,19,1,-71,-10,-30,-56,-23,-9,0,24,-6,-26,24,2,16,21,0,39,-26,14,25,-3,-15,80,-127,59,-44,-3,-72,-60,126,9,26,-14,15,38,-22,-56,-27,47,-34,-11, 
  /* [12][0][][] */ -10,-6,-39,-3,56,24,8,-22,-13,16,26,0,6,-8,34,-16,-35,-9,8,-19,-11,-17,-37,38,-12,43,-24,89,-12,38,-23,7,-15,23,5,22,-12,-18,22,15,2,-16,-2,16,-18,0,23,20,-2,-2,-2,-24,-22,13,-15,-16,-6,-4,14,22,-9,-28,-4,47,36,-69,20,56,-32,-127,-7,44,7,4,10,75,-1,-15,-9,0,-4,15,-37,-2,14,-15,6,-41,-4,15,2,3,-39,28,-13,28, 
  /* [13][0][][] */ -105,63,-1,0,-62,13,-30,12,-43,-27,46,15,91,6,-26,7,-7,33,-35,6,19,-18,65,-54,65,57,2,-12,10,-38,-29,-101,-103,-48,22,-3,-10,33,46,-38,-43,94,-4,7,50,-10,-24,19,60,-5,33,73,79,-74,93,-10,-20,44,25,15,13,8,-25,11,5,-29,4,-2,25,17,12,-127,23,-19,-91,17,61,52,-38,-47,83,-29,10,-30,29,-37,98,-3,-24,-13,-23,20,50,-45,-5,15, 
  /* [14][0][][] */ -47,27,-16,-39,26,2,-15,19,-80,-12,20,6,-13,-67,-66,-26,-82,-7,62,11,36,-11,10,-98,-32,26,-46,-22,10,-15,-6,-33,-74,-34,18,15,-11,-1,18,-11,3,76,-69,-6,-59,5,11,24,127,-25,35,-11,25,50,-107,13,-8,21,-108,25,25,28,32,17,1,33,1,2,-43,11,51,27,32,-10,-37,29,49,-71,-23,-82,17,-33,17,33,24,-71,-36,10,-30,25,22,47,20,26,30,-2, 
  /* [15][0][][] */ -29,-80,-2,-35,7,4,-8,-65,-19,16,-19,-26,40,-10,37,-13,-83,-3,-14,9,-19,0,-58,-37,-10,1,-1,17,-29,-21,46,-92,-5,32,15,0,-16,24,-93,10,34,-64,-6,33,-17,-34,51,26,46,4,-9,-127,-4,44,0,39,34,-13,-10,42,-4,3,50,-2,-3,-10,-18,-5,-19,26,3,39,-35,10,7,-29,-25,-4,8,0,-4,29,-5,65,-13,-39,-39,-41,-37,59,30,73,-33,2,-1,-15, 
};
const TfArray<4, int> tensor_dimension8 = { 4, { 16,1,1,96 } };
const TfArray<16, float> quant8_scale = { 16, { 0.032257087528705597, 0.018112471327185631, 0.0081434361636638641, 0.0098749333992600441, 0.01593313179910183, 0.018612891435623169, 0.013349942862987518, 0.010931751690804958, 0.01328128669410944, 0.0097629260271787643, 0.03557300940155983, 0.028122948482632637, 0.019301984459161758, 0.0098938373848795891, 0.022643590345978737, 0.021836504340171814, } };
const TfLiteAffineQuantization quant8 = { (TfLiteFloatArray*)&quant8_scale, (TfLiteIntArray*)&g0::quant7_zero, 0 };
const MODEL_SECTION(EI_MODEL_SECTION) ALIGN(16) int32_t tensor_data9[96] = { 16847, 64429, -827, -45, 18493, -5506, -540, -298, 5734, 18793, -4163, -413, 683, 3400, 5178, -8463, -3813, -888, -251, 14704, -10675, 14881, -2150, 10174, 27850, -132, -5428, 17445, 13457, -19423, 1308, 21763, 24270, -8285, 2412, -215, -185, -492, 4801, -6477, -4650, -1060, -8211, 111, 29003, -1045, 13270, -1482, -14838, 1976, 105, -424, -2413, 22518, -3836, 17355, 24911, -210, 34928, 157, -8830, -953, 1365, 6, -1083, 15474, -1662, -6273, -3024, 4232, -364, -3987, 1136, 308, -1442, -7634, 349, -1528, 44099, -7502, -5910, -12043, -410, 398, 57800, -13293, -11782, -27563, -8146, 8419, -2117, 35407, 356, -1853, -2536, 961, };
const TfArray<96, float> quant9_scale = { 96, { 0.00013981205120217055, 8.8282060460187495e-05, 0.00010178233060287312, 0.00021117809228599072, 0.00017641994054429233, 0.00014498885138891637, 7.3737908678594977e-05, 9.4500035629607737e-05, 0.00022815898410044611, 0.00012795398652087897, 0.0002667420485522598, 0.00010056250175694004, 0.00025263719726353884, 0.00020200884318910539, 0.00039219853351823986, 0.00015195347077678889, 0.00021522017777897418, 0.00013719861453864723, 0.00016103198868222535, 7.9006458690855652e-05, 7.5782125350087881e-05, 5.6567590945633128e-05, 0.0001374995190417394, 7.7075928857084364e-05, 9.1605244961101562e-05, 8.7296008132398129e-05, 0.00018115427519660443, 0.00017454600310884416, 6.6964043071493506e-05, 0.00044120248639956117, 0.00035422362270765007, 0.00022293296933639795, 0.00013179189409129322, 0.00020711369870696217, 0.00022829842055216432, 0.00042108196066692472, 0.00037676727515645325, 0.00019208333105780184, 0.00025054102297872305, 0.00011338108743075281, 0.00022577396885026246, 0.00018616662418935448, 0.00035170296905562282, 9.8872755188494921e-05, 0.00039856141665950418, 9.7566364274825901e-05, 0.00013180746464058757, 0.00032793197897262871, 0.00066592608345672488, 0.00011573556548682973, 0.000421016855398193, 0.00015120371244847775, 0.00017955884686671197, 0.00012304900155868381, 0.00020845238759648055, 0.00010817151633091271, 0.00010685284360079095, 0.0003872591769322753, 4.8021749535109848e-05, 0.00016392678662668914, 0.00030722780502401292, 0.00034762776340357959, 0.00012565006909426302, 0.0001670970959821716, 0.00012180907651782036, 0.00011590921349124983, 0.00025939373881556094, 0.00034035017597489059, 0.00018623842333909124, 9.3276714324019849e-05, 0.00019885794608853757, 0.00010124310210812837, 0.00023157660325523466, 0.00014125328743830323, 0.00047595417709089816, 0.00024008812033571303, 0.00011645701306406409, 8.364034874830395e-05, 5.9684931329684332e-05, 0.00017223760369233787, 0.00021297232888173312, 0.00023171538487076759, 0.00014928210293874145, 0.00027572273393161595, 6.1053287936374545e-05, 0.00011432335304562002, 7.266774628078565e-05, 0.00047609579632990062, 0.00021824173745699227, 0.00011669525702018291, 0.00035237238625995815, 2.9955996069475077e-05, 0.00014995277160778642, 0.00010720399586716667, 0.00034088618122041225, 0.00028631096938624978, } };
const TfLiteAffineQuantization quant9 = { (TfLiteFloatArray*)&quant9_scale, (TfLiteIntArray*)&g0::quant5_zero, 0 };
const MODEL_SECTION(EI_MODEL_SECTION) ALIGN(16) int8_t tensor_data10[1*3*3*96] = { 
  /* [0][0][][] */ -47,-71,-9,127,22,68,74,-58,-15,-18,-15,-3,-31,5,37,2,-10,-44,26,22,18,-127,127,5,-86,8,50,-28,-127,-127,40,24,12,26,59,-19,-30,-11,31,-14,-14,28,-108,70,25,-67,37,46,-18,50,-24,20,2,-7,14,49,-89,-49,-58,-19,-10,1,11,39,67,-26,75,13,-9,15,19,127,24,22,25,-2,-11,16,127,-6,-14,16,-27,20,123,22,-75,-16,-1,-30,-16,-38,1,-26,-15,26, 127,-127,76,104,-43,127,38,-117,70,4,-17,127,127,-94,-14,15,10,127,127,-111,127,-75,81,68,-127,-119,-66,-34,-57,46,-59,-21,-90,53,-127,-85,-43,-15,-53,57,-1,127,127,81,-51,-114,-111,-50,-16,-127,42,84,67,-32,42,84,-47,42,-75,-113,-44,-40,-61,67,72,-61,26,30,-82,32,-17,90,118,127,12,18,1,57,-33,54,65,127,127,-24,-8,72,-109,127,-121,-96,3,-127,-91,-127,-39,105, -75,-11,29,-83,14,-23,63,-8,81,-34,-27,18,-19,-3,-9,-13,-9,-15,7,-4,-22,-98,29,-2,-120,104,9,-54,120,50,-15,9,0,16,14,-29,-9,34,17,10,25,12,-119,65,20,-19,38,14,-15,10,-17,4,-9,1,-5,21,-66,6,-33,53,2,41,34,-2,-7,-38,-30,24,9,3,-3,36,10,-27,-6,3,-11,-6,-86,2,-22,-22,-18,2,-107,9,-33,-22,-52,25,-26,-29,30,-28,-14,1, 
  /* [0][1][][] */ -65,-74,71,-35,-48,88,19,127,-52,-22,-1,-117,25,-113,79,32,-2,-60,-17,90,54,-65,46,50,-93,-10,127,-23,-25,63,124,-104,-127,88,-86,-57,-35,33,-29,95,-50,-25,-5,47,-48,127,-23,66,15,95,19,-1,12,-55,27,31,127,122,-70,-86,127,-32,-35,127,71,-39,-15,-2,126,40,127,98,-40,103,-5,13,14,13,-31,9,-43,121,-78,109,-1,33,-53,31,79,-127,-33,-8,127,-71,-24,0, 67,127,56,-115,127,84,87,37,-127,127,127,-39,-66,-127,-127,127,127,-62,-124,-50,106,89,-122,127,-106,-89,-44,127,-127,109,-127,-127,-91,127,106,127,127,-127,-106,127,-64,-95,110,-127,-127,-35,-127,-127,127,-111,85,43,127,127,127,-127,98,-127,-127,127,19,-78,-127,-100,-127,127,-127,127,-127,-127,-107,-84,-127,-80,127,127,-127,127,-78,127,127,31,-40,-127,57,127,94,46,127,14,127,-1,-68,35,127,-127, -53,-13,-50,37,-57,-94,32,-27,19,-34,-28,92,1,93,13,7,-4,65,-6,127,4,-85,-42,6,-76,104,-70,-19,-71,-16,18,-62,-71,40,5,-17,-29,45,-69,45,127,-4,-39,29,-38,-58,17,45,8,117,-12,7,-38,-73,5,19,94,2,-1,22,-35,127,93,-53,-43,13,38,-11,-79,123,-18,-87,0,-55,-16,-19,26,15,77,-38,-72,-40,57,14,-47,-14,72,23,14,64,-44,19,-43,96,-27,-5, 
  /* [0][2][][] */ -68,2,-4,-20,13,-49,70,23,55,-28,-37,-1,19,20,-26,-1,-7,65,6,0,-55,-81,3,-8,-26,-55,35,-69,85,38,25,26,17,-11,-11,-46,-7,36,-3,7,-17,-6,-68,103,4,31,11,38,-15,-31,10,-19,18,-1,9,14,-69,25,-13,14,15,0,-20,-5,-2,-47,-47,15,-34,12,25,29,13,-20,30,5,17,5,-80,-12,-9,-9,16,14,-127,8,13,-43,-59,-51,-28,-50,10,57,-19,-9, 121,35,-127,-36,-72,-22,38,30,-66,-28,-20,-103,-77,114,-13,36,1,-52,-10,-127,92,-52,-37,1,-106,127,-51,20,-40,-22,-9,-5,-62,16,26,6,-23,-28,127,54,8,-13,67,-35,-37,75,-67,-42,-32,-6,-127,-127,-53,-26,1,39,-63,-6,14,39,-8,-17,9,-47,-55,32,64,-22,114,108,-23,-72,11,-59,5,5,98,4,49,23,12,-94,-50,2,1,9,127,39,-60,38,-19,-113,41,79,-11,25, -55,13,-18,25,15,-66,-127,2,-13,-8,-16,7,16,-25,18,-4,-9,-16,4,17,-47,-72,14,1,16,-97,22,3,-46,-40,-8,16,44,-16,-7,-24,-35,3,41,-36,20,-1,-49,-31,5,66,24,17,-8,-5,9,-8,18,6,-3,-7,-61,-11,3,-38,-12,11,85,-11,33,-3,0,29,0,4,-4,19,-19,15,-1,17,34,0,75,-14,2,-9,-7,-18,73,-1,42,-39,58,39,-17,-56,-7,2,-16,-16, 
};
const TfArray<4, int> tensor_dimension10 = { 4, { 1,3,3,96 } };
const TfArray<96, float> quant10_scale = { 96, { 0.005942012183368206, 0.0037519873585551977, 0.0043257488869130611, 0.0089750690385699272, 0.0074978475458920002, 0.0061620259657502174, 0.0031338611152023077, 0.004016251303255558, 0.0096967564895749092, 0.0054380442015826702, 0.011336537078022957, 0.0042739063501358032, 0.010737081058323383, 0.0085853757336735725, 0.016668437048792839, 0.0064580226317048073, 0.0091468570753931999, 0.0058309412561357021, 0.0068438593298196793, 0.0033577745780348778, 0.0032207402400672436, 0.0024041226133704185, 0.0058437297120690346, 0.0032757269218564034, 0.0038932228926569223, 0.0037100804038345814, 0.0076990565285086632, 0.0074182050302624702, 0.0028459718450903893, 0.018751105293631554, 0.015054503455758095, 0.0094746509566903114, 0.0056011551059782505, 0.0088023319840431213, 0.0097026824951171875, 0.017895983532071114, 0.016012609004974365, 0.0081635415554046631, 0.010647993534803391, 0.0048186960630118847, 0.0095953932031989098, 0.00791208166629076, 0.014947375282645226, 0.0042020920664072037, 0.016938859596848488, 0.0041465703397989273, 0.0056018172763288021, 0.013937109149992466, 0.02830185741186142, 0.0049187615513801575, 0.017893215641379356, 0.0064261574298143387, 0.007631251122802496, 0.0052295825444161892, 0.0088592264801263809, 0.0045972894877195358, 0.0045412457548081875, 0.016458515077829361, 0.002040924271568656, 0.0069668884389102459, 0.013057181611657143, 0.014774179086089134, 0.0053401277400553226, 0.0071016266010701656, 0.0051768855191767216, 0.0049261413514614105, 0.011024233885109425, 0.014464882202446461, 0.0079151326790452003, 0.0039642602205276489, 0.0084514627233147621, 0.0043028318323194981, 0.0098420055583119392, 0.0060032648034393787, 0.020228052511811256, 0.01020374521613121, 0.0049494230188429356, 0.0035547148436307907, 0.002536609536036849, 0.0073200981132686138, 0.0090513238683342934, 0.0098479036241769791, 0.0063444892875850201, 0.011718216352164745, 0.0025947645772248507, 0.004858742468059063, 0.0030883792787790298, 0.020234070718288422, 0.0092752734199166298, 0.004959548357874155, 0.014975826255977154, 0.0012731298338621855, 0.0063729928806424141, 0.0045561697334051132, 0.014487662352621555, 0.012168215587735176, } };
const TfLiteAffineQuantization quant10 = { (TfLiteFloatArray*)&quant10_scale, (TfLiteIntArray*)&g0::quant5_zero, 3 };
const MODEL_SECTION(EI_MODEL_SECTION) ALIGN(16) int32_t tensor_data11[96] = { 1950, 7465, 13106, 31637, 17050, -2339, -1817, 4992, 34780, -4316, 10789, 5424, 8646, 13734, 28561, 1230, 2126, 8605, 16746, 4128, -292, 382, 14184, -1103, 5362, 63, 11889, 5622, 7074, 46924, 59220, 17070, 9384, -855, 8263, 1912, 1217, 3380, 15009, -748, 10265, 8786, 47849, -2989, 33091, 10177, 5419, 15810, 56169, 10951, -485, 7133, -2449, -179, -2846, 6976, -614, 14094, 5549, 7896, 4973, 12993, 7232, 5163, 9948, 7569, 6553, -7152, 8385, -2915, 4183, 13334, 23959, 7168, -4803, -4127, 6476, 248, 2630, -1114, 20324, 15263, 5023, 16529, 4060, 359, 11648, 49109, 10957, 11191, 6730, -186, 7332, 8891, 5024, 15698, };
const TfArray<96, float> quant11_scale = { 96, { 0.00019561758381314576, 0.00019626306311693043, 0.00014444990665651858, 7.3472598160151392e-05, 0.00017520361870992929, 0.00042487925384193659, 0.00045899616088718176, 0.00032834665034897625, 6.7966320784762502e-05, 0.00031615549232810736, 0.00024826778098940849, 0.00016742556181270629, 0.00014756727614440024, 0.00016572781896684319, 8.3956918388139457e-05, 0.00044744068873114884, 0.00020226760534569621, 0.00014654258848167956, 0.00013346213381737471, 0.00029114741482771933, 0.00030477804830297828, 0.00062032602727413177, 0.00014112365897744894, 0.00056953704915940762, 0.00048167654313147068, 0.00025345382164232433, 0.00018686243856791407, 0.00025305894087068737, 0.00022591423476114869, 7.4912219133693725e-05, 4.7939109208527952e-05, 0.00014373066369444132, 0.00017870904412120581, 0.00030466483440250158, 0.00024457692052237689, 0.00030139603768475354, 0.00042672682320699096, 0.00043702303082682192, 0.00018131568504031748, 0.00079079263377934694, 0.00018257352348882705, 0.00017666687199380249, 5.6307180784642696e-05, 0.00035965361166745424, 9.718402725411579e-05, 0.00015326860011555254, 0.00031953380675986409, 0.00016840237367432564, 7.3107941716443747e-05, 0.00018973491387441754, 0.00021781232499051839, 0.00023744783538859338, 0.00044425344094634056, 0.00028048933017998934, 0.00036769104190170765, 0.00015529146185144782, 0.0001988651929423213, 0.00013489612319972366, 0.00037103978684172034, 0.00018284973339177668, 0.0003185687237419188, 0.0001078051354852505, 0.00020233991381246597, 0.00018972142424900085, 0.0002485426957719028, 0.0002587712078820914, 0.00019681747653521597, 0.00018616994202602655, 0.00020289747044444084, 0.00024912087246775627, 0.00026804811204783618, 0.00012052244710503146, 8.7634070951025933e-05, 0.00014662487956229597, 0.00032783520873636007, 0.00032756646396592259, 0.00025700571131892502, 0.00034313922515138984, 0.00028168931021355093, 0.00031713058706372976, 0.00010118765203515068, 0.00010954798926832154, 0.00017178224516101182, 0.00011804988025687635, 0.00027728333952836692, 0.00033558212453499436, 0.00019938242621719837, 7.7963632065802813e-05, 0.00012961679021827877, 0.00019697847892530262, 0.0001940879737958312, 0.00037523516220971942, 0.00020424493413884193, 0.00017695911810733378, 0.00022359733702614903, 0.00011035241186618805, } };
const TfLiteAffineQuantization quant11 = { (TfLiteFloatArray*)&quant11_scale, (TfLiteIntArray*)&g0::quant5_zero, 0 };
const MODEL_SECTION(EI_MODEL_SECTION) ALIGN(16) int8_t tensor_data12[96*1*1*16] = { 
  /* [0][0][][] */ 10,74,-25,87,33,38,4,-23,37,36,-56,117,-2,-119,40,-127, 
  /* [1][0][][] */ 28,53,-5,-21,36,-41,127,-118,4,86,-17,-9,-4,-47,26,13, 
  /* [2][0][][] */ -127,42,-22,-13,8,-7,68,106,-23,52,97,-24,-70,31,34,-49, 
  /* [3][0][][] */ -57,87,75,87,-43,67,93,127,29,88,-109,10,28,-74,-106,-86, 
  /* [4][0][][] */ 6,7,39,64,-10,63,-5,41,10,-22,-1,2,28,-2,-127,-27, 
  /* [5][0][][] */ -7,-26,45,-14,11,-21,-11,15,-63,77,-35,-127,-15,26,-45,-24, 
  /* [6][0][][] */ 4,-11,27,-20,37,52,-62,-66,-9,1,47,-21,127,-19,-11,-34, 
  /* [7][0][][] */ 27,12,127,-8,-24,-45,5,-14,-85,11,-89,-45,5,-2,45,-24, 
  /* [8][0][][] */ 27,30,95,72,-47,82,40,58,53,7,20,-98,-45,10,-127,-78, 
  /* [9][0][][] */ 31,-125,70,45,-5,-26,-7,39,124,2,90,3,-41,3,-127,-7, 
  /* [10][0][][] */ -80,-99,37,-13,-107,30,-18,84,88,127,59,-66,-20,80,113,12, 
  /* [11][0][][] */ 70,1,-7,-95,-26,-59,-108,-127,-105,44,10,-38,47,-76,74,-104, 
  /* [12][0][][] */ -11,10,-9,-26,-34,-50,-94,-35,-57,-74,-35,28,23,127,109,30, 
  /* [13][0][][] */ -53,-122,-67,61,9,-38,-62,-70,95,-13,-64,26,20,63,127,34, 
  /* [14][0][][] */ -5,-57,52,32,29,31,23,127,21,56,19,-36,22,37,-47,102, 
  /* [15][0][][] */ 22,-29,1,61,16,-6,102,3,13,-127,17,-43,1,-16,-2,-29, 
  /* [16][0][][] */ 29,-85,-55,40,7,1,46,-65,127,72,86,2,20,93,60,102, 
  /* [17][0][][] */ -56,-60,38,93,127,8,45,-40,120,-29,-18,-12,38,29,-67,16, 
  /* [18][0][][] */ -11,1,-11,23,-110,3,-17,31,-61,-20,-31,-50,-1,-127,77,-2, 
  /* [19][0][][] */ 52,-59,7,-61,65,38,-93,80,73,-67,52,67,-16,27,14,127, 
  /* [20][0][][] */ 45,-26,60,-60,-8,3,-27,44,-7,-39,105,-23,3,16,-26,127, 
  /* [21][0][][] */ -59,-22,10,-10,19,35,-84,-62,-8,70,13,10,-127,-8,21,-18, 
  /* [22][0][][] */ 18,-18,17,-28,4,-56,5,-12,-127,23,-12,-47,-16,-17,75,-20, 
  /* [23][0][][] */ 19,10,17,-10,9,-2,-9,0,-7,-5,43,-8,127,-6,-2,-44, 
  /* [24][0][][] */ -20,-6,-7,-71,-27,-30,42,-4,-40,-6,-13,-127,2,-84,50,19, 
  /* [25][0][][] */ -110,1,-56,-28,90,-28,-79,-127,-23,96,-54,-92,-71,-113,27,-10, 
  /* [26][0][][] */ 46,-4,59,-116,127,-34,23,18,111,-22,51,-54,-1,87,7,85, 
  /* [27][0][][] */ 89,-31,23,-29,-34,-48,-5,-17,-28,25,-127,12,14,-20,4,42, 
  /* [28][0][][] */ -120,5,-127,-82,32,-33,93,-55,-21,49,-55,16,46,-24,-20,84, 
  /* [29][0][][] */ -76,-28,-29,127,-12,7,12,-53,-13,17,-105,63,10,-91,40,-29, 
  /* [30][0][][] */ 76,-4,127,-10,42,45,-49,70,-27,-100,79,-34,-22,41,-88,92, 
  /* [31][0][][] */ 13,-97,-3,-50,-6,-60,22,-39,-14,49,110,16,-22,89,73,127, 
  /* [32][0][][] */ -10,73,-32,44,-127,32,-82,-49,-53,-35,-8,54,3,59,28,60, 
  /* [33][0][][] */ 46,2,25,127,26,-1,11,-54,-92,38,67,-17,4,19,-1,93, 
  /* [34][0][][] */ 44,-14,11,-31,81,-54,-127,-8,-37,85,-41,-6,-25,5,17,23, 
  /* [35][0][][] */ 69,7,2,10,33,-127,-13,23,-17,0,-90,-25,84,14,-2,20, 
  /* [36][0][][] */ 20,-4,-127,4,36,11,-31,22,-31,-17,0,-7,5,8,-13,8, 
  /* [37][0][][] */ 0,1,127,0,-55,32,19,-63,-4,23,-43,24,17,1,1,-8, 
  /* [38][0][][] */ -118,45,3,19,20,68,24,-14,10,-11,127,-33,-27,9,0,-13, 
  /* [39][0][][] */ -26,-11,9,44,31,-28,-127,41,15,42,3,-37,-10,-19,6,0, 
  /* [40][0][][] */ 6,46,-22,127,-4,37,58,23,-45,-31,-25,37,8,49,-34,-38, 
  /* [41][0][][] */ 14,38,-71,-37,-69,4,127,99,-63,94,-40,6,9,64,43,-12, 
  /* [42][0][][] */ 24,-59,-22,-7,38,41,-70,72,118,-102,127,50,-48,79,-84,35, 
  /* [43][0][][] */ -86,-5,36,-36,42,25,-74,-71,-23,36,-17,-10,-127,-11,23,-8, 
  /* [44][0][][] */ 16,17,3,11,-4,-12,-17,-58,127,-17,10,45,14,108,1,58, 
  /* [45][0][][] */ -73,-72,10,-104,29,-21,-19,60,13,-80,-23,-42,49,108,-42,127, 
  /* [46][0][][] */ -30,27,-14,76,-78,-20,-9,-78,-127,30,-47,-1,-4,34,2,-27, 
  /* [47][0][][] */ -36,-3,-126,127,-5,55,-15,-36,21,44,63,78,-38,-7,33,-8, 
  /* [48][0][][] */ -27,-14,20,-127,22,-16,-20,-10,-59,3,28,-13,12,40,87,25, 
  /* [49][0][][] */ -12,26,50,127,-11,16,-47,-20,34,-47,-84,-40,-7,-23,-93,-114, 
  /* [50][0][][] */ 7,56,33,-115,63,8,-19,62,127,-24,-41,3,-2,-36,25,-16, 
  /* [51][0][][] */ 24,-17,7,-2,31,-7,-39,-127,18,-52,-14,9,-22,-18,-9,-16, 
  /* [52][0][][] */ 14,8,-12,43,29,-17,-61,107,-73,127,-38,-50,88,97,15,-32, 
  /* [53][0][][] */ -10,81,-2,-87,-44,-19,41,-20,-72,-38,-34,43,24,-127,-71,-5, 
  /* [54][0][][] */ -12,6,15,36,44,-28,12,-26,2,33,-13,-24,-5,127,-40,-16, 
  /* [55][0][][] */ -116,127,80,-29,33,-6,-9,-1,-54,35,119,-25,-16,-25,126,-10, 
  /* [56][0][][] */ 64,0,40,-113,80,9,-7,53,59,-52,58,127,-32,13,92,79, 
  /* [57][0][][] */ -36,-13,10,56,-32,21,44,127,-15,-9,7,-23,16,42,11,9, 
  /* [58][0][][] */ 28,127,7,-114,10,49,-26,3,90,-18,-13,78,-8,-67,27,51, 
  /* [59][0][][] */ 22,65,45,-103,-47,-19,29,-6,-1,8,45,-67,-8,-127,-65,12, 
  /* [60][0][][] */ 67,-13,120,-60,-30,127,37,-46,-5,41,-44,-12,32,9,39,2, 
  /* [61][0][][] */ -31,23,-65,-63,-75,23,74,127,-26,59,-3,19,17,70,-2,-22, 
  /* [62][0][][] */ -16,-15,-12,-13,-74,27,-66,14,-33,-21,-18,-39,9,-127,73,12, 
  /* [63][0][][] */ 10,-38,1,-85,48,2,-116,-127,-71,104,-14,31,50,-17,22,-50, 
  /* [64][0][][] */ -27,-5,37,57,77,10,-32,-127,16,-99,5,-34,-5,-33,0,3, 
  /* [65][0][][] */ -127,20,32,-62,20,71,54,-55,-80,31,54,-13,4,26,-12,-46, 
  /* [66][0][][] */ 61,9,111,29,-49,10,-18,50,-58,-28,92,-85,-14,64,-127,-31, 
  /* [67][0][][] */ 54,-9,-33,58,46,-47,-92,-116,41,-127,-61,-22,-102,0,-92,15, 
  /* [68][0][][] */ 1,-29,-69,41,-56,-89,11,-41,-44,-10,41,-69,-14,42,127,-12, 
  /* [69][0][][] */ -27,21,-56,49,-5,-126,19,86,21,1,38,-18,127,28,-7,15, 
  /* [70][0][][] */ 9,6,-46,-33,-37,6,127,66,-26,39,-13,13,6,33,14,-15, 
  /* [71][0][][] */ 14,-23,-19,-51,36,6,11,65,-10,-32,-10,7,20,-127,67,16, 
  /* [72][0][][] */ 42,33,-6,29,20,-61,-32,-127,29,71,-44,11,52,68,48,56, 
  /* [73][0][][] */ -33,-127,-45,-70,-68,-25,31,-35,-15,32,-36,-28,7,-50,66,-1, 
  /* [74][0][][] */ -18,34,69,95,3,0,-127,89,23,-34,-37,-38,-11,0,-23,-7, 
  /* [75][0][][] */ -38,42,-42,11,-36,86,94,120,-14,46,0,-22,-127,60,27,13, 
  /* [76][0][][] */ 29,-28,-44,-18,26,-89,-127,-125,-18,-14,23,-13,30,-2,79,-37, 
  /* [77][0][][] */ -39,2,-37,-17,-48,-10,-7,-36,127,12,-59,3,-1,36,29,-83, 
  /* [78][0][][] */ -103,-127,-7,110,65,80,-15,54,17,-40,-120,71,29,-34,82,67, 
  /* [79][0][][] */ 32,-11,22,-67,127,15,47,17,90,24,15,29,1,-27,0,-51, 
  /* [80][0][][] */ -10,-35,59,-127,-34,-51,11,18,-97,-53,-3,-63,2,117,-28,26, 
  /* [81][0][][] */ 25,-5,33,22,4,42,-25,-21,-4,-20,-12,-33,-9,29,-127,22, 
  /* [82][0][][] */ -111,-41,17,-127,-27,-23,-8,-24,-49,-38,-97,-113,-1,-108,-104,52, 
  /* [83][0][][] */ -2,4,-34,-56,-48,11,-10,34,-64,3,-5,-58,15,-127,9,54, 
  /* [84][0][][] */ 127,56,5,49,-90,2,-85,16,-13,-23,126,15,-104,15,87,-88, 
  /* [85][0][][] */ -9,-34,13,-29,38,-14,-28,111,-74,-77,-54,-19,-7,61,74,-127, 
  /* [86][0][][] */ 31,-2,22,19,-66,59,-28,62,-92,-45,38,-25,2,-127,-2,29, 
  /* [87][0][][] */ 127,-53,1,-4,-48,-39,11,6,18,11,-114,10,38,0,7,45, 
  /* [88][0][][] */ 47,118,-20,12,-21,-20,-29,-31,109,9,54,31,-55,-19,127,-117, 
  /* [89][0][][] */ 55,82,-52,-15,-23,-12,9,-84,50,22,11,-40,-45,19,-32,-127, 
  /* [90][0][][] */ -30,-11,10,-77,-63,15,127,-105,118,-126,3,-75,59,-4,-60,-36, 
  /* [91][0][][] */ 7,10,-21,-92,-45,-11,31,-44,-57,24,59,61,22,-25,39,127, 
  /* [92][0][][] */ 27,11,16,31,45,-26,-47,-127,73,-62,16,-24,-48,-8,14,-17, 
  /* [93][0][][] */ 55,-5,46,-104,-48,2,-15,55,41,-69,64,-26,-26,127,-30,20, 
  /* [94][0][][] */ -124,67,-93,35,102,-127,0,3,0,-60,108,-26,8,20,-29,-24, 
  /* [95][0][][] */ -12,63,33,-127,4,5,-15,-2,30,-40,-45,-71,-3,28,-69,-19, 
};
const TfArray<96, float> quant12_scale = { 96, { 0.00061545334756374359, 0.00061748415464535356, 0.00045446923468261957, 0.00023115998192224652, 0.00055122678168118, 0.0013367579085752368, 0.0014440967934206128, 0.001033046399243176, 0.00021383608691394329, 0.00099469046108424664, 0.00078110169852152467, 0.0005267554079182446, 0.00046427713823504746, 0.00052141398191452026, 0.00026414581225253642, 0.0014077408704906702, 0.00063637568382546306, 0.00046105327783152461, 0.00041989944293163717, 0.00091600988525897264, 0.00095889472868293524, 0.0019516738830134273, 0.00044400419574230909, 0.0017918812809512019, 0.001515453914180398, 0.00079741806257516146, 0.00058790785260498524, 0.00079617567826062441, 0.00071077287429943681, 0.00023568930919282138, 0.00015082633763086051, 0.00045220635365694761, 0.00056225556181743741, 0.00095853855600580573, 0.00076948950299993157, 0.00094825419364497066, 0.0013425707584246993, 0.0013749647187069058, 0.00057045661378651857, 0.0024879970587790012, 0.0005744140362367034, 0.00055583048379048705, 0.00017715402645990252, 0.0011315445881336927, 0.00030576103017665446, 0.00048221467295661569, 0.0010053194127976894, 0.00052982865599915385, 0.00023001267982181162, 0.0005969452322460711, 0.00068528257543221116, 0.00074705993756651878, 0.0013977130874991417, 0.00088247738312929869, 0.001156831975094974, 0.0004885790403932333, 0.00062567100394517183, 0.00042441108962520957, 0.0011673677945509553, 0.00057528301840648055, 0.0010022830683737993, 0.00033917723339982331, 0.00063660315936431289, 0.00059690279886126518, 0.00078196666436269879, 0.00081414764281362295, 0.00061922846361994743, 0.00058572908164933324, 0.00063835736364126205, 0.00078378571197390556, 0.00084333471022546291, 0.0003791885101236403, 0.00027571490500122309, 0.00046131218550726771, 0.0010314373066648841, 0.0010305917821824551, 0.0008085930603556335, 0.001079586916603148, 0.0008862527902238071, 0.00099775835406035185, 0.00031835725530982018, 0.00034466059878468513, 0.00054046243894845247, 0.00037140931817702949, 0.00087239063577726483, 0.0010558107169345021, 0.00062729831552132964, 0.00024528970243409276, 0.00040780121344141662, 0.00061973498668521643, 0.00061064085457473993, 0.0011805673129856586, 0.00064259674400091171, 0.00055674993200227618, 0.00070348341250792146, 0.00034719149698503315, } };
const TfLiteAffineQuantization quant12 = { (TfLiteFloatArray*)&quant12_scale, (TfLiteIntArray*)&g0::quant5_zero, 0 };
const MODEL_SECTION(EI_MODEL_SECTION) ALIGN(16) int32_t tensor_data13[16] = { -6419, -3821, -13312, 26755, 24945, 5843, -11969, -8375, 26610, 631, 25203, 23777, -7536, 10335, 29492, -34726, };
const TfArray<16, float> quant13_scale = { 16, { 0.0004561130772344768, 0.00027051646611653268, 0.00026232519303448498, 0.00024345287238247693, 0.00041892527951858938, 0.00030096076079644263, 0.00033043208532035351, 0.00043451014789752662, 0.00023006863193586469, 0.00021359475795179605, 0.00038830883568152785, 0.00073641003109514713, 0.00044594917562790215, 0.00048657885054126382, 0.00053512817248702049, 0.00029901371453888714, } };
const TfLiteAffineQuantization quant13 = { (TfLiteFloatArray*)&quant13_scale, (TfLiteIntArray*)&g0::quant7_zero, 0 };
const MODEL_SECTION(EI_MODEL_SECTION) ALIGN(16) int8_t tensor_data14[16*1*1*96] = { 
  /* [0][0][][] */ -2,24,-7,24,46,69,-40,-32,55,11,10,18,-9,15,19,72,7,0,-9,-11,99,-62,12,-18,-28,-34,-42,-92,-2,-7,51,34,111,-6,4,-7,1,-24,-25,0,-26,17,12,-26,4,-26,-9,30,-13,14,8,-7,-36,-12,3,3,44,25,-16,-22,-57,24,-16,-17,21,9,58,6,6,3,0,-30,-51,-4,-14,-4,-1,-84,14,-17,30,-18,-52,-42,28,-11,16,17,-2,-13,10,-33,23,20,-19,127, 
  /* [1][0][][] */ 72,-91,47,104,-15,-72,12,-48,-22,-107,-9,39,10,-66,-43,-45,-96,-7,34,35,-28,-105,-51,37,127,-64,-79,10,-38,102,-24,56,9,13,-54,38,-19,-14,72,-22,-13,-87,102,-44,-58,22,68,1,43,25,4,-76,60,-66,48,-26,9,19,-12,-116,27,-68,23,-64,-8,-95,50,31,56,44,-37,-11,-111,34,-16,73,20,97,9,-23,54,1,-63,46,-75,54,-5,72,-50,20,33,11,18,-45,42,7, 
  /* [2][0][][] */ 31,14,7,-30,15,3,-16,41,62,-11,8,60,4,7,51,5,-12,-18,9,-8,-19,-68,11,-50,-7,-15,-24,37,1,14,127,-49,23,-63,-33,53,24,127,-47,-21,-3,-11,1,35,-40,-57,-64,19,36,23,-26,-25,33,-10,5,-26,-19,-5,3,28,9,-2,81,86,2,-72,23,-73,-2,-13,-18,21,-14,12,-21,18,20,59,12,22,7,80,28,-9,-4,13,6,0,25,0,-3,-40,-48,10,-6,57, 
  /* [3][0][][] */ -13,-15,-39,39,28,-19,-16,-20,-10,18,-5,6,9,-9,47,1,41,-33,22,12,-16,-14,-4,9,-9,16,10,-4,16,-47,59,-21,22,-6,-21,37,-8,-6,-11,6,17,-67,26,-23,1,1,1,-5,-127,38,-10,21,-114,-56,-24,-39,23,14,-10,51,-3,23,16,12,-6,-81,-30,34,47,11,-7,20,-36,16,-14,-42,-52,-47,26,-31,3,-14,22,66,38,57,34,11,23,-3,-9,8,-31,6,-7,-23, 
  /* [4][0][][] */ -3,-20,10,-68,7,-12,-65,2,-12,-35,-34,0,11,64,13,13,53,-18,-1,12,4,20,52,-1,-15,-8,11,18,14,-19,1,-18,-33,13,5,9,38,-25,-5,-10,10,11,-106,-19,39,-13,-5,-18,5,78,-7,-12,-12,-11,-2,-2,5,-22,21,39,16,7,9,-1,43,-108,27,-22,-53,18,-17,-4,-5,19,-32,15,-16,59,63,4,-2,1,127,-32,35,-11,-13,-11,70,5,-7,22,-33,32,-4,-49, 
  /* [5][0][][] */ -10,-5,-8,-4,-12,-6,3,112,50,-25,-11,-44,-13,25,40,36,-26,-6,8,-47,-52,-7,-9,-45,18,13,17,66,64,14,60,48,-41,23,1,2,-39,-56,-23,-9,-41,-21,2,-11,59,16,8,12,12,19,-27,3,-29,-21,10,-12,-29,-18,-5,27,-55,28,-13,-45,3,10,-20,7,-8,9,5,9,23,11,21,3,-11,23,2,127,1,-38,21,31,8,-8,10,-28,-8,-17,24,-127,-27,-28,-10,-113, 
  /* [6][0][][] */ -33,4,0,-56,-9,-18,-9,16,1,32,-32,18,41,-58,1,-9,1,-63,26,28,12,-2,-17,25,82,-2,-10,-4,18,-9,16,-16,-23,-3,-26,-1,5,3,23,38,-4,-33,-64,-16,3,-13,39,-127,21,27,30,12,7,8,-10,-44,43,3,-10,11,23,27,-2,17,38,73,28,-29,-31,-6,17,-29,31,1,31,-19,-30,33,7,13,-30,4,55,-30,-10,41,33,-30,29,-1,-45,1,-20,20,-4,24, 
  /* [7][0][][] */ 17,14,41,-28,1,5,-7,-20,0,-7,-18,-4,-6,-87,24,4,-3,-31,-13,-1,8,-25,-31,-6,-20,-8,0,-14,13,2,12,-5,-11,5,-7,-13,0,-5,-23,25,-4,-6,-29,23,-5,14,-15,69,7,20,-7,-25,-28,4,-5,-46,45,3,-2,9,-2,1,-13,-1,-25,39,20,-26,-15,-5,6,38,-1,-4,-15,1,55,13,5,-22,-9,-39,35,-5,-38,127,-1,-8,-30,-32,-5,23,-24,10,-7,4, 
  /* [8][0][][] */ -70,51,-51,-1,54,-12,-33,31,15,80,-45,16,18,45,63,-27,-13,28,-81,9,16,11,-28,0,-46,-33,10,19,62,-92,3,-18,29,-1,19,-2,-26,37,-41,34,-2,22,-23,-127,-41,3,42,-20,-43,25,6,57,-108,74,11,-6,7,-28,-25,-17,-1,-47,1,12,-30,36,36,-32,-6,-3,27,72,-16,29,30,25,-2,-96,9,-43,-21,-20,21,8,-82,0,6,-51,8,20,-34,4,34,-4,-26,-16, 
  /* [9][0][][] */ 18,-56,-38,-30,9,21,0,19,37,-23,5,12,-54,-21,-2,30,-5,10,46,-24,-27,21,-32,-43,49,15,29,-22,-50,-34,-29,-7,-19,11,22,42,-4,38,-25,16,24,5,-29,-81,8,-4,40,-127,-43,-1,-4,22,-23,12,-18,-1,-54,37,-14,11,6,13,6,29,37,125,43,51,1,-21,14,-36,-12,-4,-36,9,68,-5,6,5,-5,4,22,-42,-5,18,9,-2,-56,28,-33,-1,12,-1,-4,-11, 
  /* [10][0][][] */ 27,45,-14,33,68,-103,-14,-24,0,47,26,-10,-9,17,13,-70,12,33,-24,39,-78,-9,-10,-34,-56,-24,-56,52,17,3,4,46,-8,-24,38,-7,86,-15,-9,-1,-24,62,59,-25,-51,-16,-37,8,-10,-20,-35,-3,-7,-7,0,-9,13,19,-21,-26,4,2,-8,25,6,35,57,16,24,-1,35,59,-49,-23,-48,-12,2,26,-18,12,28,-3,-58,-20,66,-48,79,-6,-15,3,23,-9,72,36,-15,-127, 
  /* [11][0][][] */ 42,41,-36,27,-9,12,45,4,-8,-19,-13,-20,-3,3,39,-7,-1,-6,-92,-15,2,20,7,-11,-35,-26,-12,1,1,21,-4,-3,-8,4,15,23,7,17,-10,18,10,22,59,-92,25,-36,3,-6,-127,16,4,-51,22,21,-15,12,-17,-14,-4,2,11,-17,-11,2,-44,44,-17,14,16,-6,35,10,-50,-28,16,23,-4,-37,-56,8,17,-4,85,49,2,-14,-13,-12,4,29,-23,-7,2,-3,-22,11, 
  /* [12][0][][] */ -30,-8,4,-1,-26,27,6,2,127,1,-12,6,-3,10,-36,-39,24,30,13,61,45,31,-10,-16,-4,7,11,-28,-99,9,25,-43,2,2,-8,-16,15,-4,38,-16,-37,-16,-13,7,1,30,6,-1,10,8,-40,7,0,-4,7,-10,61,-12,12,11,14,-9,9,-13,0,35,-35,1,0,0,-14,-29,13,6,-60,3,21,-6,7,-59,-11,4,38,35,-20,-12,-16,-22,2,22,2,40,-13,-25,10,14, 
  /* [13][0][][] */ 30,-7,-22,25,31,1,4,2,-5,7,6,5,13,-12,9,-11,19,-69,-38,17,-4,-24,11,4,9,9,2,-2,-8,-35,-2,11,-3,4,5,39,9,1,3,17,1,11,16,40,23,14,-11,-127,21,-8,9,9,-13,-1,13,8,-8,21,20,12,8,16,-11,8,-11,-20,-19,-48,2,16,-12,-33,-9,38,-13,14,-21,2,19,1,20,-12,-16,14,10,29,15,16,-1,-9,18,0,1,19,-8,-7, 
  /* [14][0][][] */ -112,-38,36,44,35,-27,-36,17,-6,12,-4,16,57,7,-127,3,60,-15,-20,25,-12,-12,32,15,-98,5,37,-6,-29,-74,-30,-2,-12,-7,30,-54,18,30,3,19,11,33,-7,-26,23,114,70,62,-101,45,15,32,-45,0,26,-2,7,12,56,60,26,40,2,39,1,-16,-36,38,2,76,-43,-82,-66,-5,-5,36,-5,38,87,-2,50,20,26,31,37,12,41,21,25,31,56,-3,7,28,21,-18, 
  /* [15][0][][] */ 91,-26,41,11,3,75,17,-19,-16,56,22,-3,-89,-10,-15,32,2,49,61,-12,15,23,-82,47,19,3,53,7,32,39,-61,-62,11,-62,43,11,35,-25,-57,-110,-5,36,12,32,-20,57,-39,-34,107,-39,-51,25,38,-126,64,-105,7,-63,12,33,-127,-5,10,20,80,-23,-64,41,-27,80,-28,28,54,25,30,3,30,-52,72,-21,-20,2,49,78,-14,2,1,-63,14,6,65,4,-59,62,17,-3, 
};
const TfArray<16, float> quant14_scale = { 16, { 0.019384805113077164, 0.011496949940919876, 0.011148820631206036, 0.010346747003495693, 0.017804324626922607, 0.012790831737220287, 0.014043363742530346, 0.018466681241989136, 0.0097779165953397751, 0.0090777771547436714, 0.016503125429153442, 0.031297426670789719, 0.018952839076519012, 0.020679600536823273, 0.022742945700883865, 0.012708082795143127, } };
const TfLiteAffineQuantization quant14 = { (TfLiteFloatArray*)&quant14_scale, (TfLiteIntArray*)&g0::quant7_zero, 0 };
const MODEL_SECTION(EI_MODEL_SECTION) ALIGN(16) int32_t tensor_data15[96] = { 10925, -9397, 3195, 50364, -1741, -4431, -11731, 2532, -1936, 1287, 2464, -2434, 1475, -6395, 5407, -4098, -1102, 17123, 25355, 2083, 3343, -2907, 217, 120, 19283, -1335, -803, -3608, -5746, -7153, 4813, -9364, -986, -1381, -239, 15809, 1330, -3165, 18766, 896, -364, 2386, -9830, -8256, -7024, 66937, 417, 18426, 26174, -12723, -47, 8237, 7580, 32, -5124, 2266, -11284, 1883, 1373, -6696, -1846, -1065, -14099, 273, 1772, 17574, 28433, 28993, -12036, 280, -7544, -542, 57072, 9677, 480, 234, 18812, 31862, 97, -5637, -1400, -6417, 590, -3275, 834, -471, 1485, -1197, 1994, -2453, -260, -165, -708, -537, 396, 55094, };
const TfArray<96, float> quant15_scale = { 96, { 0.00015697821800131351, 0.0001183142012450844, 0.00023557222448289394, 4.1947998397517949e-05, 0.00015156448353081942, 0.0001543400576338172, 0.00029667167109437287, 8.1330232205800712e-05, 0.00018111473764292896, 0.00039138086140155792, 0.00015795281797181815, 0.00028800245490856469, 9.2563626822084188e-05, 0.00040646773413755, 0.00018814534996636212, 0.00018267906852997839, 0.00010067449329653755, 0.00030507979681715369, 6.8806162744294852e-05, 0.00029522212571464479, 4.6499579184455797e-05, 0.00017656832642387599, 0.00011584339517867193, 0.00034065684303641319, 0.00017510705220047385, 0.00023746352235320956, 0.00013703075819648802, 0.00016570072330068797, 0.00012665749818552285, 0.00011616016126936302, 0.00014847388956695795, 0.00016211064939852804, 0.00011941859702346846, 0.00012571665865834802, 0.00022015698777977377, 0.00014902112889103591, 0.00037946083466522396, 0.0001097545464290306, 4.1146438888972625e-05, 0.00010941211803583428, 0.00018330781313125044, 0.00034447177313268185, 0.0003370122576598078, 0.00016032862185966223, 0.00020300876349210739, 5.6246877647936344e-05, 0.00021364270651247352, 0.00018283627287019044, 9.8842538136523217e-05, 0.00018931037629954517, 0.0001640044356463477, 0.00015104077465366572, 0.00021442012803163379, 0.00020772451534867287, 0.00030125310877338052, 0.00038488590507768095, 0.00034790753852576017, 0.00018829596228897572, 0.00010413998097646981, 8.6529937107115984e-05, 0.00027707073604688048, 0.000133961730170995, 0.00026234757388010621, 0.0001420328626409173, 0.00019526267715264112, 0.00016197626246139407, 9.3499322247225791e-05, 6.051285527064465e-05, 0.00037779062404297292, 0.0002575374674052, 0.00023258992587216198, 0.00011606100451899692, 0.00010057252802653238, 0.00015071046072989702, 0.00013731290528085083, 0.00027402196428738534, 0.00056181754916906357, 5.1821538363583386e-05, 0.00025374803226441145, 0.00035072275204584002, 0.00015922299644444138, 0.00032485564588569105, 0.00013169395970180631, 0.00015980022726580501, 0.00012925939518027008, 9.7079529950860888e-05, 0.00012533791596069932, 0.00014538186951540411, 0.00019877975864801556, 0.00010760026634670794, 0.00019001214241143316, 0.00011274425924057141, 0.00013495780876837671, 0.00044481526128947735, 0.0031039451714605093, 6.8243920395616442e-05, } };
const TfLiteAffineQuantization quant15 = { (TfLiteFloatArray*)&quant15_scale, (TfLiteIntArray*)&g0::quant5_zero, 0 };
const MODEL_SECTION(EI_MODEL_SECTION) ALIGN(16) int8_t tensor_data16[1*3*3*96] = { 
  /* [0][0][][] */ -17,6,-21,104,-16,22,-62,-53,17,-6,102,-9,4,-8,-4,54,6,16,-34,2,72,3,32,-34,2,18,44,48,23,14,24,48,-6,28,12,-15,5,49,-60,-25,20,8,27,19,-82,-57,25,-5,-11,-21,-9,-6,50,5,-9,2,-3,-35,29,-31,27,-2,127,27,-14,-11,11,-53,66,35,4,-7,78,-33,70,4,16,-127,29,66,0,15,127,-15,37,29,-28,-19,34,-7,-14,80,1,20,-2,13, -48,14,-9,11,52,-8,-10,-127,38,13,-127,-5,-17,-12,3,90,19,-31,-17,-16,77,-96,127,25,-61,-31,-104,-14,27,36,-49,17,120,12,-12,-1,-23,127,-61,-127,9,-19,-31,14,46,-127,127,-44,-75,50,49,7,39,-64,30,57,37,42,-101,84,127,35,4,-20,42,-38,-92,-3,37,-30,-19,46,-49,-49,104,-3,-29,-61,-33,64,-67,64,-14,9,-11,48,53,-39,-28,53,-13,72,-127,-30,24,-127, 0,-2,-23,-74,8,19,38,22,-5,-3,5,63,-1,-12,-11,5,-13,17,-17,17,9,25,23,-32,1,-31,9,13,-7,7,47,-79,43,18,10,-23,12,3,-31,-20,7,2,-16,9,22,-33,21,1,7,-8,6,-5,5,5,-6,8,-6,43,7,-1,9,-19,2,-17,-27,-17,31,-50,-106,-6,42,-16,-127,-24,-13,17,11,-12,5,13,-14,24,-37,-4,-41,21,25,37,-25,-16,24,-12,21,7,-2,-47, 
  /* [0][1][][] */ -40,57,-18,37,-84,-17,-11,-45,26,95,-45,-21,-29,-25,-7,62,127,-23,-89,-12,59,-127,-28,15,-36,-46,-127,-6,37,36,-50,27,-127,-75,-56,3,65,-3,-50,47,-20,84,1,-3,35,-49,-13,-32,127,45,-4,20,44,9,-36,-18,30,9,-123,127,-36,-88,20,127,-59,-36,-83,127,-38,127,-16,53,-36,-56,36,8,-36,-71,127,46,127,35,5,-2,127,29,-94,46,-38,-37,-102,40,98,101,29,-58, 127,127,127,127,-45,-127,127,23,127,-127,17,-127,-106,127,127,127,-16,-127,-64,-127,127,23,-68,127,127,127,-56,-127,127,127,-127,127,-9,-127,-123,127,-127,-44,94,110,-127,-127,127,127,127,-114,-107,127,-13,127,-127,-127,-127,127,127,-127,127,-127,-41,40,-106,-26,-70,-69,127,127,-70,127,127,-106,-127,127,-42,127,-127,-127,-127,126,-76,127,-43,127,80,127,-38,-127,-24,-105,-127,-127,-23,-127,-21,-127,-127,116, -24,63,-38,1,127,70,-20,50,4,23,-13,-3,-26,-30,-12,-9,-104,-21,-127,40,32,77,-12,-116,-34,-40,122,73,9,35,73,9,125,-48,127,-4,55,5,-94,15,36,22,-24,2,-22,-51,-12,-43,80,15,-11,40,-5,-4,-76,-14,24,20,127,-87,1,127,1,-36,-112,-27,-73,101,16,-17,114,25,-18,-57,10,48,-28,-8,-44,-4,-47,7,45,23,-91,35,127,-46,31,-22,127,-10,-112,35,34,18, 
  /* [0][2][][] */ -3,-39,-22,-62,-3,14,40,31,-2,10,-20,54,24,-35,-7,6,42,2,13,22,-12,29,-17,-27,1,-24,8,2,-10,-7,50,-74,-38,67,-27,-25,31,-35,-61,15,9,9,-33,22,12,-76,-12,-1,-9,7,16,-7,8,1,-23,5,-3,42,-47,33,-5,-12,5,16,-7,-10,23,-56,-57,12,-20,-11,-118,-32,0,19,14,-11,55,17,21,22,-41,14,13,24,-22,9,5,24,23,-6,20,39,-6,-29, -28,-11,-27,24,-44,73,-24,65,5,-5,54,-11,127,-7,-18,-18,0,-40,-59,24,-25,79,-45,-113,-47,-47,100,68,13,45,54,-1,-122,64,-14,-23,-28,-27,-127,-5,44,-13,-13,38,-27,-44,-18,-48,-59,27,69,24,-11,-81,29,51,15,27,75,-55,22,-58,-9,0,19,-25,-127,-56,-11,-26,-63,24,38,-47,-31,-6,-44,24,-56,1,49,35,18,10,6,62,-92,127,15,125,-30,-19,116,-21,47,85, -9,-34,-25,29,12,64,-42,12,3,-7,-1,14,12,-50,-9,-12,-43,-6,19,19,-25,6,-21,3,-4,20,0,51,-3,-5,34,30,18,43,21,-23,-6,-26,-30,7,10,-11,21,10,-73,-31,-13,4,-2,-16,0,-4,-8,8,-18,-5,0,-48,14,-29,-20,48,9,-29,-11,-2,38,-55,46,7,55,-21,30,-55,-19,23,10,12,-6,23,-30,32,89,-13,-17,54,38,-9,108,12,3,-19,12,-22,-6,-49, 
};
const TfArray<96, float> quant16_scale = { 96, { 0.0066715744324028492, 0.005028353538364172, 0.010011819191277027, 0.0017827898263931274, 0.0064414902590215206, 0.0065594520419836044, 0.012608545832335949, 0.003456534817814827, 0.0076973759569227695, 0.016633685678243637, 0.0067129945382475853, 0.012240104377269745, 0.0039339540526270866, 0.017274878919124603, 0.0079961773008108139, 0.0077638602815568447, 0.0042786658741533756, 0.012965891510248184, 0.0029242618475109339, 0.01254693977534771, 0.0019762320443987846, 0.0075041539967060089, 0.0049233441241085529, 0.01447791513055563, 0.0074420496821403503, 0.01009219978004694, 0.0058238068595528603, 0.0070422803983092308, 0.00538294343277812, 0.004936806857585907, 0.006310140248388052, 0.0068897022865712643, 0.0050752903334796429, 0.0053429580293595791, 0.0093566719442605972, 0.006333397701382637, 0.016127085313200951, 0.004664568230509758, 0.0017487236764281988, 0.0046500149182975292, 0.007790581788867712, 0.014640050008893013, 0.014323021285235882, 0.0068139662034809589, 0.0086278719827532768, 0.0023904922418296337, 0.0090798148885369301, 0.0077705415897071362, 0.0042008077725768089, 0.0080456910654902458, 0.0069701885804533958, 0.0064192330464720726, 0.0091128554195165634, 0.0088282916694879532, 0.012803257443010807, 0.016357650980353355, 0.014786070212721825, 0.0080025782808661461, 0.0044259489513933659, 0.0036775222979485989, 0.011775506660342216, 0.0056933732703328133, 0.011149771511554718, 0.0060363966040313244, 0.0082986634224653244, 0.0068839909508824348, 0.0039737210609018803, 0.0025717962998896837, 0.016056101769208908, 0.010945342481136322, 0.0098850717768073082, 0.0049325926229357719, 0.0042743324302136898, 0.0064051947556436062, 0.0058357981033623219, 0.01164593268185854, 0.02387724444270134, 0.0022024153731763363, 0.010784290730953217, 0.014905716292560101, 0.0067669772543013096, 0.013806364499032497, 0.0055969930253922939, 0.0067915092222392559, 0.0054935240186750889, 0.0041258800774812698, 0.0053268610499799252, 0.006178729236125946, 0.0084481397643685341, 0.0045730113051831722, 0.0080755157396197319, 0.0047916308976709843, 0.0057357065379619598, 0.018904648721218109, 0.13191767036914825, 0.0029003666713833809, } };
const TfLiteAffineQuantization quant16 = { (TfLiteFloatArray*)&quant16_scale, (TfLiteIntArray*)&g0::quant5_zero, 3 };
const MODEL_SECTION(EI_MODEL_SECTION) ALIGN(16) int32_t tensor_data17[96] = { 17949, 1768, 10427, -1093, 5953, 5111, 20168, 5951, -1689, 20175, 8444, 1631, 7393, 39136, -608, -1752, 8087, 12937, 2341, -220, -705, 16206, 4795, 3663, 7275, 7303, 6265, 4179, 46, -53, 7224, 8865, 13755, 1803, 8298, -584, 20944, 8632, 735, 7788, 712, 13984, 15751, 5064, 2944, 14915, 17245, 7406, 5501, 3714, 335, -846, 24520, 7982, 9419, 16880, -301, 9004, 3711, 3796, 13990, 9160, 2292, 6463, 5805, 4198, 6737, -749, 21016, 9569, 10851, -984, -1893, 3878, 1951, 3575, 24711, 13892, 12867, -3403, 6620, -7219, -2820, 796, 6824, 5292, 6668, 5551, 13199, 5210, 8945, 3972, 16847, 18087, -9400, 12815, };
const TfArray<96, float> quant17_scale = { 96, { 0.00014266248035710305, 0.00020296152797527611, 0.00013109264546073973, 0.00053616490913555026, 0.0002655260032042861, 0.00018164060020353645, 0.00015470841026399285, 0.00059078348567709327, 0.00028432279941625893, 8.954131044447422e-05, 0.00017220040899701416, 0.00047668538172729313, 0.000373315648175776, 0.00012266100384294987, 0.00020417767518665642, 0.00038926434353925288, 0.00027602858608588576, 0.00018004437151830643, 0.00019534338207449764, 0.00052209320710971951, 0.00042030485928989947, 0.00015324114065151662, 0.0003146232629660517, 0.00021303749235812575, 0.00024548603687435389, 0.00028399101574905217, 0.00023142443387769163, 0.00021556328283622861, 0.0005631514941342175, 0.00038881096406839788, 0.00019676073861774057, 0.00021329152514226735, 0.00014307910169009119, 0.00059752189554274082, 0.0002015297650359571, 0.00049996422603726387, 0.00010931552242254838, 0.00030468808836303651, 0.00060658279107883573, 0.00012139249156462029, 0.00068815634585916996, 0.00013587268767878413, 0.00013385727652348578, 0.00015261639782693237, 0.00037767781759612262, 0.00021988831576891243, 0.00016449803661089391, 0.00019726122263818979, 0.00028824291075579822, 0.00024460363783873618, 0.00040555500891059637, 0.00078669365029782057, 0.00010944723180728033, 0.0002012704499065876, 0.00024700508220121264, 0.00011057355732191354, 0.0003930114908143878, 0.00019802592578344047, 0.00020708417287096381, 0.0004274585226085037, 0.00012131733092246577, 0.00015320535749197006, 0.00045897785457782447, 0.00042713581933639944, 0.00018704193644225597, 0.0002673923154361546, 0.00029414278105832636, 0.00041747456998564303, 0.00012873535160906613, 0.00011910787725355476, 0.0001798310549929738, 0.00050472660223022103, 0.0002035271463682875, 0.00034250627504661679, 0.00023292015248443931, 0.00035246825427748263, 9.6229203336406499e-05, 0.00032273182296194136, 0.00012763572158291936, 0.00035773729905486107, 0.00016527592379134148, 0.00028745472081936896, 0.00013430045510176569, 0.00032658269628882408, 0.00023334668367169797, 0.00029460163204930723, 0.0002471436164341867, 0.00025044416543096304, 0.00012598703324329108, 0.0003102546907030046, 0.00015642237849533558, 0.00043079408351331949, 0.00012518938456196338, 0.0001513472234364599, 0.00031142658554017544, 0.00025799145805649459, } };
const TfLiteAffineQuantization quant17 = { (TfLiteFloatArray*)&quant17_scale, (TfLiteIntArray*)&g0::quant5_zero, 0 };
const MODEL_SECTION(EI_MODEL_SECTION) ALIGN(16) int8_t tensor_data18[96*1*1*16] = { 
  /* [0][0][][] */ 40,-24,127,98,63,-11,33,-22,127,-14,-44,-69,28,89,-35,-63, 
  /* [1][0][][] */ 21,75,-16,-12,102,-13,24,44,83,91,-26,125,18,-33,127,-117, 
  /* [2][0][][] */ 6,-74,13,13,-41,47,-50,102,-84,-123,13,94,9,-127,87,-122, 
  /* [3][0][][] */ 122,114,1,31,-127,-9,-66,-18,8,-6,115,-74,-54,102,-46,-40, 
  /* [4][0][][] */ 2,-12,11,7,-21,38,-17,51,-60,-26,-5,4,3,-127,19,12, 
  /* [5][0][][] */ 127,-56,-18,-2,0,-112,-34,12,-7,2,-123,-18,41,-2,3,18, 
  /* [6][0][][] */ -125,-67,-7,98,-105,-16,-7,70,-127,-41,-46,-20,37,69,-38,85, 
  /* [7][0][][] */ -24,22,-79,60,32,-127,-18,58,16,-27,20,-8,6,23,-34,5, 
  /* [8][0][][] */ 31,-53,-2,-12,16,37,-64,-66,-18,10,-57,5,-127,3,-7,16, 
  /* [9][0][][] */ 40,-44,47,104,-12,7,-4,-70,127,-81,-2,-32,-11,52,-61,30, 
  /* [10][0][][] */ -104,-87,-1,-47,102,31,60,57,127,-63,-82,-10,102,-120,-74,67, 
  /* [11][0][][] */ 35,-15,-127,5,63,32,-29,33,-15,-40,2,-7,-9,23,-50,-8, 
  /* [12][0][][] */ 127,-75,30,24,-4,-56,-62,-27,56,14,-96,-19,-57,1,-7,34, 
  /* [13][0][][] */ 78,-78,-8,-60,93,30,-126,-127,39,-63,-17,30,62,-36,34,23, 
  /* [14][0][][] */ -60,32,-84,-41,78,-127,70,-46,59,50,-1,-99,33,100,-8,18, 
  /* [15][0][][] */ 31,-2,56,34,34,-44,-43,-15,5,-51,-47,-9,-127,-53,-15,52, 
  /* [16][0][][] */ -99,70,-9,32,-12,79,42,46,-4,33,127,-7,-11,7,21,-61, 
  /* [17][0][][] */ -18,-10,-55,-27,-45,9,49,76,-20,127,-16,1,-3,74,71,-4, 
  /* [18][0][][] */ 2,118,-47,-3,12,13,69,-64,26,125,-59,127,23,-51,33,-106, 
  /* [19][0][][] */ 10,-26,28,18,0,39,-10,22,19,10,-43,-14,-127,5,-8,24, 
  /* [20][0][][] */ 88,-47,-10,-80,-35,25,24,-94,-57,32,-127,-32,18,-3,44,8, 
  /* [21][0][][] */ 41,0,127,41,-21,54,37,8,1,20,-16,-9,6,97,2,-10, 
  /* [22][0][][] */ 23,6,24,8,-13,8,25,127,0,-22,17,27,-2,34,15,14, 
  /* [23][0][][] */ -17,22,-82,16,15,-127,13,37,8,-20,3,-1,-66,1,0,28, 
  /* [24][0][][] */ 26,-47,0,-57,59,-3,-24,-15,24,23,63,86,-36,67,127,40, 
  /* [25][0][][] */ -127,-102,-63,14,38,14,-8,-52,-66,-15,-101,44,18,41,7,43, 
  /* [26][0][][] */ 2,-19,50,-9,-2,10,-38,63,-77,-68,-14,12,10,-127,54,-9, 
  /* [27][0][][] */ -93,47,-41,30,38,-38,2,40,35,-33,127,31,-20,-4,-18,-33, 
  /* [28][0][][] */ -15,-6,22,37,2,3,12,82,27,13,-26,-4,-127,-6,-13,33, 
  /* [29][0][][] */ 1,52,30,-46,23,-34,31,-12,-127,27,-14,-11,13,39,-69,19, 
  /* [30][0][][] */ -3,-1,-127,-24,13,-63,5,22,-22,-6,5,-16,-36,-29,9,15, 
  /* [31][0][][] */ 115,-40,-127,-1,31,-4,-50,54,-10,-14,-63,-58,16,-8,-66,34, 
  /* [32][0][][] */ -115,54,22,38,21,86,20,37,14,3,127,8,-26,15,-21,-18, 
  /* [33][0][][] */ 1,-14,127,-22,-64,27,12,-28,-5,10,-6,21,-3,20,40,20, 
  /* [34][0][][] */ -31,-43,-15,-101,39,3,4,-29,-43,-77,-51,-127,-13,12,55,11, 
  /* [35][0][][] */ 3,-42,44,46,48,-26,15,-17,-121,40,-1,26,-29,127,-49,-42, 
  /* [36][0][][] */ -126,54,-31,-12,-22,33,39,81,-12,18,127,-7,3,15,3,-12, 
  /* [37][0][][] */ -35,17,127,-26,-77,-58,27,-31,14,24,-3,13,2,-67,66,12, 
  /* [38][0][][] */ 4,-6,-16,20,32,-60,-55,18,-25,-13,87,-17,127,21,-10,9, 
  /* [39][0][][] */ -4,15,-15,-47,-68,-113,90,127,-47,0,1,-36,1,26,69,99, 
  /* [40][0][][] */ 70,-9,-24,-18,-14,76,-9,2,12,-4,12,-2,127,5,-24,-14, 
  /* [41][0][][] */ -11,-4,-39,-127,31,-12,-30,-81,-7,-62,17,-40,-8,-8,-9,43, 
  /* [42][0][][] */ 91,55,-8,102,-127,-41,-47,6,-81,-29,90,-66,-56,119,-32,29, 
  /* [43][0][][] */ 9,100,-31,127,14,16,43,-64,-37,76,-3,17,9,-45,48,39, 
  /* [44][0][][] */ -4,-26,-127,27,51,83,-36,61,-9,-20,45,-32,10,-33,-57,-4, 
  /* [45][0][][] */ -7,12,-7,-127,-30,-5,64,0,-15,29,-23,6,15,-108,38,-40, 
  /* [46][0][][] */ 9,9,57,-28,3,4,-48,57,12,-67,-20,-1,15,127,47,-21, 
  /* [47][0][][] */ 21,-28,18,-46,-48,11,-59,60,-13,-31,15,27,13,-127,48,21, 
  /* [48][0][][] */ 9,-4,1,-127,-14,-23,-5,-3,8,-32,15,-11,0,40,-5,52, 
  /* [49][0][][] */ 49,-23,-4,127,86,15,8,32,-47,24,20,48,-31,35,116,-5, 
  /* [50][0][][] */ -5,-26,59,-14,8,127,-19,-63,54,-19,109,23,96,7,17,-69, 
  /* [51][0][][] */ 43,45,16,15,17,6,-48,29,45,1,-3,127,7,39,43,-39, 
  /* [52][0][][] */ -26,62,127,20,46,-33,0,-60,-21,31,7,62,-7,70,-119,-32, 
  /* [53][0][][] */ -1,-17,-46,-127,-58,5,23,-36,-14,52,4,-11,24,-32,51,20, 
  /* [54][0][][] */ 14,3,-29,-40,17,5,-9,12,69,-16,0,-34,-4,127,26,31, 
  /* [55][0][][] */ -8,-23,-48,-19,26,-62,-16,-127,0,-117,-12,0,-27,-90,-50,2, 
  /* [56][0][][] */ 35,45,32,56,4,-19,15,127,27,-27,5,-36,76,-13,-48,28, 
  /* [57][0][][] */ 59,-5,127,-41,-82,-59,20,-35,18,26,-87,14,72,-71,76,23, 
  /* [58][0][][] */ 93,77,25,102,-127,-10,-18,51,-1,15,111,-37,-82,-56,-26,-78, 
  /* [59][0][][] */ 127,-26,3,8,-27,-6,-3,3,-17,32,-111,-16,-4,2,7,16, 
  /* [60][0][][] */ -127,24,-4,-11,14,18,20,35,9,-3,106,0,-38,11,8,-27, 
  /* [61][0][][] */ -122,39,-1,24,13,29,-74,-48,127,-101,63,10,57,-29,-126,-34, 
  /* [62][0][][] */ -30,-26,-127,50,60,98,0,99,28,-43,45,3,-65,-8,-90,-7, 
  /* [63][0][][] */ -37,18,127,-39,-59,-48,21,-38,9,8,5,7,-17,-42,60,12, 
  /* [64][0][][] */ 12,71,3,-2,81,-3,88,-127,-27,72,28,-23,-16,-83,-13,54, 
  /* [65][0][][] */ 10,17,8,-17,62,15,-10,-127,-22,-58,-24,-43,-15,-26,33,18, 
  /* [66][0][][] */ -127,6,-12,15,-36,23,6,-42,-72,-36,-76,53,54,26,42,71, 
  /* [67][0][][] */ -24,-44,-2,127,7,-18,-28,38,56,30,23,-10,-9,-45,-94,-20, 
  /* [68][0][][] */ 13,-6,-20,127,-39,-18,-6,-34,-27,43,5,-20,-34,-51,-28,-34, 
  /* [69][0][][] */ 93,92,33,115,47,-20,69,-127,31,91,4,44,-11,-16,30,-14, 
  /* [70][0][][] */ 39,-30,22,-93,127,1,15,-19,77,-39,72,-64,-26,112,50,118, 
  /* [71][0][][] */ 14,36,8,71,43,-127,-37,81,44,-88,11,3,16,-41,-53,25, 
  /* [72][0][][] */ -127,-78,-18,40,26,44,-46,4,-50,-44,-87,38,45,15,0,95, 
  /* [73][0][][] */ -30,-2,-1,59,36,-17,6,-14,71,10,9,19,31,127,-76,-68, 
  /* [74][0][][] */ 81,-43,22,-30,-42,-16,43,-13,-36,-13,-110,17,-127,-18,34,50, 
  /* [75][0][][] */ -21,-14,-31,127,-26,-1,-4,-27,-64,20,-14,-23,-6,-48,-9,-37, 
  /* [76][0][][] */ -1,-13,-10,48,27,4,-15,-127,20,-111,9,14,-19,-17,37,-35, 
  /* [77][0][][] */ 127,-29,28,48,-51,-12,-24,11,38,4,-27,39,39,12,-31,44, 
  /* [78][0][][] */ -4,5,31,-6,-2,-20,-52,20,47,-25,-33,-35,3,127,37,-17, 
  /* [79][0][][] */ 3,19,53,21,49,64,-56,-59,13,-50,70,-11,127,-20,-34,-43, 
  /* [80][0][][] */ -117,-98,-59,127,24,51,32,-25,-49,13,-59,46,56,-53,-33,22, 
  /* [81][0][][] */ 63,15,-65,28,127,91,-36,-28,-3,-90,-26,-67,-30,-15,-97,33, 
  /* [82][0][][] */ 111,127,-2,44,-109,-16,-76,-37,-77,2,107,-51,-64,79,-12,-53, 
  /* [83][0][][] */ 127,38,21,-26,10,-9,-16,27,34,10,88,-43,-52,-21,-33,-92, 
  /* [84][0][][] */ 5,-41,-45,-10,38,13,-2,-127,-11,-43,26,18,-26,-8,8,-16, 
  /* [85][0][][] */ -9,-10,-45,-50,-15,-8,65,79,-16,127,3,-50,14,57,69,-25, 
  /* [86][0][][] */ 90,-34,-6,-9,2,-24,-5,-14,-5,2,-127,10,20,23,-5,34, 
  /* [87][0][][] */ -14,35,5,-41,-16,65,-20,47,-6,-34,40,5,11,-127,25,-4, 
  /* [88][0][][] */ -21,-40,-87,-48,71,11,-43,-127,-3,-53,2,-15,-21,16,16,-18, 
  /* [89][0][][] */ 15,-14,22,-127,54,15,-70,96,97,-98,29,7,-12,56,33,33, 
  /* [90][0][][] */ -17,13,-45,35,60,-11,93,-73,50,127,-34,36,19,-12,-13,-17, 
  /* [91][0][][] */ 40,-17,-40,2,-9,-127,-24,-1,0,1,-50,-17,34,-7,-2,28, 
  /* [92][0][][] */ 12,-6,127,70,51,23,-11,36,-24,23,-73,29,36,80,-9,-11, 
  /* [93][0][][] */ 127,-41,-28,-5,-11,-58,0,28,-10,31,-116,-11,-10,30,-22,31, 
  /* [94][0][][] */ 19,-13,43,71,109,-26,-18,51,2,-20,-4,55,-15,127,-33,-82, 
  /* [95][0][][] */ -127,47,36,40,17,31,23,-1,9,11,123,-2,-29,21,-21,-23, 
};
const TfArray<96, float> quant18_scale = { 96, { 0.00051258644089102745, 0.00072924094274640083, 0.00047101601376198232, 0.001926440978422761, 0.0009540352039039135, 0.00065263482974842191, 0.0005558674456551671, 0.0021226855460554361, 0.001021572039462626, 0.00032172200735658407, 0.00061871623620390892, 0.0017127309693023562, 0.0013413234846666455, 0.00044072107993997633, 0.00073361059185117483, 0.0013986271806061268, 0.00099177099764347076, 0.00064689957071095705, 0.00070186896482482553, 0.0018758813384920359, 0.0015101557364687324, 0.00055059557780623436, 0.0011304416693747044, 0.00076544389594346285, 0.00088203151244670153, 0.0010203799465671182, 0.00083150819409638643, 0.00077451905235648155, 0.0020234037656337023, 0.0013969981810078025, 0.00070696149487048388, 0.00076635665027424693, 0.00051408336730673909, 0.0021468966733664274, 0.0007240966078825295, 0.0017963718855753541, 0.00039277077303268015, 0.0010947445407509804, 0.0021794524509459734, 0.00043616333277896047, 0.0024725464172661304, 0.0004881907079834491, 0.00048094932571984828, 0.0005483508575707674, 0.0013569967122748494, 0.00079005892621353269, 0.00059104157844558358, 0.00070875976234674454, 0.001035657012835145, 0.00087886105757206678, 0.0014571595238521695, 0.0028265910223126411, 0.00039324400131590664, 0.00072316493606194854, 0.00088748952839523554, 0.00039729088894091547, 0.0014120906125754118, 0.00071150733856484294, 0.00074405362829566002, 0.0015358588425442576, 0.00043589327833615243, 0.00055046699708327651, 0.0016491079004481435, 0.0015346993459388614, 0.00067204184597358108, 0.00096074078464880586, 0.0010568553116172552, 0.0014999865088611841, 0.00046254621702246368, 0.00042795471381396055, 0.00064613315043970942, 0.0018134831916540861, 0.00073127320501953363, 0.0012306253192946315, 0.00083688233280554414, 0.0012664187233895063, 0.00034575161407701671, 0.0011595757678151131, 0.00045859525562264025, 0.0012853504158556461, 0.00059383653569966555, 0.001032825093716383, 0.00048254168359562755, 0.0011734119616448879, 0.00083841482410207391, 0.0010585039854049683, 0.0008879872621037066, 0.00089984608348459005, 0.00045267154928296804, 0.0011147453915327787, 0.00056202575797215104, 0.0015478435670956969, 0.00044980554957874119, 0.00054379069479182363, 0.0011189560173079371, 0.00092696357751265168, } };
const TfLiteAffineQuantization quant18 = { (TfLiteFloatArray*)&quant18_scale, (TfLiteIntArray*)&g0::quant5_zero, 0 };
const MODEL_SECTION(EI_MODEL_SECTION) ALIGN(16) int32_t tensor_data19[16] = { -35937, 4070, 1816, -6483, 2241, -5115, -10691, -40664, 828, 23129, 32572, -8530, -1077, -22304, 37418, -43714, };
const TfArray<16, float> quant19_scale = { 16, { 0.00084585743024945259, 0.00088160415180027485, 0.0010255542583763599, 0.001100685796700418, 0.00081920827506110072, 0.0009857608238235116, 0.0010369739029556513, 0.00061123422347009182, 0.00064869836205616593, 0.00064464390743523836, 0.00094274093862622976, 0.00062097830232232809, 0.0012780983233824372, 0.0013710482744500041, 0.00050098751671612263, 0.00070410949410870671, } };
const TfLiteAffineQuantization quant19 = { (TfLiteFloatArray*)&quant19_scale, (TfLiteIntArray*)&g0::quant7_zero, 0 };
const MODEL_SECTION(EI_MODEL_SECTION) ALIGN(16) int8_t tensor_data20[16*1*1*48] = { 
  /* [0][0][][] */ -19,-3,-26,7,23,-3,3,106,-52,17,43,-4,20,-16,-12,16,12,-9,-8,-4,66,-12,17,127,-17,84,-2,-15,31,-12,28,-25,-19,54,14,-49,12,49,15,-7,-112,-25,18,48,32,26,-125,-50, 
  /* [1][0][][] */ -37,-19,24,9,-36,9,3,60,-64,-26,4,-50,-20,-22,-1,-4,-20,126,-9,23,12,7,-27,-18,23,-46,19,28,-35,-94,-39,20,-25,-4,31,0,-2,-41,1,19,-19,-32,127,15,17,-4,24,-12, 
  /* [2][0][][] */ -22,-11,-14,-33,-2,-66,7,-21,2,12,15,28,16,11,-13,9,0,-18,-23,-11,-4,1,2,-127,-16,75,-15,5,-5,-16,0,-7,-12,55,10,-2,20,11,27,4,-38,4,-20,-7,0,-13,15,7, 
  /* [3][0][][] */ -7,30,7,-32,-4,0,5,-4,-21,-6,1,38,-127,3,-9,-3,4,6,-20,0,-33,9,3,14,-11,-14,7,26,-11,21,8,22,2,1,16,16,-12,28,40,3,11,5,25,-27,10,-6,5,19, 
  /* [4][0][][] */ 35,-29,11,13,16,24,27,-24,-27,0,-14,-19,4,10,5,18,24,-10,-74,7,-6,14,13,73,-4,-30,9,43,10,-71,22,11,8,-30,35,-127,9,37,-5,18,-17,15,13,-19,-13,-18,10,1, 
  /* [5][0][][] */ 32,-1,-21,55,2,-5,6,22,0,-1,42,6,6,53,0,1,-21,24,25,0,8,2,2,-27,5,-48,0,-17,-2,-12,2,3,67,-127,-1,29,-12,-11,12,7,-90,52,17,-4,-3,-3,-99,-5, 
  /* [6][0][][] */ 26,-3,6,6,-17,-7,6,-12,-5,4,-4,5,-16,6,5,4,2,-10,127,12,7,14,15,-32,1,0,28,-15,-7,-6,-4,7,0,-10,29,-35,1,-42,68,12,2,-6,-3,10,-10,2,7,-10, 
  /* [7][0][][] */ -42,-15,-9,35,-12,74,0,42,2,25,-7,127,76,-7,-6,-6,-12,-22,-5,-13,-26,-12,-15,67,-1,-38,-50,-31,-4,-11,-17,-7,-2,0,-19,5,6,-52,91,1,24,27,-61,-54,16,-11,6,3, 
  /* [8][0][][] */ -49,-46,-2,3,-9,1,-6,32,-2,-65,3,37,49,9,3,11,-14,56,-31,10,-52,21,-9,-15,0,6,2,42,-6,109,-13,19,-5,-2,-12,-127,-105,64,36,30,15,2,107,-26,8,22,18,31, 
  /* [9][0][][] */ -23,9,0,27,21,-32,-9,-2,54,-38,13,53,-59,6,13,-2,-11,16,-40,-25,47,11,-17,-19,0,10,47,-26,9,7,9,-7,2,15,78,-103,-4,-127,-95,5,-32,31,62,13,4,6,-18,-39, 
  /* [10][0][][] */ -22,-13,-34,-127,45,83,13,-7,-1,32,20,12,51,-52,-30,22,40,-40,58,-31,36,-26,42,55,-44,-112,7,-36,42,31,45,-47,-32,-78,27,-3,14,-43,10,-35,-31,-67,-11,9,14,17,19,-37, 
  /* [11][0][][] */ 5,50,2,65,49,-67,-77,-19,7,59,-18,1,-8,56,-11,-76,13,36,8,-9,-52,-99,10,5,21,-35,17,-18,57,-39,20,-79,46,-18,-33,-93,89,21,4,-127,4,58,98,-71,-9,-49,30,28, 
  /* [12][0][][] */ 127,-4,-21,15,-3,15,4,96,22,-13,-60,-25,0,11,-6,0,-9,7,-6,-3,0,-3,7,19,-5,17,1,4,-7,13,-6,4,4,-68,-7,6,-16,-14,-31,3,-15,-78,7,-122,-54,-7,76,0, 
  /* [13][0][][] */ 8,5,0,6,4,-9,3,1,0,5,4,22,-6,3,6,0,8,3,11,5,13,-10,7,-3,-2,-1,20,127,11,-3,8,-3,5,0,-41,21,8,-5,7,-15,-13,-2,2,6,-2,-4,-8,-13, 
  /* [14][0][][] */ 62,-17,40,-70,55,27,33,-101,-56,-62,-5,127,-79,-7,71,15,51,26,-51,65,24,20,70,-12,31,58,-33,-125,34,-36,56,44,3,74,-125,-45,-39,45,92,6,-36,15,63,3,-4,7,12,-27, 
  /* [15][0][][] */ -10,-51,-76,-34,61,24,69,-44,-8,17,-19,-30,80,16,-100,67,50,52,81,-81,-95,-32,57,-9,-87,42,25,55,59,48,41,-49,16,64,92,127,-19,-110,-10,-35,95,54,114,-48,2,-34,-16,62, 
};
const TfArray<4, int> tensor_dimension20 = { 4, { 16,1,1,48 } };
const TfArray<16, float> quant20_scale = { 16, { 0.035948939621448517, 0.037468176335096359, 0.043586056679487228, 0.046779144555330276, 0.034816350787878036, 0.041894834488630295, 0.044071391224861145, 0.025977455079555511, 0.027569679543375969, 0.027397364377975464, 0.040066488087177277, 0.02639157697558403, 0.054319176822900772, 0.058269549161195755, 0.02129196934401989, 0.029924653470516205, } };
const TfLiteAffineQuantization quant20 = { (TfLiteFloatArray*)&quant20_scale, (TfLiteIntArray*)&g0::quant7_zero, 0 };
const MODEL_SECTION(EI_MODEL_SECTION) ALIGN(16) int32_t tensor_data21[48] = { 3746, 39092, -1095, 53260, 5213, 127421, -1905, 47800, 3561, 31991, 25201, 2627, 479, 30169, 297, -1382, -730, 999, 3289, -1942, 1337, -2631, -178, -18694, -4425, 39239, 126359, 94336, 3773, 3171, -2416, 379, 22024, 721, 50556, -5290, 70548, 702, 49146, 2819, -93, 58303, -2458, 3251, 51642, -941, 4350, 46003, };
const TfArray<1, int> tensor_dimension21 = { 1, { 48 } };
const TfArray<48, float> quant21_scale = { 48, { 7.488174014724791e-05, 3.4569155104691163e-05, 0.00015210574201773852, 4.527032797341235e-05, 0.0002071558847092092, 6.4894811657723039e-05, 0.00016429323295596987, 0.00012028554192511365, 7.841193291824311e-05, 4.5158099965192378e-05, 5.484943903866224e-05, 9.3095281044952571e-05, 4.2823641706490889e-05, 3.957937951781787e-05, 0.0001502337254351005, 0.00021127324725966901, 0.00017659597506280988, 6.0292957641649991e-05, 0.00010239408584311604, 0.00012834332301281393, 7.5083029514644295e-05, 0.00015227052790578455, 0.00010472165013197809, 0.00011808671843027696, 9.7975040262099355e-05, 0.00011388822895241901, 2.7526948542799801e-05, 8.022416295716539e-05, 0.00014730314433109015, 0.00010586117423372343, 0.00012322174734435976, 0.00012562214396893978, 5.6596283684484661e-05, 0.00012642604997381568, 2.5400177037226968e-05, 6.4757536165416241e-05, 8.0699865065980703e-05, 0.00010193862544838339, 0.00011654521949822083, 9.1518122644629329e-05, 0.00012231705477461219, 9.8811869975179434e-05, 0.00010202905104961246, 8.8166285422630608e-05, 3.2928255677688867e-05, 0.00012897553096991032, 9.0345223725307733e-05, 3.1120405765250325e-05, } };
const TfArray<48, int> quant21_zero = { 48, { 0,0,0,0,0,0,0,0,0,0,0,0,0,0,0,0,0,0,0,0,0,0,0,0,0,0,0,0,0,0,0,0,0,0,0,0,0,0,0,0,0,0,0,0,0,0,0,0 } };
const TfLiteAffineQuantization quant21 = { (TfLiteFloatArray*)&quant21_scale, (TfLiteIntArray*)&quant21_zero, 0 };
const MODEL_SECTION(EI_MODEL_SECTION) ALIGN(16) int8_t tensor_data22[1*3*3*48] = { 
  /* [0][0][][] */ 69,-94,97,69,51,-35,108,-64,58,-88,-80,47,52,-44,-73,-89,102,80,50,77,65,-75,-83,50,-33,-40,-63,-63,-67,63,-61,-113,-14,41,68,63,-66,54,-51,-21,49,-73,55,62,-93,10,77,-32, 83,-98,127,84,-77,-69,-57,-85,96,-101,-63,74,79,-113,-97,91,-39,97,84,127,84,-117,52,72,-52,-78,-66,-79,55,81,-29,-127,-85,80,80,82,-83,83,-84,-14,75,-92,81,88,-72,-127,95,-103, 34,-46,70,37,18,-41,-47,-39,41,-30,5,35,30,-81,-56,-1,-54,38,35,69,33,-55,32,25,-28,-45,-43,-22,31,30,86,-90,-85,44,34,34,-29,38,-38,-11,41,-39,34,43,-6,-9,37,-71, 
  /* [0][1][][] */ 94,-113,-43,93,54,-81,127,-89,87,-112,-71,82,84,-112,-14,-127,127,108,75,-39,84,107,-127,72,73,-75,-96,-99,-127,87,-67,-9,-90,70,105,96,-85,79,-81,89,83,-100,88,92,-90,106,93,-92, 127,-127,-66,127,-127,-127,-93,-127,127,-127,-127,127,127,-127,-23,97,-66,127,127,-51,127,127,69,127,127,-127,-127,-127,53,127,-27,16,-127,127,127,127,-127,127,-127,127,127,-127,127,127,-127,-11,127,-127, 62,-77,-34,65,36,-62,-49,-61,55,-43,-59,58,49,-53,-17,10,-62,50,57,-30,56,64,50,64,65,-65,-63,-45,35,55,127,14,-62,69,48,50,-49,60,-60,57,59,-59,54,60,-63,-67,59,-56, 
  /* [0][2][][] */ 45,-49,-46,50,26,-53,64,-43,42,-70,-3,39,55,-75,82,-79,73,50,35,-33,26,-11,-77,29,-24,-45,-50,-49,-76,31,-40,90,-75,37,48,42,-25,37,-43,-88,46,-50,39,45,-25,15,40,-76, 71,-75,-49,80,-56,-63,-74,-68,52,-76,-64,60,73,-50,127,32,-47,59,62,-44,55,-18,41,67,-49,-66,-75,-60,31,62,-23,120,-57,65,56,58,-50,63,-66,-105,67,-66,61,62,-87,49,64,-54, 40,-40,-28,46,28,-19,-18,-35,15,-25,-52,28,31,4,66,24,-36,22,29,-32,28,0,39,42,-25,-28,-50,-23,34,34,61,66,2,33,14,21,-22,29,-29,-55,28,-33,26,30,-64,9,31,-4, 
};
const TfArray<4, int> tensor_dimension22 = { 4, { 1,3,3,48 } };
